-5.452710986137390137e-01
-2.158163309097290039e+00
-1.660797595977783203e+00
-6.637441515922546387e-01
3.657907545566558838e-01
-3.992015719413757324e-01
4.967408180236816406e-01
-2.369169235229492188e+00
-5.614708065986633301e-01
-5.949130654335021973e-01
1.268727898597717285e+00
1.290443420410156250e+00
-1.175568222999572754e+00
-7.832264155149459839e-02
-9.705761075019836426e-01
1.472369313240051270e+00
1.410856127738952637e+00
-1.314367532730102539e+00
-1.316215157508850098e+00
-1.252447724342346191e+00
-1.584410071372985840e+00
-2.544667005538940430e+00
1.371907472610473633e+00
-5.379461050033569336e-01
7.378400564193725586e-01
-8.505349159240722656e-01
3.610055148601531982e-02
1.340671062469482422e+00
9.199973940849304199e-01
-3.787555396556854248e-01
-1.559775829315185547e+00
-8.009540438652038574e-01
-7.111086845397949219e-01
-3.866667151451110840e-01
9.578314423561096191e-01
-8.225308656692504883e-01
-2.390805006027221680e+00
3.222477138042449951e-01
1.875388741493225098e+00
1.104298949241638184e+00
-5.223758816719055176e-01
-7.401803731918334961e-01
1.623565703630447388e-01
-2.369976043701171875e-01
5.099347233772277832e-01
1.670624852180480957e+00
1.592105031013488770e+00
-4.161921143531799316e-01
1.861944556236267090e+00
-1.077892780303955078e+00
8.848565220832824707e-01
-8.342104554176330566e-01
1.030074477195739746e+00
-8.680985569953918457e-01
-5.701602697372436523e-01
3.233220279216766357e-01
1.128475069999694824e+00
-1.212312698364257812e+00
2.602391004562377930e+00
-9.572362899780273438e-02
-8.114803582429885864e-02
1.258697628974914551e+00
8.691263794898986816e-01
-9.609367251396179199e-01
5.182264745235443115e-02
-3.284812867641448975e-01
-2.247206211090087891e+00
-4.478967487812042236e-01
4.234687089920043945e-01
-3.874586224555969238e-01
-2.296379208564758301e-01
-4.070934951305389404e-01
8.702965974807739258e-01
-1.055280923843383789e+00
-1.328401327133178711e+00
7.060741186141967773e-01
3.573011159896850586e-01
5.892837643623352051e-01
9.187757968902587891e-01
6.662830114364624023e-01
2.465061098337173462e-01
1.328691989183425903e-01
1.219146251678466797e-01
4.780877530574798584e-01
2.761341631412506104e-01
-5.895728468894958496e-01
5.691828131675720215e-01
-7.911050319671630859e-01
-1.989670246839523315e-01
-1.361571431159973145e+00
-5.193602442741394043e-01
7.648162543773651123e-02
3.400502502918243408e-01
1.455730438232421875e+00
-3.461014926433563232e-01
-2.633814215660095215e-01
-4.477001726627349854e-01
-7.288169264793395996e-01
-1.606623679399490356e-01
-3.206371366977691650e-01
-6.307737827301025391e-01
-7.887666225433349609e-01
1.306157588958740234e+00
-9.275763630867004395e-01
-2.627394795417785645e-01
9.314952492713928223e-01
-4.593467116355895996e-01
-9.419456720352172852e-01
-7.089186310768127441e-01
2.186075925827026367e+00
-6.493158936500549316e-01
4.521403610706329346e-01
8.520749807357788086e-01
-1.694672584533691406e+00
1.180599689483642578e+00
-2.892923831939697266e+00
-3.875778615474700928e-01
-7.124031782150268555e-01
-1.617133259773254395e+00
-3.589919805526733398e-01
5.136669427156448364e-02
6.950237154960632324e-01
1.835181474685668945e+00
-1.918036103248596191e+00
-1.392395496368408203e+00
5.404657721519470215e-01
4.350730776786804199e-01
-2.271703243255615234e+00
-1.338618993759155273e-01
-5.855730921030044556e-02
1.257447004318237305e-01
-5.525766611099243164e-01
7.448001205921173096e-02
-1.492866724729537964e-01
-5.522539615631103516e-01
-9.342008084058761597e-02
-1.028430938720703125e+00
4.044427871704101562e-01
2.142596244812011719e+00
-5.153723955154418945e-01
1.082719683647155762e+00
1.249864220619201660e+00
9.821351766586303711e-01
2.269009202718734741e-01
4.927920699119567871e-01
-5.128253102302551270e-01
3.006223440170288086e-01
7.734657824039459229e-02
6.477669477462768555e-01
-4.324244260787963867e-01
1.174048066139221191e+00
7.011352777481079102e-01
6.674330234527587891e-01
-8.035953640937805176e-01
-1.377604842185974121e+00
-4.410470724105834961e-01
1.417587399482727051e-01
1.108468174934387207e+00
5.544233322143554688e-01
1.581750273704528809e+00
-1.224787592887878418e+00
9.628858566284179688e-01
-1.578541278839111328e+00
6.715953946113586426e-01
-6.015185639262199402e-02
6.978437304496765137e-02
-1.663493633270263672e+00
-7.650561332702636719e-01
1.230643510818481445e+00
4.252126216888427734e-01
-1.638339832425117493e-02
-1.074948087334632874e-01
-1.308560490608215332e+00
6.598136425018310547e-01
-7.032525539398193359e-02
2.744829654693603516e-01
-3.450125455856323242e-01
-1.196178346872329712e-01
1.186158418655395508e+00
-1.220316052436828613e+00
2.909986078739166260e-01
-7.964225858449935913e-02
1.320036411285400391e+00
-1.519686698913574219e+00
-2.933551967144012451e-01
2.106604814529418945e+00
-1.087502762675285339e-01
6.083416342735290527e-01
7.894347310066223145e-01
7.824702858924865723e-01
-6.465863436460494995e-02
-2.302070497535169125e-04
6.830949187278747559e-01
1.063748151063919067e-01
3.503226041793823242e-01
1.210992410778999329e-01
2.984321117401123047e-01
1.344772934913635254e+00
1.461439251899719238e+00
1.056613206863403320e+00
8.155362606048583984e-01
-8.240620493888854980e-01
8.932762742042541504e-01
-3.868815600872039795e-01
-3.571768403053283691e-01
-1.156818628311157227e+00
-1.765995860099792480e+00
-2.537950754165649414e+00
9.694309532642364502e-02
-7.912065982818603516e-01
3.711955547332763672e-01
1.511795878410339355e+00
-8.914596438407897949e-01
5.247467160224914551e-01
3.517809212207794189e-01
2.491273283958435059e-01
1.190045237541198730e+00
1.410936951637268066e+00
7.980097532272338867e-01
4.941322505474090576e-01
-1.849528402090072632e-01
-1.038090229034423828e+00
-1.013041660189628601e-01
-9.271824359893798828e-01
2.348411232233047485e-01
8.861476927995681763e-02
-3.476867079734802246e-01
8.490674495697021484e-01
2.014705091714859009e-01
3.839779198169708252e-01
1.230963468551635742e+00
1.228668689727783203e+00
7.042104005813598633e-01
-5.628490820527076721e-02
-1.489720702171325684e+00
-1.519462823867797852e+00
3.258091807365417480e-01
-1.458429217338562012e+00
1.898907661437988281e+00
-4.056643322110176086e-02
-2.933650016784667969e-01
1.397810459136962891e+00
-9.166569709777832031e-01
-7.793720364570617676e-01
-4.175384938716888428e-01
1.105971813201904297e+00
2.528532147407531738e-01
-1.075401529669761658e-01
7.705280780792236328e-01
-1.130432724952697754e+00
9.964565038681030273e-01
-1.180962204933166504e+00
9.626035690307617188e-01
-1.104934692382812500e+00
-7.909473180770874023e-01
-2.160931676626205444e-01
