1.926915287971496582e+00
1.487284064292907715e+00
9.007171988487243652e-01
-2.105520963668823242e+00
6.784184575080871582e-01
-1.234544873237609863e+00
-4.306747764348983765e-02
-1.604666948318481445e+00
-7.521352767944335938e-01
1.648723006248474121e+00
-3.924786448478698730e-01
-1.403607130050659180e+00
-7.278813123703002930e-01
-5.594301819801330566e-01
-7.688388824462890625e-01
7.624453902244567871e-01
1.642316937446594238e+00
-1.595974713563919067e-01
-4.973975419998168945e-01
4.395892620086669922e-01
-7.581311464309692383e-01
1.078317642211914062e+00
8.008005619049072266e-01
1.680620551109313965e+00
1.279124379158020020e+00
1.296422839164733887e+00
6.104664802551269531e-01
1.334737777709960938e+00
-2.316243201494216919e-01
4.175949096679687500e-02
-2.515752911567687988e-01
8.598585128784179688e-01
-1.384673714637756348e+00
-8.712361454963684082e-01
-2.233659178018569946e-01
1.717361450195312500e+00
3.188803195953369141e-01
-4.245189726352691650e-01
3.057209253311157227e-01
-7.745925188064575195e-01
-1.557572484016418457e+00
9.956361055374145508e-01
-8.797858357429504395e-01
-6.011420488357543945e-01
-1.274151206016540527e+00
2.122785091400146484e+00
-1.234653115272521973e+00
-4.879138767719268799e-01
-9.138230085372924805e-01
-6.581372618675231934e-01
7.802387326955795288e-02
5.258087515830993652e-01
-4.879917204380035400e-01
1.191369056701660156e+00
-8.140076398849487305e-01
-7.359927892684936523e-01
-1.403247833251953125e+00
3.600366786122322083e-02
-6.347727030515670776e-02
6.756148934364318848e-01
-9.780689328908920288e-02
1.844594001770019531e+00
-1.184537410736083984e+00
1.383549332618713379e+00
1.445133805274963379e+00
8.564125299453735352e-01
2.218075752258300781e+00
5.231655240058898926e-01
3.466466665267944336e-01
-1.973314434289932251e-01
-1.054588913917541504e+00
1.277995586395263672e+00
-1.721901297569274902e-01
5.237884521484375000e-01
5.662181973457336426e-02
4.262961447238922119e-01
5.750050544738769531e-01
-6.417241096496582031e-01
-2.206398487091064453e+00
-7.508030533790588379e-01
1.086814422160387039e-02
-3.387423455715179443e-01
-1.340679526329040527e+00
-5.853705406188964844e-01
5.361881256103515625e-01
5.246226191520690918e-01
1.141201615333557129e+00
5.164359509944915771e-02
7.439519762992858887e-01
-4.815843999385833740e-01
-1.049466133117675781e+00
6.038988232612609863e-01
-1.722295045852661133e+00
-8.277688622474670410e-01
1.334702968597412109e+00
4.835392832756042480e-01
-2.509544372558593750e+00
4.880010485649108887e-01
7.845868468284606934e-01
2.864718623459339142e-02
6.407552957534790039e-01
5.832474231719970703e-01
1.066926717758178711e+00
-4.501533806324005127e-01
-1.852674782276153564e-01
7.527588605880737305e-01
4.047577977180480957e-01
1.784659922122955322e-01
2.649095058441162109e-01
1.273168325424194336e+00
-1.310863648541271687e-03
-3.036037683486938477e-01
-1.457029104232788086e+00
-1.023352369666099548e-01
-5.991530418395996094e-01
4.770564138889312744e-01
7.261772155761718750e-01
9.115186333656311035e-02
-3.890652060508728027e-01
5.279164910316467285e-01
-1.268547866493463516e-02
2.408363223075866699e-01
1.325353682041168213e-01
7.642406225204467773e-01
1.095009684562683105e+00
3.398909568786621094e-01
7.199674844741821289e-01
4.114076197147369385e-01
1.931160569190979004e+00
1.011863827705383301e+00
-1.436406493186950684e+00
-1.129859805107116699e+00
-1.360345333814620972e-01
1.635409593582153320e+00
6.547407507896423340e-01
5.760045647621154785e-01
1.141507983207702637e+00
1.856457628309726715e-02
-1.805805087089538574e+00
9.254348874092102051e-01
-3.753443658351898193e-01
1.033087372779846191e+00
-6.866509318351745605e-01
6.368136405944824219e-01
-9.726738929748535156e-01
9.584577679634094238e-01
1.619200468063354492e+00
1.450609803199768066e+00
2.694815397262573242e-01
-2.103759795427322388e-01
-7.328027486801147461e-01
1.042978316545486450e-01
3.487516939640045166e-01
9.675941467285156250e-01
-4.656884372234344482e-01
1.604797244071960449e+00
-2.480120182037353516e+00
-4.175437390804290771e-01
-1.195453763008117676e+00
8.123369216918945312e-01
-1.900553226470947266e+00
2.285765260457992554e-01
2.485940419137477875e-02
-3.459502458572387695e-01
2.868328094482421875e-01
-7.308424115180969238e-01
1.748202592134475708e-01
-1.093929290771484375e+00
-1.602160334587097168e+00
1.352896928787231445e+00
1.288827657699584961e+00
5.229547247290611267e-02
-1.546850442886352539e+00
7.567060589790344238e-01
7.755194902420043945e-01
2.026535511016845703e+00
3.581761196255683899e-02
1.205887272953987122e-01
-8.056637048721313477e-01
-2.075768262147903442e-01
-9.319478273391723633e-01
-1.590966224670410156e+00
-1.135975718498229980e+00
-5.225976109504699707e-01
-5.187733173370361328e-01
-1.501276373863220215e+00
-1.926654219627380371e+00
1.278512328863143921e-01
1.022913336753845215e+00
-5.557951331138610840e-01
7.042727470397949219e-01
7.098760008811950684e-01
1.774388432502746582e+00
-9.215509891510009766e-01
9.624499082565307617e-01
-3.370151519775390625e-01
-1.175333619117736816e+00
3.580570816993713379e-01
4.787679016590118408e-01
1.353700041770935059e+00
5.260620713233947754e-01
2.112037897109985352e+00
-5.207571387290954590e-01
-9.320061206817626953e-01
1.851613372564315796e-01
1.068691849708557129e+00
1.306534409523010254e+00
4.598345160484313965e-01
-8.146268725395202637e-01
-1.021239280700683594e+00
-4.949235618114471436e-01
-5.922516584396362305e-01
1.543159484863281250e-01
4.407670795917510986e-01
-1.482923030853271484e-01
-2.318443298339843750e+00
-3.979953229427337646e-01
1.080486297607421875e+00
-1.780864357948303223e+00
1.508045434951782227e+00
3.094285428524017334e-01
-5.003090500831604004e-01
1.035003185272216797e+00
1.689647078514099121e+00
-4.505051765590906143e-03
1.666792392730712891e+00
1.539201736450195312e-01
-1.060253024101257324e+00
-5.726575851440429688e-01
8.356803655624389648e-02
3.999053537845611572e-01
1.989207148551940918e+00
-7.198750972747802734e-02
-9.060944914817810059e-01
-2.048712253570556641e+00
-1.081055521965026855e+00
1.762307994067668915e-02
7.822598516941070557e-02
1.931582987308502197e-01
4.096734225749969482e-01
-9.291303157806396484e-01
2.761908769607543945e-01
-5.388752818107604980e-01
4.625823199748992920e-01
-8.718891143798828125e-01
-2.711836062371730804e-02
-3.532457649707794189e-01
1.463856935501098633e+00
1.255434274673461914e+00
-7.149558067321777344e-01
8.539193272590637207e-01
5.129911899566650391e-01
5.397310256958007812e-01
5.655050277709960938e-01
5.057917237281799316e-01
2.224536538124084473e-01
-6.854816079139709473e-01
5.635589957237243652e-01
-1.507175087928771973e+00
-1.610666036605834961e+00
-1.479046583175659180e+00
4.322742819786071777e-01
-1.250254064798355103e-01
7.821183800697326660e-01
-1.598767638206481934e+00
-1.091299504041671753e-01
7.151994705200195312e-01
3.913922235369682312e-02
1.305860161781311035e+00
2.465927451848983765e-01
-1.977590918540954590e+00
1.789604313671588898e-02
-1.379302144050598145e+00
6.258027553558349609e-01
-2.584950208663940430e+00
-2.399955503642559052e-02
-1.221928745508193970e-01
-7.469954490661621094e-01
1.709308743476867676e+00
5.792269483208656311e-02
1.192980527877807617e+00
1.937293171882629395e+00
7.287133932113647461e-01
9.808937907218933105e-01
4.145922660827636719e-01
1.156563162803649902e+00
2.690545618534088135e-01
-3.662943840026855469e-02
9.732939004898071289e-01
-1.015078783035278320e+00
-5.419175624847412109e-01
-4.410248696804046631e-01
-3.136177957057952881e-01
-1.292542219161987305e-01
-7.149624228477478027e-01
-4.756216332316398621e-02
2.020743608474731445e+00
2.539190053939819336e-01
9.364385008811950684e-01
7.122363448143005371e-01
-3.176554292440414429e-02
1.016408652067184448e-01
1.343304038047790527e+00
7.132695913314819336e-01
4.038029611110687256e-01
-7.139783501625061035e-01
8.337291479110717773e-01
-9.585452079772949219e-01
4.536342620849609375e-01
1.246091961860656738e+00
-2.306508541107177734e+00
-1.286891818046569824e+00
1.798865050077438354e-01
-2.126762628555297852e+00
-1.340831369161605835e-01
-1.040768504142761230e+00
-7.647228837013244629e-01
-5.528254434466362000e-02
1.204850673675537109e+00
-9.824736118316650391e-01
4.334380030632019043e-01
-7.171905636787414551e-01
1.055369257926940918e+00
-1.453396916389465332e+00
4.651507139205932617e-01
3.713915050029754639e-01
-4.656785633414983749e-03
7.954943925142288208e-02
3.781784772872924805e-01
7.051141262054443359e-01
-1.723697423934936523e+00
-8.434810638427734375e-01
4.351435601711273193e-01
2.658872008323669434e-01
-5.870985388755798340e-01
8.268884569406509399e-02
8.853808045387268066e-01
1.824439913034439087e-01
7.863810062408447266e-01
-5.792029574513435364e-02
5.666652917861938477e-01
-7.097623348236083984e-01
-4.875054359436035156e-01
5.009599775075912476e-02
6.084084510803222656e-01
1.630868196487426758e+00
-8.472306281328201294e-02
1.084412455558776855e+00
9.477656483650207520e-01
-6.766293644905090332e-01
-5.730168223381042480e-01
-3.303174376487731934e-01
-7.939430475234985352e-01
3.752319812774658203e-01
8.790969103574752808e-02
-1.241483449935913086e+00
-3.202534615993499756e-01
-8.443778753280639648e-01
-5.513465404510498047e-01
1.988961219787597656e+00
1.900311827659606934e+00
1.695080518722534180e+00
2.808952890336513519e-02
-1.753696501255035400e-01
-1.773495912551879883e+00
-7.046414017677307129e-01
-3.946520090103149414e-01
1.886811137199401855e+00
-2.184432148933410645e-01
1.662998199462890625e-01
2.144168138504028320e+00
1.704567193984985352e+00
3.459012508392333984e-01
6.424751281738281250e-01
-2.039542496204376221e-01
6.853673458099365234e-01
-1.396879702806472778e-01
-1.180750250816345215e+00
-1.282929539680480957e+00
4.484857916831970215e-01
-5.907375216484069824e-01
8.540631532669067383e-01
-4.900680184364318848e-01
-3.594572544097900391e-01
6.663737893104553223e-01
-7.426456362009048462e-02
-2.096048295497894287e-01
1.663213223218917847e-01
1.470303773880004883e+00
-9.390866756439208984e-01
-6.013189554214477539e-01
-9.964022785425186157e-02
-9.851518273353576660e-01
-2.488459348678588867e+00
-3.313190042972564697e-01
8.435799479484558105e-01
9.874473810195922852e-01
-3.319747149944305420e-01
-8.076189756393432617e-01
8.243641853332519531e-01
2.469992451369762421e-02
-1.064148664474487305e+00
-7.601934671401977539e-01
-4.075061082839965820e-01
9.623646140098571777e-01
-1.426419466733932495e-01
1.527137905359268188e-01
-3.880237787961959839e-02
9.446058869361877441e-01
-1.582405328750610352e+00
9.871290922164916992e-01
1.145673990249633789e+00
-1.418114751577377319e-01
-2.763414680957794189e-01
-1.932137310504913330e-01
7.767809629440307617e-01
6.838752627372741699e-01
-1.324589371681213379e+00
-5.160817503929138184e-01
6.001842617988586426e-01
-4.702208340167999268e-01
-6.086435317993164062e-01
-4.619202390313148499e-02
-1.645739793777465820e+00
-4.833274185657501221e-01
-7.402943372726440430e-01
3.142810761928558350e-01
1.415553092956542969e-01
1.034817695617675781e+00
-6.264377832412719727e-01
-5.150922536849975586e-01
6.902899742126464844e-01
-4.939993619918823242e-01
1.136612653732299805e+00
-4.618400633335113525e-01
1.419979453086853027e+00
8.485189676284790039e-01
-4.789124801754951477e-02
6.685602068901062012e-01
1.042980194091796875e+00
6.899017095565795898e-01
-1.312934875488281250e+00
3.780364990234375000e-02
-1.170211434364318848e+00
-1.031855940818786621e-01
1.189473986625671387e+00
7.606944441795349121e-01
-7.463049292564392090e-01
-1.383884549140930176e+00
4.868715703487396240e-01
-1.002029657363891602e+00
3.294881805777549744e-02
-4.291959106922149658e-01
-9.817978739738464355e-01
-6.420586109161376953e-01
8.265887498855590820e-01
1.591395616531372070e+00
-1.208132952451705933e-01
-4.830206930637359619e-01
1.132979020476341248e-01
7.715086638927459717e-02
-9.228128790855407715e-01
-1.261999130249023438e+00
1.086053252220153809e+00
1.096641182899475098e+00
-6.836934685707092285e-01
6.604336202144622803e-02
-7.737990817986428738e-04
1.620604395866394043e-01
1.195958137512207031e+00
-1.306153535842895508e+00
-1.403971910476684570e+00
-1.059720158576965332e+00
3.057299852371215820e-01
4.150581359863281250e-01
-7.174144983291625977e-01
2.833967924118041992e+00
1.953474044799804688e+00
2.048681497573852539e+00
-1.088038206100463867e+00
1.621694564819335938e+00
8.512656688690185547e-01
-4.004696905612945557e-01
-6.088271737098693848e-01
-5.080953836441040039e-01
-6.184902191162109375e-01
-1.647040605545043945e+00
-1.036209821701049805e+00
-4.503057301044464111e-01
-7.296606153249740601e-02
-5.479549169540405273e-01
-1.142553210258483887e+00
-4.487521052360534668e-01
-3.045438416302204132e-02
3.830311596393585205e-01
-4.476971551775932312e-02
1.179942011833190918e+00
-3.314278125762939453e-01
6.495042443275451660e-01
9.495851397514343262e-02
-7.525874376296997070e-01
-6.472297906875610352e-01
-1.282261490821838379e+00
1.965292215347290039e+00
-9.638485312461853027e-01
-2.566794157028198242e+00
7.096128463745117188e-01
8.198426961898803711e-01
6.214459538459777832e-01
4.231858849525451660e-01
-3.388983309268951416e-01
5.179733633995056152e-01
-1.363769769668579102e+00
1.929578185081481934e-01
-6.103342771530151367e-01
1.632344573736190796e-01
1.510171651840209961e+00
2.123042941093444824e-01
-7.252011299133300781e-01
-9.527732729911804199e-01
5.216943025588989258e-01
-4.638673365116119385e-01
1.823774427175521851e-01
-3.866607546806335449e-01
-1.790676832199096680e+00
9.329313784837722778e-02
-1.915256857872009277e+00
-6.421752572059631348e-01
1.343850970268249512e+00
-1.292230844497680664e+00
7.662441134452819824e-01
6.454003453254699707e-01
3.533160686492919922e-01
-2.647488117218017578e+00
-1.457536697387695312e+00
-9.712379574775695801e-01
2.540310919284820557e-01
-1.790592074394226074e-01
1.199284434318542480e+00
-4.292171895503997803e-01
1.010284185409545898e+00
6.110401153564453125e-01
1.220838546752929688e+00
-6.076440215110778809e-01
-1.737602829933166504e+00
-1.253516227006912231e-01
-1.365814805030822754e+00
1.111746072769165039e+00
-6.227966547012329102e-01
-7.891808748245239258e-01
-1.678239256143569946e-01
1.643314599990844727e+00
2.007087945938110352e+00
-1.253101944923400879e+00
1.118869423866271973e+00
1.773277640342712402e+00
-2.071660280227661133e+00
-4.125255346298217773e-01
-9.769555926322937012e-01
-3.363388776779174805e-02
1.859497785568237305e+00
2.622146844863891602e+00
3.690525591373443604e-01
3.802972435951232910e-01
1.989803165197372437e-01
-2.360906451940536499e-01
3.034085631370544434e-01
-4.500767588615417480e-01
4.739041924476623535e-01
6.503364443778991699e-01
1.166238069534301758e+00
1.693599671125411987e-02
5.325868129730224609e-01
-6.035352349281311035e-01
-1.742597371339797974e-01
6.092063784599304199e-01
-8.032152652740478516e-01
-1.120900511741638184e+00
1.956406533718109131e-01
-7.815181016921997070e-01
-1.789878964424133301e+00
-2.615735530853271484e-01
-4.402503371238708496e-01
2.184829473495483398e+00
-4.800970852375030518e-01
-1.287173390388488770e+00
7.388824224472045898e-01
3.389474004507064819e-02
-3.122940361499786377e-01
-2.541753351688385010e-01
-1.205536127090454102e+00
-9.542103409767150879e-01
6.127656996250152588e-02
8.526104688644409180e-02
7.481252551078796387e-01
-1.635619699954986572e-01
-9.085567593574523926e-01
3.129958212375640869e-01
8.050477504730224609e-01
-1.113360404968261719e+00
4.981626570224761963e-01
-1.199955224990844727e+00
1.271131336688995361e-01
4.403660297393798828e-01
6.377718448638916016e-01
1.597887724637985229e-01
1.769797086715698242e+00
6.268176436424255371e-01
-1.873652935028076172e+00
2.325906038284301758e+00
-9.203909635543823242e-01
6.661149263381958008e-01
-4.402649104595184326e-01
-2.317956447601318359e+00
1.294582724571228027e+00
2.226731181144714355e-01
-8.483412265777587891e-01
1.648942112922668457e+00
1.600568652153015137e+00
-7.858924567699432373e-02
4.310458600521087646e-01
3.683530390262603760e-01
7.637977004051208496e-01
1.179222226142883301e+00
-4.137862026691436768e-01
5.184088349342346191e-01
-7.015367746353149414e-01
-4.323408901691436768e-01
1.414770483970642090e-01
7.110362499952316284e-02
5.633530616760253906e-01
-5.786357522010803223e-01
-1.083811640739440918e+00
-3.889259994029998779e-01
8.126105666160583496e-01
1.498118758201599121e+00
4.389608651399612427e-02
1.444323301315307617e+00
2.320289164781570435e-01
5.064983367919921875e-01
-1.278696656227111816e+00
-3.842746838927268982e-02
1.913800954818725586e+00
3.378446102142333984e-01
1.250561177730560303e-01
-7.621514797210693359e-01
-1.190559983253479004e+00
7.756073474884033203e-01
4.557199180126190186e-01
2.503303289413452148e-01
-1.361097097396850586e+00
1.801834106445312500e+00
-7.434194535017013550e-02
-1.566415578126907349e-01
-8.708454966545104980e-01
-6.410972476005554199e-01
-4.145628511905670166e-01
-6.902380585670471191e-01
-2.299561947584152222e-01
-2.172283887863159180e+00
8.768323808908462524e-02
1.093784570693969727e+00
-1.177205815911293030e-01
-2.986432313919067383e-01
-9.536206126213073730e-01
-9.247277677059173584e-02
-1.016654610633850098e+00
-7.675689645111560822e-03
-5.182208418846130371e-01
8.395425677299499512e-01
5.852266773581504822e-02
-1.668248057365417480e+00
2.129624843597412109e+00
-1.518147110939025879e+00
1.387282907962799072e-01
-1.179756879806518555e+00
-5.297411680221557617e-01
9.625157713890075684e-01
2.794382870197296143e-01
-5.718191266059875488e-01
-2.793628931045532227e+00
-7.111545205116271973e-01
5.235219597816467285e-01
-1.710550069808959961e+00
8.384853601455688477e-01
-2.698453664779663086e-01
1.230615824460983276e-01
8.757511377334594727e-01
1.513299793004989624e-01
7.393934130668640137e-01
2.731031477451324463e-01
2.731230974197387695e+00
4.320052266120910645e-01
-3.091821670532226562e-01
-9.658124297857284546e-02
1.541925072669982910e+00
-1.087447777390480042e-01
-4.189043343067169189e-01
1.438438534736633301e+00
-7.068426609039306641e-01
-1.251951456069946289e+00
3.025048494338989258e+00
1.346258997917175293e+00
8.556069731712341309e-01
3.220294117927551270e-01
4.460566341876983643e-01
1.522959232330322266e+00
1.280489921569824219e+00
-1.161604300141334534e-01
1.370536327362060547e+00
-4.809381365776062012e-01
-9.903622269630432129e-01
-1.364181280136108398e+00
8.205652236938476562e-03
-4.058601856231689453e-01
-7.110859751701354980e-01
-3.495793640613555908e-01
3.797488212585449219e-01
9.993040561676025391e-01
1.275185346603393555e+00
9.594927430152893066e-01
1.035099998116493225e-01
8.290349841117858887e-01
2.092129468917846680e+00
7.953095436096191406e-01
2.792847752571105957e-01
1.864478439092636108e-01
3.547132909297943115e-01
9.063850343227386475e-02
1.742255330085754395e+00
-1.266001224517822266e+00
3.891608119010925293e-01
3.428750634193420410e-01
-1.459063768386840820e+00
-1.493656158447265625e+00
-2.213852107524871826e-01
2.252350598573684692e-01
-7.724537700414657593e-02
9.856945276260375977e-01
1.278336405754089355e+00
2.881518900394439697e-01
8.690496087074279785e-01
-8.097057938575744629e-01
-1.429860472679138184e+00
4.590159654617309570e-01
5.309328436851501465e-01
-1.361480236053466797e+00
1.956249117851257324e+00
1.768489837646484375e+00
-9.857985377311706543e-01
-1.237075805664062500e+00
-2.301875114440917969e+00
-1.008700113743543625e-03
-8.494256734848022461e-01
-1.659392118453979492e+00
3.062905967235565186e-01
1.182044506072998047e+00
3.260269463062286377e-01
-3.894469738006591797e-01
2.854380607604980469e+00
8.243650794029235840e-01
7.983470559120178223e-01
1.889022231101989746e+00
5.934628248214721680e-01
6.965444236993789673e-02
-1.603433847427368164e+00
-4.298218190670013428e-01
5.761587619781494141e-01
3.443631529808044434e-01
-3.101605892181396484e+00
-1.458722591400146484e+00
-1.431825757026672363e+00
-6.071268916130065918e-01
-2.597378790378570557e-01
-7.190185785293579102e-01
-3.858309686183929443e-01
5.233525037765502930e-01
-8.211768269538879395e-01
-4.708689153194427490e-01
6.016423106193542480e-01
-2.825112640857696533e-01
7.692679762840270996e-01
-7.668924331665039062e-01
-9.494866728782653809e-01
1.691739819943904877e-02
8.027740567922592163e-02
7.448412775993347168e-01
1.345484972000122070e+00
1.268218904733657837e-01
-2.452071666717529297e+00
4.159761369228363037e-01
1.902535676956176758e+00
-7.346699833869934082e-01
4.465713351964950562e-02
-1.521119832992553711e+00
3.478375971317291260e-01
7.401772737503051758e-01
1.416199564933776855e+00
6.833979487419128418e-01
-1.382518261671066284e-01
9.212995171546936035e-01
5.282443761825561523e-01
-8.228386752307415009e-03
-1.449331998825073242e+00
-6.051824092864990234e-01
-1.792451143264770508e-01
1.995587050914764404e-01
-1.246194720268249512e+00
-4.145993888378143311e-01
1.455870032310485840e+00
3.316534161567687988e-01
-1.000100851058959961e+00
-6.919524669647216797e-01
-4.719907641410827637e-01
-1.289434313774108887e+00
1.076281070709228516e+00
-1.066742777824401855e+00
-1.989342689514160156e+00
2.973130345344543457e-01
4.344584047794342041e-01
3.393320366740226746e-03
-1.024014592170715332e+00
2.240476161241531372e-01
-7.554785013198852539e-01
1.367581009864807129e+00
-3.197358250617980957e-01
-9.130924344062805176e-01
1.919209361076354980e+00
-1.651486992835998535e+00
2.147725343704223633e+00
-6.604134440422058105e-01
1.135258376598358154e-01
-2.205657511949539185e-01
7.118127346038818359e-01
3.415871560573577881e-01
1.588589549064636230e+00
-3.488781750202178955e-01
-4.579195082187652588e-01
-1.232207059860229492e+00
-5.980771183967590332e-01
-2.815470099449157715e-01
5.281926319003105164e-02
4.249775111675262451e-01
4.825834333896636963e-01
4.881338775157928467e-01
1.008239388465881348e+00
-5.950041413307189941e-01
3.926331400871276855e-01
8.229668736457824707e-01
-8.860319852828979492e-01
1.480103969573974609e+00
8.391514420509338379e-01
-2.000498473644256592e-01
9.949536919593811035e-01
7.201864719390869141e-01
-1.341306567192077637e-01
-1.406799912452697754e+00
-2.360962867736816406e+00
-2.904934287071228027e-01
-1.334585398435592651e-01
-1.569334566593170166e-01
1.138344645500183105e+00
-2.505214214324951172e-01
1.670455574989318848e+00
