1.286585479974746704e-01
-1.196566075086593628e-01
9.669846296310424805e-02
4.206613823771476746e-02
6.851239502429962158e-02
-1.880971714854240417e-03
7.335292547941207886e-02
1.088471412658691406e-01
-1.147513911128044128e-01
-3.109864145517349243e-02
-1.192696765065193176e-02
1.211869418621063232e-01
-3.446769341826438904e-02
1.023656316101551056e-02
-5.359311029314994812e-02
1.048451289534568787e-01
1.127160117030143738e-01
1.240418404340744019e-01
4.592807218432426453e-02
-1.079516932368278503e-01
-5.058694258332252502e-02
1.440272480249404907e-01
9.113935381174087524e-02
1.375617682933807373e-01
3.411709517240524292e-02
1.002080291509628296e-01
9.534616023302078247e-02
-8.167085796594619751e-02
6.463183462619781494e-02
-3.677681088447570801e-02
4.213175922632217407e-02
-2.112558111548423767e-02
1.718196570873260498e-01
3.302928432822227478e-02
-7.022750377655029297e-02
-7.760161999613046646e-03
2.862426266074180603e-02
-1.154939979314804077e-01
-1.200303062796592712e-01
-1.656348854303359985e-01
9.897493571043014526e-02
1.261257100850343704e-02
-1.221477165818214417e-01
2.437390200793743134e-02
1.429591178894042969e-01
7.682369649410247803e-02
-5.774571374058723450e-02
-3.431185334920883179e-02
9.660213440656661987e-02
1.345493048429489136e-01
-1.738751828670501709e-01
7.504798471927642822e-02
-1.458215415477752686e-01
-6.881830096244812012e-02
1.702698022127151489e-01
1.001676097512245178e-01
-2.471449086442589760e-03
1.735942251980304718e-02
-4.975330084562301636e-03
1.475588083267211914e-01
1.100357249379158020e-02
-1.399037688970565796e-01
-9.578859806060791016e-02
-9.539589285850524902e-02
9.513124823570251465e-02
-1.394985020160675049e-01
1.146608591079711914e-01
8.194562792778015137e-02
-3.748920047655701637e-03
8.201437443494796753e-02
-1.597245484590530396e-01
-1.659092754125595093e-01
-1.075796633958816528e-01
-1.646401137113571167e-01
9.875356405973434448e-02
5.709085613489151001e-03
-4.771491140127182007e-02
-1.334839612245559692e-01
9.242222458124160767e-02
5.024517327547073364e-02
2.234246581792831421e-03
-1.711448654532432556e-02
8.871359378099441528e-02
1.003644168376922607e-01
-2.780155651271343231e-02
2.815603278577327728e-02
1.436382234096527100e-01
-1.307964622974395752e-01
-1.339763985015451908e-03
1.002019420266151428e-01
1.351464837789535522e-01
2.820741012692451477e-02
-1.167968809604644775e-01
-1.728197187185287476e-01
4.218216612935066223e-02
-1.053705513477325439e-01
-6.857427209615707397e-02
7.007956504821777344e-02
1.258000731468200684e-01
-1.974286884069442749e-02
1.228460296988487244e-01
-1.155830919742584229e-02
1.557622253894805908e-01
-2.851135283708572388e-02
5.129277706146240234e-02
-6.215210258960723877e-02
1.634217202663421631e-01
-6.515097618103027344e-02
-2.708668261766433716e-02
-4.084849357604980469e-02
8.982814848423004150e-02
1.426098495721817017e-01
-1.021385267376899719e-01
-1.720269322395324707e-01
4.357216879725456238e-02
1.507509052753448486e-01
-1.076149567961692810e-01
-4.119795188307762146e-02
-3.689889237284660339e-02
1.209169849753379822e-01
1.172320023179054260e-01
6.387048959732055664e-02
2.926063910126686096e-02
-3.568520769476890564e-02
-3.108637779951095581e-02
3.309020772576332092e-02
6.519084423780441284e-02
-1.002001911401748657e-01
-1.658183522522449493e-02
1.277616769075393677e-01
-2.214635536074638367e-02
-5.690604075789451599e-02
1.618259996175765991e-01
2.749588713049888611e-02
-9.615761227905750275e-03
-1.212119311094284058e-01
-1.751503497362136841e-01
1.327908337116241455e-01
-1.098074167966842651e-01
1.659619212150573730e-01
-1.057075187563896179e-01
4.803004115819931030e-02
1.033640503883361816e-01
-7.928644306957721710e-03
5.898727476596832275e-02
5.954283103346824646e-02
-1.616163253784179688e-01
-5.011837556958198547e-02
1.707593500614166260e-01
1.173060536384582520e-01
5.893100798130035400e-02
1.269201748073101044e-02
1.244134921580553055e-02
3.102383017539978027e-02
6.035723537206649780e-02
-2.045668847858905792e-02
1.176337078213691711e-01
-1.717780977487564087e-01
-2.038811566308140755e-03
-1.189728379249572754e-01
-1.596140265464782715e-01
1.075063869357109070e-01
1.673793792724609375e-01
6.685294955968856812e-02
1.764622181653976440e-01
-6.450575310736894608e-04
4.660490900278091431e-02
-4.268632619641721249e-04
-3.978289291262626648e-02
-4.624318331480026245e-02
1.706971824169158936e-01
1.577363312244415283e-01
-2.754460833966732025e-02
-1.419881731271743774e-01
1.607057601213455200e-01
1.046825274825096130e-01
9.694196633063256741e-04
1.370839327573776245e-01
-6.613499671220779419e-02
4.401374142616987228e-03
5.585139989852905273e-02
-9.047939628362655640e-02
-3.268951550126075745e-02
1.495540291070938110e-01
6.273031234741210938e-03
-8.132936060428619385e-02
7.912105321884155273e-02
-2.405973849818110466e-03
7.309489697217941284e-02
-3.512882813811302185e-02
1.039425581693649292e-01
-1.035026237368583679e-01
1.631185710430145264e-01
1.931132748723030090e-02
1.662796437740325928e-01
1.156073510646820068e-01
9.755678474903106689e-02
-1.282329261302947998e-01
-7.610047608613967896e-02
-1.202226150780916214e-02
5.659788474440574646e-02
1.310776025056838989e-01
-1.608639210462570190e-01
-9.016907215118408203e-02
-8.683167397975921631e-02
-1.518023461103439331e-01
-1.441251039505004883e-01
4.416121542453765869e-02
1.743760555982589722e-01
-1.480893790721893311e-01
-1.232893317937850952e-01
6.377648562192916870e-02
-1.088844891637563705e-02
-4.928563907742500305e-02
-3.141124546527862549e-02
-1.451637297868728638e-01
1.138732209801673889e-01
1.696539521217346191e-01
7.511541992425918579e-02
-4.714274406433105469e-02
-1.321340501308441162e-01
-2.314694412052631378e-02
1.572560071945190430e-01
7.359047979116439819e-02
-6.497309356927871704e-02
1.187432259321212769e-01
7.215715199708938599e-02
-9.497267752885818481e-02
-8.171902596950531006e-02
1.490255631506443024e-02
-1.273446828126907349e-01
-1.154279485344886780e-01
-1.713533550500869751e-01
1.173195429146289825e-02
-5.253358185291290283e-02
8.242125809192657471e-02
1.380662471055984497e-01
1.288365870714187622e-01
-4.433601722121238708e-02
-3.726554661989212036e-02
-2.104737795889377594e-02
-3.561550006270408630e-02
-8.928146213293075562e-02
-4.184585437178611755e-02
1.317258626222610474e-01
1.298793852329254150e-01
4.550116881728172302e-02
-1.159217655658721924e-01
-1.618530154228210449e-01
1.237775385379791260e-01
5.264592170715332031e-02
-9.444011002779006958e-02
-1.554518640041351318e-01
1.337274312973022461e-01
8.819700032472610474e-02
-8.557508885860443115e-02
-8.272267132997512817e-02
-3.912281244993209839e-04
1.122636068612337112e-02
2.541714161634445190e-02
-1.032424792647361755e-01
7.161059230566024780e-02
-3.065133653581142426e-02
-1.717397868633270264e-01
-1.329690963029861450e-01
-1.065788865089416504e-01
-1.278712749481201172e-01
-5.800078436732292175e-02
-4.960443824529647827e-02
-7.221398502588272095e-02
4.374663531780242920e-02
1.705541759729385376e-01
-5.759309977293014526e-02
1.720614731311798096e-01
-1.696557104587554932e-01
1.290461719036102295e-01
1.501477509737014771e-01
-1.588569134473800659e-01
-1.119316816329956055e-01
-1.218828707933425903e-01
6.179223209619522095e-02
-1.522853970527648926e-01
-3.263891860842704773e-02
-8.264274150133132935e-02
1.337244659662246704e-01
1.265227049589157104e-01
3.549885749816894531e-02
2.695670165121555328e-02
1.310460418462753296e-01
1.266139298677444458e-01
-1.248365640640258789e-01
-8.114821463823318481e-02
1.396679729223251343e-01
1.485082954168319702e-01
9.653788059949874878e-02
9.768273681402206421e-02
-1.106712967157363892e-02
1.330691277980804443e-01
6.094855722039937973e-03
1.486712545156478882e-01
3.097357042133808136e-02
-6.581497937440872192e-02
1.223915591835975647e-01
-1.422863453626632690e-01
-7.962512969970703125e-02
-1.727435141801834106e-01
1.267188340425491333e-01
-2.859164215624332428e-02
-1.049040928483009338e-01
1.652561128139495850e-02
1.471755504608154297e-01
-1.247534677386283875e-01
7.744487375020980835e-02
2.764496020972728729e-03
9.858322888612747192e-02
-1.747629940509796143e-01
-5.324335396289825439e-02
-1.756870448589324951e-01
-8.305485546588897705e-02
-1.051322743296623230e-01
8.737041614949703217e-03
-1.708926707506179810e-01
-9.348914772272109985e-02
-3.550973162055015564e-02
1.575769484043121338e-01
1.042799204587936401e-01
9.843010455369949341e-02
-1.680313497781753540e-01
-1.481705158948898315e-01
1.797027885913848877e-02
-1.296817064285278320e-01
7.638168055564165115e-03
1.832981221377849579e-02
1.230185553431510925e-01
7.057329267263412476e-02
5.597063526511192322e-02
-7.193545997142791748e-02
-8.823111653327941895e-02
8.251868188381195068e-02
2.586016803979873657e-02
1.637504994869232178e-01
1.080388277769088745e-01
-1.168400794267654419e-01
1.357440203428268433e-01
-9.914411604404449463e-02
8.156313002109527588e-02
3.834267379716038704e-03
4.598037898540496826e-02
9.391154348850250244e-02
-1.165639981627464294e-01
9.576142765581607819e-03
7.024147361516952515e-02
1.548860874027013779e-02
7.134921848773956299e-02
-3.854678943753242493e-02
-1.706345528364181519e-01
1.228183582425117493e-01
1.601123958826065063e-01
8.921055123209953308e-03
1.164178084582090378e-02
6.758126616477966309e-02
-4.982421174645423889e-02
1.600178629159927368e-01
1.331794857978820801e-01
9.463046491146087646e-02
1.102164313197135925e-01
-1.339549012482166290e-02
1.419681161642074585e-01
1.507464237511157990e-02
1.155669316649436951e-01
-5.708006769418716431e-02
-6.309783458709716797e-02
-7.142830640077590942e-02
-4.477280750870704651e-02
-7.869214564561843872e-02
6.132332608103752136e-02
-1.374261677265167236e-01
-1.528451442718505859e-01
-3.370061889290809631e-02
3.999489173293113708e-02
1.533305346965789795e-01
5.918113049119710922e-03
1.795561052858829498e-02
-9.667690098285675049e-02
-4.651296511292457581e-02
1.551026403903961182e-01
-9.633433073759078979e-02
3.406721353530883789e-02
-3.161747008562088013e-02
-9.205900132656097412e-02
-1.901414990425109863e-02
-1.569304168224334717e-01
-1.133080497384071350e-01
1.173813119530677795e-01
-8.606700599193572998e-02
9.428285807371139526e-02
1.254771500825881958e-01
1.658260971307754517e-01
-1.062724515795707703e-01
-8.816388994455337524e-02
1.283238679170608521e-01
-8.938608691096305847e-03
1.325782984495162964e-01
6.069786846637725830e-02
-6.200915947556495667e-02
7.331500947475433350e-02
-3.434776142239570618e-02
-1.408413797616958618e-01
-1.443320512771606445e-01
-5.601786077022552490e-02
-1.223479583859443665e-01
-1.456139832735061646e-01
-5.974469333887100220e-02
5.758272856473922729e-02
1.206558048725128174e-01
-4.025403410196304321e-03
1.689631789922714233e-01
1.332661658525466919e-01
1.421989798545837402e-01
-7.690130919218063354e-02
2.717348560690879822e-02
-5.172149464488029480e-02
1.729599833488464355e-01
-8.947929739952087402e-02
-5.130394548177719116e-02
-4.626124352216720581e-02
-6.216346099972724915e-02
-3.076620772480964661e-02
1.041973307728767395e-01
-3.552802279591560364e-02
-3.537582978606224060e-02
1.489201933145523071e-02
-8.954770117998123169e-02
-1.002246960997581482e-01
4.178952798247337341e-02
8.488168567419052124e-02
-9.911893308162689209e-02
-7.920184731483459473e-02
8.912161574698984623e-04
-4.036898910999298096e-02
5.555481184273958206e-03
4.736894741654396057e-02
-7.636579126119613647e-02
-6.298296153545379639e-02
2.274928800761699677e-02
7.795270532369613647e-02
-1.270177811384201050e-01
-6.439445912837982178e-02
-1.289596110582351685e-01
-1.168599724769592285e-01
1.189405098557472229e-01
-1.391488462686538696e-01
-4.025371745228767395e-02
-1.146762222051620483e-01
-1.227738335728645325e-01
1.421264857053756714e-01
-1.747741252183914185e-01
-1.678756773471832275e-01
1.396209746599197388e-01
-1.549744158983230591e-01
-2.904923073947429657e-02
-1.382113154977560043e-02
1.634387373924255371e-01
6.838256865739822388e-02
6.759924441576004028e-02
-1.157880946993827820e-01
-1.698473095893859863e-01
1.493896692991256714e-01
-1.688363552093505859e-01
1.485055983066558838e-01
5.524562299251556396e-02
-8.669429272413253784e-02
1.671278029680252075e-01
8.730698376893997192e-03
1.455298215150833130e-01
1.739169210195541382e-01
1.683015227317810059e-01
1.018853038549423218e-01
-1.395583245903253555e-02
-4.342663567513227463e-03
-1.290784925222396851e-01
1.155017092823982239e-01
1.284670531749725342e-01
5.634673312306404114e-02
-1.733190864324569702e-01
-8.172334730625152588e-02
-3.552346955984830856e-03
-1.710141152143478394e-01
1.391484290361404419e-01
3.365116193890571594e-02
8.380405604839324951e-02
1.604750305414199829e-01
-1.157121062278747559e-01
2.933989511802792549e-03
-2.092032507061958313e-02
1.670606583356857300e-01
1.601145714521408081e-01
-7.966036349534988403e-02
-6.825838238000869751e-02
-1.758183836936950684e-01
-1.535866968333721161e-02
-1.573867350816726685e-01
-7.936310768127441406e-02
1.340640932321548462e-01
-1.590151637792587280e-01
-1.716073751449584961e-01
1.501281410455703735e-01
-1.036520823836326599e-01
-2.286993432790040970e-03
2.294817939400672913e-02
-1.986075378954410553e-02
-1.615225225687026978e-01
-8.377210795879364014e-02
7.876949012279510498e-02
-7.161002606153488159e-02
6.500076502561569214e-03
5.286112427711486816e-02
-1.203733161091804504e-01
1.243508383631706238e-01
3.877684846520423889e-02
-1.439391970634460449e-01
-1.561999022960662842e-01
-1.367571204900741577e-01
-4.948263242840766907e-02
1.732766330242156982e-01
-1.263497024774551392e-01
1.380052119493484497e-01
-7.015218585729598999e-02
-1.668610423803329468e-01
-7.843112945556640625e-02
4.595496132969856262e-02
-5.554943904280662537e-02
1.648914664983749390e-01
6.754513084888458252e-02
9.668229520320892334e-02
8.477686345577239990e-02
-1.946134865283966064e-02
1.219207569956779480e-01
1.392008960247039795e-01
-2.737711742520332336e-02
-9.925555437803268433e-02
-1.288490742444992065e-01
-1.142169069498777390e-02
-6.787644699215888977e-03
-1.106943935155868530e-01
-2.955891191959381104e-02
-5.811727792024612427e-02
1.428854465484619141e-01
-1.226081699132919312e-01
1.431827433407306671e-02
-2.331247553229331970e-03
1.376581192016601562e-01
4.040112718939781189e-02
-6.470125168561935425e-02
2.940343134105205536e-02
2.334534935653209686e-02
-2.239093417301774025e-03
-1.394123584032058716e-01
-8.015618473291397095e-02
-1.598789840936660767e-01
-6.399539113044738770e-02
5.866982415318489075e-02
8.269677311182022095e-02
1.504227370023727417e-01
-1.468343436717987061e-01
1.268390379846096039e-02
-8.006952702999114990e-02
-1.621744036674499512e-01
-8.416651934385299683e-02
1.230709068477153778e-02
1.409482657909393311e-01
1.409108191728591919e-01
-1.391433924436569214e-01
-4.814181476831436157e-02
-1.226688399910926819e-01
1.414999216794967651e-01
4.286125674843788147e-02
-2.125623635947704315e-02
1.116534471511840820e-01
8.107209950685501099e-02
1.756295561790466309e-01
-8.601164072751998901e-02
-1.615819782018661499e-01
-5.640436708927154541e-02
1.576786041259765625e-01
9.808726608753204346e-02
-1.039142757654190063e-01
1.283821612596511841e-01
-8.412274718284606934e-02
-1.451465785503387451e-01
1.477437764406204224e-01
-6.277183070778846741e-03
6.287289410829544067e-02
-1.515483856201171875e-01
3.585101664066314697e-02
1.300051361322402954e-01
-9.504447132349014282e-02
3.532896284013986588e-03
-8.527761325240135193e-03
1.719990074634552002e-01
-6.964360177516937256e-02
-1.265906244516372681e-01
-9.734132885932922363e-02
3.298439830541610718e-02
-8.075003325939178467e-02
7.591943442821502686e-02
-1.457451879978179932e-01
9.548813104629516602e-02
9.009131044149398804e-02
1.592333242297172546e-02
1.169784069061279297e-01
-1.742777824401855469e-01
7.702715694904327393e-02
2.236741594970226288e-02
-1.706111282110214233e-01
1.753321141004562378e-01
-8.771602064371109009e-03
1.541952490806579590e-01
9.853994101285934448e-02
1.711758412420749664e-02
1.561216861009597778e-01
-6.734537333250045776e-02
4.838323220610618591e-02
3.642889112234115601e-02
1.118903532624244690e-01
2.895642258226871490e-02
1.609845161437988281e-01
-6.491794716566801071e-03
-1.399196535348892212e-01
1.553934067487716675e-01
-2.409687079489231110e-02
1.639314740896224976e-01
-5.267281085252761841e-02
-1.748371720314025879e-01
9.638086706399917603e-02
3.278049081563949585e-02
-1.145738437771797180e-01
1.657838225364685059e-01
1.010568439960479736e-01
5.940402299165725708e-02
-1.577221415936946869e-02
5.760399159044027328e-03
-1.717197448015213013e-01
-1.655312031507492065e-01
5.333864688873291016e-02
-2.228729613125324249e-02
-6.071095541119575500e-02
-7.265315856784582138e-03
9.874487668275833130e-02
-3.501265076920390129e-03
-1.441090106964111328e-01
3.680869564414024353e-02
-9.100726991891860962e-02
-4.344324395060539246e-02
-1.594710280187427998e-03
-1.138578578829765320e-01
-1.733744889497756958e-01
-1.547304987907409668e-01
-9.486412256956100464e-02
-1.486737579107284546e-01
1.690469831228256226e-01
-1.275980919599533081e-01
1.424546986818313599e-01
-1.717237234115600586e-01
-1.298355758190155029e-01
7.746923714876174927e-02
-1.513463109731674194e-01
5.823425576090812683e-02
1.408980339765548706e-01
3.336374089121818542e-02
-1.158195431344211102e-03
-1.223191320896148682e-01
6.061306595802307129e-02
-9.259831160306930542e-02
-1.156407520174980164e-01
-6.359539926052093506e-02
1.313590854406356812e-01
1.090216338634490967e-01
-1.460158079862594604e-01
1.641373150050640106e-02
6.986383348703384399e-02
1.329827010631561279e-01
6.159140169620513916e-02
6.142614409327507019e-02
-1.093106940388679504e-01
1.458569616079330444e-02
-9.569231187924742699e-04
-1.523090153932571411e-01
-4.210783913731575012e-02
1.205038651823997498e-01
1.696946024894714355e-01
-1.071635037660598755e-01
-3.845887258648872375e-02
1.162357777357101440e-01
-1.821165351429954171e-04
-1.226155683398246765e-01
-6.869862228631973267e-02
-5.042461678385734558e-02
1.287754327058792114e-01
-4.739950224757194519e-02
2.444763667881488800e-02
-1.372188180685043335e-01
1.729621440172195435e-01
-1.758322715759277344e-01
-1.171058416366577148e-01
8.679917454719543457e-02
6.089439615607261658e-03
-9.390024840831756592e-02
-1.705653816461563110e-01
1.321767270565032959e-02
6.811444461345672607e-02
-1.540818512439727783e-01
1.566287428140640259e-01
5.629242584109306335e-02
-8.880606293678283691e-02
1.249773502349853516e-01
-9.221140295267105103e-03
-9.021056443452835083e-02
-9.458234906196594238e-02
-5.172029137611389160e-03
-9.597608447074890137e-02
-3.611472621560096741e-02
3.819294646382331848e-02
1.618737131357192993e-01
-1.128536462783813477e-01
-1.675997078418731689e-01
-7.001636922359466553e-02
-1.140705049037933350e-01
1.697549223899841309e-01
-3.530932217836380005e-02
1.378482878208160400e-01
-6.878226250410079956e-02
-4.555210098624229431e-02
-1.609396338462829590e-01
-8.251497149467468262e-02
3.810677677392959595e-02
-1.148484945297241211e-01
-1.330182552337646484e-01
4.742002859711647034e-02
1.112182214856147766e-01
9.447468817234039307e-02
6.280402839183807373e-02
6.182099459692835808e-04
-8.466376364231109619e-02
9.212341904640197754e-02
7.426569703966379166e-03
1.753864586353302002e-01
-1.383942514657974243e-01
2.315246500074863434e-02
-1.708370596170425415e-01
-8.613146841526031494e-02
-2.146279811859130859e-02
-1.391815841197967529e-01
-1.233472600579261780e-01
-1.069321185350418091e-01
-6.305682659149169922e-02
1.698479354381561279e-01
1.401109099388122559e-01
9.478758275508880615e-02
-1.417599320411682129e-01
-1.741350293159484863e-01
-4.108384251594543457e-02
8.658020198345184326e-02
-1.630209088325500488e-01
-1.328815370798110962e-01
1.646483540534973145e-01
-1.712083071470260620e-01
-1.766894906759262085e-01
-2.247385866940021515e-02
-4.709140956401824951e-02
-1.221430823206901550e-01
1.107543930411338806e-01
-5.643155425786972046e-02
-1.246830215677618980e-03
1.562509834766387939e-01
-1.669568568468093872e-01
-8.575102686882019043e-02
-7.351345568895339966e-02
-4.962685983628034592e-03
-5.988042801618576050e-02
-3.200250118970870972e-02
1.405217647552490234e-01
-9.660477191209793091e-02
9.222256951034069061e-03
6.918048858642578125e-02
-7.797432690858840942e-02
1.363084316253662109e-01
-5.798527598381042480e-02
3.206249698996543884e-02
3.547759354114532471e-02
3.525151684880256653e-02
-6.932006031274795532e-02
8.920251578092575073e-02
1.143427789211273193e-01
-1.566791385412216187e-01
1.395107805728912354e-01
-7.139806449413299561e-02
-3.398827277123928070e-03
1.023505404591560364e-01
9.693262726068496704e-02
1.644582599401473999e-01
1.676694750785827637e-01
1.558296829462051392e-01
-9.559646993875503540e-02
1.666159741580486298e-02
5.508565530180931091e-02
1.500191688537597656e-01
1.123884916305541992e-01
-1.296589821577072144e-01
-1.143162474036216736e-01
1.498177349567413330e-01
-1.056989207863807678e-01
1.313145309686660767e-01
-3.637892380356788635e-02
1.124402880668640137e-01
-1.549469232559204102e-01
1.372284144163131714e-01
9.603622555732727051e-02
-1.757235229015350342e-01
-1.085145175457000732e-01
3.045246750116348267e-02
1.207805350422859192e-01
-1.320414543151855469e-01
-1.874569617211818695e-02
-8.780254423618316650e-02
-1.587927937507629395e-01
1.562659442424774170e-01
-9.951426833868026733e-02
-5.111883580684661865e-02
4.812717065215110779e-02
-8.259212225675582886e-02
-8.902779966592788696e-02
3.053039684891700745e-02
-4.959398508071899414e-02
6.270682066679000854e-02
4.008945077657699585e-03
1.646120995283126831e-01
-4.675552248954772949e-02
1.715693026781082153e-01
-1.232803761959075928e-01
-7.250522077083587646e-02
3.205147758126258850e-02
-1.077923551201820374e-01
-1.114368364214897156e-01
5.615005269646644592e-02
-1.260186135768890381e-01
6.248126924037933350e-02
-1.072110831737518311e-01
9.312154352664947510e-02
1.305846720933914185e-01
1.733948439359664917e-01
-6.653490941971540451e-03
5.226740241050720215e-02
1.442151367664337158e-01
-9.050449728965759277e-02
1.369414776563644409e-01
-1.120650321245193481e-01
-4.642095882445573807e-03
1.133707463741302490e-01
-1.310197985731065273e-03
2.735311537981033325e-02
-1.659594327211380005e-01
1.537847220897674561e-01
1.025288030505180359e-01
-6.817617267370223999e-02
-1.316392719745635986e-01
3.208500519394874573e-02
1.193565651774406433e-01
-1.075063869357109070e-01
5.803437530994415283e-02
-1.093190163373947144e-01
1.041822060942649841e-01
5.375792458653450012e-02
4.947393015027046204e-02
-1.206213086843490601e-01
1.672749817371368408e-01
1.951852068305015564e-02
1.027159988880157471e-01
-7.897295057773590088e-02
-1.608980000019073486e-01
-4.881232976913452148e-02
9.214042872190475464e-02
-1.236164495348930359e-01
-1.536048352718353271e-01
-7.358437031507492065e-02
7.438752055168151855e-02
1.025843918323516846e-01
-7.831297069787979126e-02
-1.637967973947525024e-01
-5.000156536698341370e-02
1.537777930498123169e-01
-5.770443007349967957e-02
-8.708512037992477417e-02
8.417610824108123779e-02
-7.477392256259918213e-02
6.821265071630477905e-02
-1.236820518970489502e-01
1.409235298633575439e-01
1.435643285512924194e-01
-6.021414883434772491e-03
-6.230545416474342346e-02
1.097002401947975159e-01
-4.152842611074447632e-02
-1.710205674171447754e-01
-6.202526018023490906e-02
1.172455102205276489e-01
1.868538325652480125e-03
-1.206868886947631836e-01
1.633391976356506348e-01
1.064078062772750854e-01
-3.511997684836387634e-02
1.136497780680656433e-01
-3.991527855396270752e-02
-8.552859653718769550e-04
7.644272595643997192e-02
9.916957467794418335e-02
-4.175812751054763794e-02
-1.374248508363962173e-02
4.750166833400726318e-02
1.030203625559806824e-01
-1.526761353015899658e-01
8.770548552274703979e-02
-1.721875369548797607e-01
1.450171880424022675e-02
-2.987094596028327942e-02
1.545563191175460815e-01
-1.649203449487686157e-01
-8.483146876096725464e-02
-1.469189822673797607e-01
-1.105152964591979980e-01
-1.404691487550735474e-01
7.134196814149618149e-03
-1.553348898887634277e-01
1.316154003143310547e-01
3.461151942610740662e-02
-2.536683902144432068e-02
-1.606710106134414673e-01
1.499156802892684937e-01
1.063829436898231506e-01
-1.156841441988945007e-01
-3.963801637291908264e-02
1.242466941475868225e-01
-1.197270527482032776e-01
8.917788043618202209e-03
-7.323288917541503906e-02
1.094213500618934631e-01
4.979919642210006714e-02
1.778767630457878113e-02
1.181769371032714844e-01
-5.090517457574605942e-03
1.381104588508605957e-01
-1.114385873079299927e-01
-1.477879434823989868e-01
5.936298985034227371e-03
-1.437304913997650146e-01
7.431252300739288330e-02
5.447840318083763123e-02
1.246214434504508972e-01
-1.237829551100730896e-01
1.618043035268783569e-01
1.067617833614349365e-01
-1.354604810476303101e-01
6.956373155117034912e-02
1.803984120488166809e-02
-8.504635095596313477e-02
9.342186152935028076e-03
5.898978188633918762e-02
1.163036152720451355e-01
3.452543402090668678e-03
-4.324797540903091431e-02
5.973972007632255554e-02
-9.938924014568328857e-02
6.052658334374427795e-02
3.361038491129875183e-02
1.405052840709686279e-01
1.632689684629440308e-01
1.496354937553405762e-01
1.374609321355819702e-01
-3.505212068557739258e-02
1.297834236174821854e-02
1.378529816865921021e-01
-5.767088010907173157e-02
1.508734971284866333e-01
1.102067977190017700e-01
1.535697281360626221e-01
1.696158200502395630e-01
-9.037763625383377075e-02
-1.682845205068588257e-01
1.113677546381950378e-01
8.285197615623474121e-02
-1.023916974663734436e-01
1.368927657604217529e-01
4.912754520773887634e-02
-1.707576662302017212e-01
5.302003771066665649e-02
-1.662064790725708008e-01
-1.010218635201454163e-01
1.052813306450843811e-01
-1.218251660466194153e-01
1.657745987176895142e-01
-3.704218938946723938e-02
5.823735520243644714e-02
-3.497518226504325867e-02
9.551885724067687988e-02
6.392515450716018677e-02
1.302123665809631348e-01
6.136720255017280579e-02
1.742801219224929810e-01
1.325284410268068314e-02
-5.883872881531715393e-02
7.096709311008453369e-02
-4.014746472239494324e-02
1.304711550474166870e-01
-1.307749599218368530e-01
-2.015268430113792419e-02
1.009232625365257263e-01
-1.763662397861480713e-01
-9.959864616394042969e-02
-1.665886342525482178e-01
-1.611172854900360107e-01
2.700571902096271515e-02
1.759365387260913849e-02
1.608567535877227783e-01
-2.753670699894428253e-02
-1.502934098243713379e-01
7.866715639829635620e-02
-6.078053638339042664e-02
-7.934085279703140259e-02
-1.409063786268234253e-01
-1.026458442211151123e-01
-1.552508473396301270e-01
-6.185964494943618774e-02
-1.268842071294784546e-01
-5.709983408451080322e-02
-3.007651679217815399e-02
-1.328490525484085083e-01
-1.479213386774063110e-01
-5.376698821783065796e-02
1.480512917041778564e-01
-1.478624790906906128e-01
1.756778359413146973e-01
-2.960824407637119293e-02
-1.005825251340866089e-01
1.545759886503219604e-01
-1.602787971496582031e-01
8.843790739774703979e-02
6.194242089986801147e-02
1.132715940475463867e-01
7.610974460840225220e-02
-6.311812996864318848e-02
-7.484629005193710327e-02
2.188129536807537079e-02
1.443255394697189331e-01
6.773451715707778931e-02
1.701952368021011353e-01
-1.178149133920669556e-01
-9.903632849454879761e-02
-1.354119032621383667e-01
9.852061420679092407e-02
2.989079803228378296e-02
1.317236456088721752e-03
-1.738799735903739929e-02
-1.370119154453277588e-01
-1.306275576353073120e-01
-5.731379240751266479e-02
7.409719377756118774e-02
-9.249452501535415649e-02
1.068383827805519104e-01
-1.462204158306121826e-01
-5.391030758619308472e-02
-1.085527893155813217e-02
1.354519650340080261e-02
-1.801040139980614185e-03
3.002252802252769470e-02
9.284556657075881958e-02
-7.935347408056259155e-02
1.208164244890213013e-01
1.299734413623809814e-01
-1.583528704941272736e-02
1.365286409854888916e-01
-1.018351688981056213e-01
2.508698403835296631e-02
-9.171582013368606567e-02
1.020954102277755737e-01
-1.706836521625518799e-01
1.874466240406036377e-02
-1.365493983030319214e-01
1.051813960075378418e-01
1.691289828158915043e-03
-4.562088474631309509e-02
-1.658361107110977173e-01
1.461806744337081909e-01
-9.758307784795761108e-02
-4.678395017981529236e-02
-3.439726307988166809e-02
-4.771983996033668518e-02
2.591582201421260834e-02
-1.683248430490493774e-01
7.627205550670623779e-02
8.760511130094528198e-02
-6.039729714393615723e-02
1.440990418195724487e-01
1.364169083535671234e-02
5.122361332178115845e-02
1.378459930419921875e-01
3.750405460596084595e-02
-6.732693314552307129e-02
-7.769642770290374756e-02
-7.345738261938095093e-02
-8.558549731969833374e-02
1.184452883899211884e-02
-4.424068331718444824e-02
-2.596671506762504578e-02
-1.741332858800888062e-01
1.661356389522552490e-01
6.065668910741806030e-02
7.863345742225646973e-02
1.357160061597824097e-01
-7.545223832130432129e-02
9.217815101146697998e-02
-8.412422239780426025e-02
4.018411040306091309e-02
1.229440793395042419e-01
-1.059596166014671326e-01
2.330109477043151855e-02
-1.233506724238395691e-01
-6.500072032213211060e-02
-2.025811374187469482e-02
1.349783092737197876e-01
-9.357036650180816650e-02
2.964984439313411713e-02
-1.435161978006362915e-01
1.452379673719406128e-01
1.391535066068172455e-02
-9.731363505125045776e-02
-1.637776009738445282e-02
4.988307133316993713e-02
5.203336104750633240e-02
7.676401734352111816e-02
-3.010625205934047699e-02
1.645349664613604546e-03
-1.243951171636581421e-01
4.359398037195205688e-02
9.842199087142944336e-02
-3.961281105875968933e-02
9.334942698478698730e-02
1.351604759693145752e-01
1.607987731695175171e-01
5.834609270095825195e-02
-3.584467247128486633e-02
-9.242017567157745361e-02
-9.534805268049240112e-02
-1.446073949337005615e-01
-5.906667932868003845e-02
-8.375682681798934937e-02
-1.752788387238979340e-02
-9.665180742740631104e-02
-1.039331778883934021e-01
-5.498753860592842102e-02
-1.522304713726043701e-01
-1.132959723472595215e-01
-2.727811411023139954e-02
4.056452959775924683e-02
4.751500859856605530e-02
-3.511923924088478088e-02
9.837432205677032471e-02
-1.447243988513946533e-01
-1.221180036664009094e-01
-1.623618602752685547e-01
1.697767972946166992e-01
1.449914765544235706e-03
-9.743407368659973145e-02
-2.782694995403289795e-02
6.237803027033805847e-02
-6.505892425775527954e-02
1.303438842296600342e-01
-1.469166427850723267e-01
1.667492836713790894e-01
-2.991328202188014984e-02
2.463340014219284058e-02
3.823115304112434387e-02
1.351925283670425415e-01
1.572139561176300049e-01
1.446036845445632935e-01
-9.875407069921493530e-02
8.484981954097747803e-02
-1.162838712334632874e-01
3.435745835304260254e-02
1.353889107704162598e-01
1.191997751593589783e-01
-1.183484122157096863e-01
1.498113721609115601e-01
-1.702730804681777954e-01
-1.741439402103424072e-01
-2.406153082847595215e-02
-2.025994844734668732e-02
1.388694643974304199e-01
-1.418548077344894409e-01
-1.443083584308624268e-01
1.647808551788330078e-01
-4.289091005921363831e-02
1.666784584522247314e-01
1.719720363616943359e-01
-2.437318488955497742e-02
-1.915135979652404785e-02
-1.063018962740898132e-01
-1.618425399065017700e-01
2.157749980688095093e-02
1.592538058757781982e-01
2.086330018937587738e-02
1.596156507730484009e-01
5.470310896635055542e-02
-1.593831554055213928e-02
-1.603647321462631226e-01
-1.468541175127029419e-01
-3.669188544154167175e-02
-1.594091802835464478e-01
1.183373481035232544e-01
-1.042658612132072449e-01
-6.436613947153091431e-02
4.221904650330543518e-02
-6.236445903778076172e-02
5.018227174878120422e-02
2.927793934941291809e-02
2.793427743017673492e-02
1.120173037052154541e-01
1.707676649093627930e-01
-1.131060421466827393e-01
-1.609722375869750977e-01
-6.182837300002574921e-03
7.016803324222564697e-02
-3.513571992516517639e-02
-6.430035084486007690e-02
-1.367898434400558472e-01
-1.298181898891925812e-02
1.578092128038406372e-01
1.353903561830520630e-01
-1.434507519006729126e-01
-1.450370550155639648e-01
-4.967490676790475845e-03
1.071454435586929321e-01
-9.732602536678314209e-02
1.524852514266967773e-01
-1.751934923231601715e-02
4.440927132964134216e-02
1.754952371120452881e-01
1.740480363368988037e-01
5.672122817486524582e-03
4.808129370212554932e-02
-1.473489999771118164e-01
-3.173255175352096558e-02
-1.583937555551528931e-01
-1.274990886449813843e-01
-1.441240962594747543e-02
-1.462634950876235962e-01
-1.093805953860282898e-01
6.280609220266342163e-02
-6.647293269634246826e-02
-1.152003780007362366e-01
-1.891466206870973110e-03
-4.950326308608055115e-02
9.157241135835647583e-02
-5.296415090560913086e-02
1.618177630007266998e-02
-5.100348219275474548e-02
-1.074225828051567078e-01
-1.340541243553161621e-01
7.788161933422088623e-02
1.148218363523483276e-01
7.093493640422821045e-02
1.300756186246871948e-01
-2.543834038078784943e-02
-1.243647485971450806e-01
-1.735167950391769409e-01
1.153177767992019653e-02
-1.755169630050659180e-01
-8.564130216836929321e-02
7.446749508380889893e-02
-5.864944541826844215e-04
-2.740476466715335846e-02
-2.195947617292404175e-02
2.984433062374591827e-02
1.688071489334106445e-01
9.305343031883239746e-02
7.062680274248123169e-02
-1.667542755603790283e-01
-1.158245354890823364e-01
-2.652254700660705566e-02
1.619270145893096924e-01
-1.670661419630050659e-01
-9.025094099342823029e-03
1.620329469442367554e-01
5.465727671980857849e-02
-1.198153570294380188e-01
1.581965982913970947e-01
8.467891812324523926e-02
1.075524371117353439e-02
-7.658059149980545044e-02
1.289907395839691162e-01
-1.067009195685386658e-01
8.187404274940490723e-02
-1.602074801921844482e-01
-1.209700107574462891e-01
1.660880818963050842e-02
-1.199997216463088989e-01
4.039866104722023010e-02
5.136109516024589539e-02
1.334829181432723999e-01
4.602456931024789810e-03
7.293488830327987671e-02
-4.433336481451988220e-02
5.415724590420722961e-02
8.281876891851425171e-02
1.406735368072986603e-02
-9.200466796755790710e-03
1.661103218793869019e-01
9.245697408914566040e-02
-1.266449838876724243e-01
-5.426054820418357849e-02
-5.452895909547805786e-02
-1.610822975635528564e-01
5.649426486343145370e-03
-1.560371518135070801e-01
1.311493515968322754e-01
-6.395030021667480469e-02
3.129940852522850037e-02
-1.353520303964614868e-01
-9.870604425668716431e-02
9.672067314386367798e-02
-1.623146831989288330e-01
-1.385894417762756348e-01
-1.429966241121292114e-01
9.502685070037841797e-02
9.708476066589355469e-02
-3.092428110539913177e-02
-9.645184129476547241e-02
-1.344274133443832397e-01
-5.585932522080838680e-04
-1.307045370340347290e-01
2.306294441223144531e-02
1.302256882190704346e-01
1.322128474712371826e-01
-1.308484077453613281e-01
-1.721078306436538696e-01
1.604381352663040161e-01
-1.645817607641220093e-01
-9.504630416631698608e-02
-1.471396982669830322e-01
1.687112748622894287e-01
3.088824450969696045e-02
3.819212317466735840e-02
-1.203473955392837524e-01
2.985741756856441498e-02
-1.365541014820337296e-02
1.532228440046310425e-01
5.032816156744956970e-02
1.543093919754028320e-01
-5.202990397810935974e-02
-4.440090432763099670e-02
-3.103167051449418068e-03
1.436791568994522095e-01
1.511266827583312988e-01
-1.597547531127929688e-01
1.216550245881080627e-01
1.137122809886932373e-01
-1.031312271952629089e-01
-1.516375541687011719e-01
-4.687981307506561279e-02
8.686856925487518311e-02
1.099441796541213989e-01
1.712582409381866455e-01
1.397604495286941528e-01
2.076010406017303467e-02
-1.276289522647857666e-01
-1.430992782115936279e-01
-1.674642562866210938e-01
1.188939213752746582e-01
-1.305059790611267090e-01
-3.090680949389934540e-02
-7.542449980974197388e-02
1.497490108013153076e-01
-2.946066856384277344e-02
-2.415353618562221527e-02
-7.515770941972732544e-02
7.663480937480926514e-02
1.570609062910079956e-01
-9.851962327957153320e-02
-4.837478324770927429e-02
-3.457868471741676331e-02
1.479667723178863525e-01
9.614812582731246948e-02
1.124100238084793091e-01
8.102491497993469238e-02
-1.598767489194869995e-01
-5.535788089036941528e-02
-4.144847393035888672e-03
1.340384185314178467e-01
-9.199245274066925049e-02
7.109520025551319122e-03
1.684900373220443726e-01
-1.439072787761688232e-01
-8.284538239240646362e-02
-8.308477699756622314e-02
-7.133874297142028809e-02
-1.163788065314292908e-01
7.391391694545745850e-02
-1.190787926316261292e-01
9.222573135048151016e-04
1.671146601438522339e-01
1.579717397689819336e-01
6.835131347179412842e-02
-3.260707855224609375e-02
1.160129681229591370e-01
-1.369730830192565918e-01
9.132901579141616821e-02
1.133422479033470154e-01
1.289487183094024658e-01
1.288586705923080444e-01
1.323160678148269653e-01
6.578872352838516235e-02
8.779679238796234131e-02
5.699762701988220215e-02
-9.251625090837478638e-02
5.356900021433830261e-02
-2.965384721755981445e-02
-4.052906110882759094e-02
1.577843166887760162e-02
1.702566593885421753e-01
7.609177380800247192e-02
-3.026763163506984711e-02
1.256431639194488525e-01
7.499060034751892090e-02
-1.678988784551620483e-01
-2.745243348181247711e-02
1.170876324176788330e-01
1.217039972543716431e-01
3.356827888637781143e-03
1.641965806484222412e-01
8.839169889688491821e-02
-6.992571055889129639e-02
-1.000321060419082642e-01
3.346956893801689148e-02
-3.923203423619270325e-02
1.130588799715042114e-01
-1.597796231508255005e-01
1.300722062587738037e-01
8.801159262657165527e-02
-7.236668467521667480e-02
4.329345375299453735e-02
3.691006079316139221e-02
1.820025220513343811e-02
1.596647799015045166e-01
1.758878976106643677e-01
-2.750077657401561737e-02
-2.201920002698898315e-02
1.261387765407562256e-01
1.562516987323760986e-01
2.341276407241821289e-02
1.372086852788925171e-01
-2.412548754364252090e-03
1.273173838853836060e-01
1.118750572204589844e-01
8.380845934152603149e-02
-9.628228098154067993e-02
1.653813421726226807e-01
5.038862302899360657e-02
8.403645455837249756e-02
5.591892078518867493e-02
-1.612436771392822266e-01
-2.758315205574035645e-02
1.757851690053939819e-01
4.678683727979660034e-02
6.353506445884704590e-02
-8.771711587905883789e-02
1.419102847576141357e-01
1.781703159213066101e-02
2.612050855532288551e-03
6.837112456560134888e-02
1.377704441547393799e-01
1.490067839622497559e-01
-1.259019672870635986e-01
-5.045466497540473938e-02
8.450784534215927124e-02
-7.448540627956390381e-02
-3.500422229990363121e-03
1.531717181205749512e-01
-4.135280102491378784e-02
-5.727550014853477478e-02
3.692851960659027100e-02
-4.760842770338058472e-02
-5.622360110282897949e-02
1.196657121181488037e-01
1.589980423450469971e-01
5.960891768336296082e-02
-7.374694943428039551e-02
7.894182205200195312e-02
-1.576157808303833008e-01
1.381570249795913696e-01
1.301915049552917480e-01
-3.068166226148605347e-02
1.205430626869201660e-01
4.910590499639511108e-02
8.035787194967269897e-02
-6.945412606000900269e-02
-4.131463542580604553e-02
1.055890619754791260e-01
-6.369699537754058838e-02
-1.112237796187400818e-01
-9.419102221727371216e-02
-8.125744014978408813e-02
8.127505332231521606e-02
1.557136178016662598e-01
-6.956160068511962891e-02
-3.240673243999481201e-02
1.077336668968200684e-01
-1.483362168073654175e-01
-6.785756349563598633e-02
1.690679639577865601e-01
9.105013310909271240e-02
1.532827913761138916e-01
1.950933411717414856e-02
-1.343527734279632568e-01
-1.357417255640029907e-01
-1.445119380950927734e-01
-5.017790943384170532e-02
-1.654396802186965942e-01
7.360868901014328003e-02
-1.549937725067138672e-01
-2.260710485279560089e-02
-1.418393105268478394e-01
1.646666824817657471e-01
-6.607909221202135086e-03
1.927301660180091858e-02
-1.582434773445129395e-01
7.899434119462966919e-02
1.077471971511840820e-01
1.370194256305694580e-01
1.528208851814270020e-01
6.373115628957748413e-02
-5.486130714416503906e-02
9.533494710922241211e-02
1.210990622639656067e-01
-2.989073470234870911e-02
-1.260027885437011719e-01
-2.494739368557929993e-02
-6.531339138746261597e-02
1.000438705086708069e-01
1.223891973495483398e-01
-1.345824729651212692e-02
-5.965471267700195312e-02
2.532684244215488434e-02
1.687022447586059570e-01
9.304498136043548584e-02
1.418700814247131348e-02
1.474168151617050171e-02
-6.683470308780670166e-02
-4.402482882142066956e-02
8.944408595561981201e-02
-2.645035088062286377e-02
-1.873840391635894775e-02
-1.695862859487533569e-01
1.145608648657798767e-01
1.541226208209991455e-01
3.053722530603408813e-02
9.885682165622711182e-02
-6.968534737825393677e-02
1.536224931478500366e-01
-1.645851731300354004e-01
1.650073379278182983e-01
-6.782540678977966309e-02
6.087983772158622742e-02
-1.481569409370422363e-01
-4.933492839336395264e-02
-1.704538613557815552e-02
-2.320373663678765297e-03
1.089578866958618164e-01
5.221463367342948914e-02
-4.441963881254196167e-02
1.041676625609397888e-01
7.385050505399703979e-02
5.293454602360725403e-02
8.758123219013214111e-02
8.604890108108520508e-02
1.390205621719360352e-01
-4.589053988456726074e-02
-3.272435069084167480e-02
1.325374394655227661e-01
1.629524677991867065e-01
1.497270166873931885e-01
4.212607070803642273e-02
-8.179525285959243774e-02
1.499812901020050049e-01
-4.703314229846000671e-02
-1.222825646400451660e-01
3.423961624503135681e-02
8.649373799562454224e-02
-9.594751149415969849e-02
-2.921935636550188065e-03
7.499647885560989380e-02
-1.367803663015365601e-01
-9.663475304841995239e-02
-5.548033863306045532e-02
-1.551225483417510986e-01
9.621149301528930664e-02
1.010432988405227661e-01
-1.315090656280517578e-01
1.615042984485626221e-01
1.001581922173500061e-01
-1.091558039188385010e-01
-5.332145094871520996e-02
-1.183876693248748779e-01
-1.246962994337081909e-01
-8.278340846300125122e-02
-7.346541434526443481e-02
-1.311619430780410767e-01
-8.299464732408523560e-02
-9.248944371938705444e-02
-9.490117430686950684e-02
1.699958145618438721e-01
-2.613167744129896164e-03
-5.457304418087005615e-02
-1.118907332420349121e-01
-1.584107428789138794e-01
1.556234657764434814e-01
1.602555960416793823e-01
-3.559014573693275452e-02
-5.222887918353080750e-02
-1.234287321567535400e-01
-1.777372695505619049e-02
-6.579009443521499634e-02
2.553190663456916809e-02
-3.743483126163482666e-02
-9.080890566110610962e-02
-7.760905474424362183e-02
8.400456607341766357e-02
6.954976171255111694e-02
3.391710668802261353e-02
5.963599681854248047e-02
-4.037575423717498779e-02
-1.607109308242797852e-01
1.696651428937911987e-01
-3.380042314529418945e-02
4.714198783040046692e-02
9.652043133974075317e-02
-1.678304374217987061e-01
1.508633345365524292e-01
1.423874311149120331e-02
1.643253117799758911e-01
-3.766139224171638489e-02
-8.263701200485229492e-02
2.941420115530490875e-02
-8.380312472581863403e-02
3.458637744188308716e-02
7.804103940725326538e-02
-1.298453509807586670e-01
-1.425678282976150513e-02
9.692529588937759399e-02
-5.868506152182817459e-03
-1.162610650062561035e-01
-1.438250672072172165e-02
-7.178801298141479492e-02
4.597236961126327515e-02
1.253693997859954834e-01
-5.322668328881263733e-02
9.952402859926223755e-02
1.723641753196716309e-01
-2.008109726011753082e-02
-1.509671360254287720e-01
-1.524743139743804932e-01
-9.329061210155487061e-02
-1.670196801424026489e-01
-2.870444767177104950e-02
-1.961282454431056976e-02
-7.162232697010040283e-02
-1.183954253792762756e-01
1.288572996854782104e-01
-1.963874511420726776e-02
-1.727198064327239990e-01
9.440524876117706299e-02
3.308647498488426208e-02
-1.070551648736000061e-01
1.271340716630220413e-02
5.171502474695444107e-03
-1.593112349510192871e-01
-2.427477203309535980e-02
-3.630611672997474670e-02
-4.929235950112342834e-02
-4.578272998332977295e-02
1.606438457965850830e-01
4.634869843721389771e-02
-4.860393330454826355e-02
-1.323424875736236572e-01
6.675552576780319214e-02
1.654163450002670288e-01
9.612235426902770996e-02
1.234112158417701721e-01
-6.389836966991424561e-02
1.151433959603309631e-01
-3.433528915047645569e-02
1.062780618667602539e-01
1.583471596240997314e-01
1.271160989999771118e-01
-3.755575045943260193e-02
-1.081206351518630981e-01
1.076229661703109741e-01
-9.505797922611236572e-02
1.676952242851257324e-01
-6.368310749530792236e-02
5.343398451805114746e-02
-1.150457188487052917e-02
-2.721782401204109192e-02
-6.556338071823120117e-02
-3.602402657270431519e-02
3.202302753925323486e-02
1.093483939766883850e-01
1.402511000633239746e-01
1.759958565235137939e-01
3.283536434173583984e-02
-1.705376356840133667e-01
1.187800392508506775e-01
-1.044483408331871033e-01
1.019370183348655701e-01
1.677253991365432739e-01
3.188583999872207642e-02
-1.545984894037246704e-01
-1.383652389049530029e-01
3.054521232843399048e-02
6.668937858194112778e-03
1.078629940748214722e-01
5.214941129088401794e-02
-5.246698856353759766e-02
-5.096358805894851685e-02
8.920066058635711670e-02
-1.396777331829071045e-01
-5.009395256638526917e-02
-1.668951939791440964e-03
-7.032121717929840088e-02
2.115773782134056091e-02
7.549130171537399292e-02
-9.606292843818664551e-02
1.550396829843521118e-01
1.086547225713729858e-01
7.556257396936416626e-02
1.814567111432552338e-02
1.748204827308654785e-01
-7.347352802753448486e-02
-3.065978735685348511e-02
-9.625752270221710205e-02
6.954172998666763306e-02
5.820650234818458557e-02
1.503600776195526123e-01
4.474389553070068359e-02
-1.508406549692153931e-01
1.339677628129720688e-02
5.695897713303565979e-02
-3.089600056409835815e-02
9.776741266250610352e-03
3.926952555775642395e-02
-1.515752971172332764e-01
-1.687837950885295868e-02
-3.399156033992767334e-02
-1.139271035790443420e-01
1.389147937297821045e-01
-1.590010942891240120e-03
3.607669100165367126e-02
-2.645719982683658600e-02
-1.452015638351440430e-01
-2.306802431121468544e-03
-1.613029986619949341e-01
-7.400773465633392334e-02
-1.514059752225875854e-01
-5.813531950116157532e-02
1.071100383996963501e-01
-1.387036740779876709e-01
-9.117172658443450928e-02
2.541842684149742126e-02
-5.586623772978782654e-02
-1.252671182155609131e-01
1.751411259174346924e-01
1.354966759681701660e-01
1.758605688810348511e-01
-9.947347640991210938e-02
-1.476137042045593262e-01
-5.867433547973632812e-02
-4.671914875507354736e-02
-4.722655564546585083e-02
1.552273184061050415e-01
7.042955607175827026e-02
-4.393370449542999268e-02
1.503201872110366821e-01
2.868590317666530609e-02
1.875229179859161377e-02
-1.689454764127731323e-01
-8.539710193872451782e-03
1.138993725180625916e-01
-7.429886609315872192e-02
-1.209271699190139771e-01
4.717650637030601501e-02
6.701867282390594482e-02
7.524474710226058960e-02
-1.003717482089996338e-01
-1.702013015747070312e-01
6.418785452842712402e-02
7.508342713117599487e-02
-9.088484942913055420e-02
1.725386381149291992e-01
-6.758733838796615601e-02
1.204162612557411194e-01
-3.944523632526397705e-03
5.608055368065834045e-02
-5.991606414318084717e-02
-3.658898547291755676e-02
-5.183988437056541443e-02
-3.898484259843826294e-02
3.250042349100112915e-02
1.605591475963592529e-01
1.366544514894485474e-01
1.729386746883392334e-01
1.557300537824630737e-01
1.975918002426624298e-02
6.246986985206604004e-02
1.284892112016677856e-01
2.436262741684913635e-02
1.746867299079895020e-01
-1.565324664115905762e-01
-3.612861409783363342e-02
-9.499899460934102535e-04
-1.495010405778884888e-01
1.196101233363151550e-01
-1.269767731428146362e-01
1.228849962353706360e-01
-5.747869238257408142e-02
-4.581299051642417908e-02
3.284137323498725891e-02
-1.112680360674858093e-01
-1.125969663262367249e-01
5.721904709935188293e-02
-1.386367827653884888e-01
3.979777172207832336e-02
-6.450633704662322998e-02
-6.033076718449592590e-02
1.090140417218208313e-01
1.720616817474365234e-01
4.787649959325790405e-03
1.482581794261932373e-01
-1.193851605057716370e-01
-3.716169670224189758e-02
1.376862525939941406e-01
1.620290428400039673e-01
-9.321829304099082947e-03
-7.755102217197418213e-02
-1.309733241796493530e-01
1.404474526643753052e-01
-4.655140452086925507e-03
-1.327740699052810669e-01
2.981295250356197357e-02
-1.354695111513137817e-01
6.748151034116744995e-02
-1.658236049115657806e-02
1.635773330926895142e-01
1.365099251270294189e-01
3.420541062951087952e-02
4.533021897077560425e-02
-3.222952410578727722e-02
-1.707557886838912964e-01
6.755294650793075562e-02
1.595295965671539307e-01
-6.395143270492553711e-02
2.828173525631427765e-02
1.217069923877716064e-01
-6.548602133989334106e-02
1.805204339325428009e-02
1.250850409269332886e-01
-3.752536326646804810e-02
-1.764121800661087036e-01
-1.167959570884704590e-01
6.492673605680465698e-02
2.656515920534729958e-03
-3.156585991382598877e-02
9.959881752729415894e-02
-1.074495315551757812e-01
1.223876625299453735e-01
-6.505524367094039917e-02
-1.029643714427947998e-01
1.451338529586791992e-01
1.378673966974020004e-02
4.160576686263084412e-02
-1.591299474239349365e-01
-1.306602507829666138e-01
-1.471821218729019165e-01
4.309388622641563416e-02
-4.849022254347801208e-02
1.430352181196212769e-01
-7.389815151691436768e-02
1.585703045129776001e-01
-9.735201299190521240e-02
1.603515148162841797e-01
1.197152733802795410e-01
7.609516382217407227e-02
4.689976945519447327e-02
-8.400014601647853851e-03
-1.666807681322097778e-01
-1.537156999111175537e-01
-2.353068999946117401e-02
-4.980731010437011719e-02
-1.736631989479064941e-01
1.697067916393280029e-01
1.316270232200622559e-01
1.176736205816268921e-01
1.412877142429351807e-01
-1.372358649969100952e-01
-1.246579214930534363e-01
9.415373951196670532e-02
-1.750702038407325745e-02
-9.551898390054702759e-02
2.948064543306827545e-02
-1.603906899690628052e-01
4.828207939863204956e-02
4.966230690479278564e-02
-1.313154101371765137e-01
7.637143880128860474e-02
-5.497234407812356949e-03
-9.323999285697937012e-03
7.054895162582397461e-02
-7.688783854246139526e-02
-9.124286472797393799e-02
8.325079083442687988e-02
1.501971483230590820e-01
-6.554753333330154419e-02
-4.464598745107650757e-02
-2.301645651459693909e-02
1.148463636636734009e-01
-1.297048628330230713e-01
-9.850201010704040527e-02
-8.387903124094009399e-02
1.065820679068565369e-01
-1.723735332489013672e-01
-5.931987613439559937e-02
-1.601614952087402344e-01
1.019847914576530457e-01
4.846674576401710510e-02
1.144462674856185913e-01
9.213756024837493896e-02
-6.437171995639801025e-02
-1.642879098653793335e-01
-1.177406534552574158e-01
-1.390550881624221802e-01
-1.475544124841690063e-01
-1.202744990587234497e-01
1.632945835590362549e-01
1.107961162924766541e-01
7.050120085477828979e-02
1.574886143207550049e-01
1.238735914230346680e-01
4.424173757433891296e-02
-1.225019171833992004e-01
1.387786269187927246e-01
-5.706236511468887329e-02
-1.625248193740844727e-01
-1.737636178731918335e-01
2.734949067234992981e-02
1.501482725143432617e-01
-1.610168963670730591e-01
5.924032256007194519e-02
1.290075015276670456e-02
2.938301302492618561e-02
-8.614169061183929443e-02
1.397617310285568237e-01
5.331222340464591980e-02
-9.684890508651733398e-02
-4.338120296597480774e-02
-1.330240964889526367e-01
1.388005316257476807e-01
3.894491121172904968e-02
-1.784965395927429199e-02
1.063813194632530212e-01
-1.371313184499740601e-01
-1.383184492588043213e-01
1.016304641962051392e-01
1.575285047292709351e-01
-1.195369139313697815e-01
1.559497416019439697e-01
-1.381089240312576294e-01
1.372002959251403809e-01
1.633523404598236084e-02
-8.767835795879364014e-02
1.572554558515548706e-01
-1.318688392639160156e-01
3.667901083827018738e-02
1.067874059081077576e-01
-1.173046231269836426e-01
1.087646633386611938e-01
2.367365173995494843e-02
-2.250694297254085541e-02
-3.249667212367057800e-02
-1.482575237751007080e-01
-4.834165424108505249e-02
1.266389489173889160e-01
1.381856948137283325e-01
4.554708674550056458e-02
-6.747546046972274780e-02
-6.659290194511413574e-02
7.702492177486419678e-02
9.262958168983459473e-02
4.156572744250297546e-02
-5.099716037511825562e-02
1.362865269184112549e-01
-8.007650077342987061e-02
8.507564663887023926e-02
1.703276298940181732e-02
-1.382855623960494995e-01
8.041884005069732666e-02
2.512156590819358826e-02
-1.293531209230422974e-01
-9.462848305702209473e-02
1.528606563806533813e-01
3.263188153505325317e-02
5.638152360916137695e-02
-6.019033491611480713e-02
5.007506906986236572e-02
-1.612254679203033447e-01
1.928456500172615051e-02
-1.687890440225601196e-01
1.303772032260894775e-01
2.179384045302867889e-02
6.807624548673629761e-02
1.667218208312988281e-01
-6.213501095771789551e-02
1.530846804380416870e-01
-1.367005258798599243e-01
1.409733593463897705e-01
-1.396767050027847290e-01
6.994587928056716919e-02
3.647792711853981018e-02
-7.543364912271499634e-02
-1.943174004554748535e-02
-8.308808505535125732e-02
-7.594440132379531860e-02
-9.339383244514465332e-02
1.375874727964401245e-01
-4.858580976724624634e-02
-1.398613676428794861e-02
-1.277445405721664429e-01
1.234361678361892700e-01
-3.868463262915611267e-02
7.674190402030944824e-02
-7.691378123126924038e-04
-1.597430258989334106e-01
