-4.339498281478881836e-02
2.449314296245574951e-02
8.536230027675628662e-02
-4.679274559020996094e-02
8.872587978839874268e-02
7.823184132575988770e-03
-1.399835944175720215e-02
-4.404197633266448975e-02
6.948503851890563965e-02
8.077481389045715332e-02
6.937831640243530273e-03
-1.043645441532135010e-01
5.641521513462066650e-02
3.863582015037536621e-02
1.061540693044662476e-01
-8.669321238994598389e-02
-4.229021072387695312e-02
-1.007628440856933594e-01
-8.949109911918640137e-02
4.362319409847259521e-02
4.803021252155303955e-02
-5.476786196231842041e-02
4.800215363502502441e-03
7.363727688789367676e-02
-6.647789478302001953e-02
-3.260008990764617920e-02
5.198180675506591797e-03
-6.745976209640502930e-02
8.451111614704132080e-02
6.176970899105072021e-02
-6.432445347309112549e-02
6.622137129306793213e-02
6.229081749916076660e-02
-2.183954417705535889e-02
4.133190214633941650e-02
2.507385611534118652e-02
-4.879951477050781250e-02
5.095523595809936523e-02
9.945820271968841553e-02
-6.684213876724243164e-02
5.656227469444274902e-02
-7.061246037483215332e-02
-3.926809132099151611e-02
9.678736329078674316e-02
1.125557422637939453e-01
2.312509715557098389e-02
-1.160905361175537109e-01
5.082985758781433105e-02
1.025981903076171875e-01
-3.415215015411376953e-02
-7.334230840206146240e-02
7.348905503749847412e-02
-3.104466199874877930e-02
1.900483667850494385e-02
1.112920641899108887e-01
-6.027384102344512939e-02
-9.022594988346099854e-02
9.889507293701171875e-02
1.195507943630218506e-01
-1.915730535984039307e-02
-3.709907829761505127e-02
-1.038816124200820923e-01
-1.903854310512542725e-02
1.135651618242263794e-01
-3.117491304874420166e-02
-8.514508605003356934e-03
-9.955564141273498535e-02
2.496346831321716309e-03
3.581096231937408447e-02
1.153004467487335205e-01
-8.972415328025817871e-02
-2.558499574661254883e-02
-1.107663363218307495e-01
-4.254701733589172363e-02
-1.036424040794372559e-01
-9.806761145591735840e-02
-2.664592862129211426e-02
1.154639720916748047e-01
5.599042773246765137e-02
-8.884565532207489014e-02
1.030409038066864014e-01
-8.156891167163848877e-02
1.185464560985565186e-01
-3.137858211994171143e-02
-8.974556624889373779e-02
-8.753299713134765625e-02
4.505372047424316406e-02
1.174560040235519409e-01
-6.951949000358581543e-02
-1.141424477100372314e-02
4.441055655479431152e-02
-7.950109243392944336e-02
-5.084343254566192627e-02
2.281637489795684814e-02
5.830059945583343506e-02
-1.228816956281661987e-01
-6.022976338863372803e-02
8.863316476345062256e-02
-6.253588199615478516e-02
1.052334904670715332e-01
4.205459356307983398e-02
-1.066796481609344482e-01
-1.045012921094894409e-01
-7.228702306747436523e-03
-2.566589415073394775e-02
8.293746411800384521e-02
-1.083498299121856689e-01
-9.594419598579406738e-02
-3.046849370002746582e-02
1.158766448497772217e-02
-1.232589334249496460e-01
7.602106034755706787e-02
-1.066597104072570801e-01
4.154407978057861328e-02
3.094635903835296631e-02
9.380003809928894043e-02
-3.268438577651977539e-02
-9.386672079563140869e-02
3.882081806659698486e-02
-1.840731501579284668e-02
-2.705721557140350342e-02
8.914406597614288330e-02
5.401158332824707031e-02
-1.203600019216537476e-01
8.736202120780944824e-02
-1.189207136631011963e-01
9.945249557495117188e-02
1.235023140907287598e-01
-1.233171373605728149e-01
-5.208726227283477783e-02
-3.429764509201049805e-02
1.243353039026260376e-01
-4.473997652530670166e-02
9.333707392215728760e-02
5.571332573890686035e-02
-3.466717898845672607e-02
3.163652122020721436e-02
-5.874258279800415039e-02
-8.030232787132263184e-02
1.691834628582000732e-02
-7.851234078407287598e-02
1.062959432601928711e-02
-3.696802258491516113e-02
-1.769693195819854736e-02
-1.233022212982177734e-01
8.254511654376983643e-02
1.001255810260772705e-01
5.225524306297302246e-03
-1.118855476379394531e-01
-4.861934483051300049e-02
-6.640195846557617188e-03
-6.970359385013580322e-02
2.846445143222808838e-02
6.070837378501892090e-03
-6.058599054813385010e-02
-2.190090715885162354e-02
-9.861893951892852783e-02
-7.128542661666870117e-02
-1.038692593574523926e-01
8.336855471134185791e-02
8.609309792518615723e-02
1.166322380304336548e-01
-1.030264496803283691e-01
-8.409923315048217773e-02
1.123082339763641357e-01
1.739370822906494141e-02
8.253289759159088135e-02
9.256766736507415771e-02
-1.105958074331283569e-01
-1.631528139114379883e-02
-9.074586629867553711e-02
-1.316393911838531494e-02
-9.539723396301269531e-03
-1.634198427200317383e-02
2.532213926315307617e-03
-4.565352201461791992e-02
-6.225742399692535400e-02
-1.055090725421905518e-01
-1.009391844272613525e-01
-2.378287911415100098e-02
1.081064194440841675e-01
1.094177067279815674e-01
5.841802060604095459e-02
4.672421514987945557e-02
2.385289967060089111e-02
1.298126578330993652e-02
3.812976181507110596e-02
-7.037594914436340332e-03
-5.986297130584716797e-02
1.208634078502655029e-01
-6.199659407138824463e-02
3.408370912075042725e-02
-2.806723117828369141e-03
-6.837089359760284424e-02
1.750656962394714355e-02
-1.333162188529968262e-03
1.025694608688354492e-02
1.088320612907409668e-01
-2.720551192760467529e-02
6.926737725734710693e-02
1.077247262001037598e-01
-4.983735084533691406e-02
9.539106488227844238e-02
4.899814724922180176e-03
-1.143912225961685181e-01
-1.208501011133193970e-01
5.845353007316589355e-02
-4.184393584728240967e-02
-1.264868676662445068e-02
-9.150695800781250000e-02
1.167701929807662964e-01
8.188839256763458252e-02
5.350168049335479736e-02
3.292889893054962158e-02
-1.854591071605682373e-02
-2.178312838077545166e-02
-1.221825927495956421e-01
-1.055792272090911865e-01
-4.679013788700103760e-02
-7.124669849872589111e-02
9.460029006004333496e-02
-2.339014410972595215e-02
-6.199109554290771484e-02
-5.365161597728729248e-02
6.037785112857818604e-02
1.158081591129302979e-01
2.969159185886383057e-02
-1.013396531343460083e-01
-4.085470736026763916e-02
1.230432689189910889e-01
3.383253514766693115e-02
3.931580483913421631e-02
-1.333113014698028564e-02
-1.107973754405975342e-01
-1.920098066329956055e-02
9.834572672843933105e-03
8.449098467826843262e-02
4.888968169689178467e-02
-3.818526864051818848e-02
4.769042134284973145e-02
4.842101037502288818e-02
6.947390735149383545e-02
1.017149984836578369e-01
9.684342145919799805e-02
3.280252218246459961e-02
-1.131933629512786865e-01
5.011624097824096680e-02
1.192938536405563354e-01
-1.196462959051132202e-01
-4.319840669631958008e-02
-1.009788364171981812e-01
1.107881814241409302e-01
-1.222249865531921387e-02
-2.296318113803863525e-02
1.180628091096878052e-01
8.820582926273345947e-02
1.994231343269348145e-02
4.695945978164672852e-02
-9.744186699390411377e-02
8.073450624942779541e-02
-1.141750812530517578e-01
-3.117558360099792480e-02
1.003196239471435547e-01
-4.008397459983825684e-02
-5.077822506427764893e-02
6.025676429271697998e-02
-8.345396816730499268e-02
1.238894015550613403e-01
1.078276336193084717e-01
9.744411706924438477e-02
-1.080831587314605713e-01
1.224273890256881714e-01
5.233742296695709229e-02
-2.681395411491394043e-02
8.671045303344726562e-03
-3.527033329010009766e-02
-8.454683423042297363e-02
-5.831964313983917236e-02
-5.684272944927215576e-02
1.394425332546234131e-02
-1.896375417709350586e-02
6.267458200454711914e-03
-8.131678402423858643e-02
-2.792602777481079102e-02
-5.154582858085632324e-02
6.448554992675781250e-02
1.226889044046401978e-01
8.015631139278411865e-02
-9.295944869518280029e-02
5.019113421440124512e-02
-2.630867063999176025e-02
1.193480044603347778e-01
1.000402569770812988e-01
-1.946815848350524902e-02
1.243412494659423828e-02
-1.114189624786376953e-02
1.391839981079101562e-02
-5.550464987754821777e-02
4.508644342422485352e-04
-1.213659495115280151e-01
3.333836793899536133e-02
1.238669455051422119e-02
-1.214674115180969238e-01
3.396037220954895020e-02
7.918873429298400879e-02
1.139804422855377197e-01
-5.845634639263153076e-02
7.189175486564636230e-02
-8.142100274562835693e-02
-9.902794659137725830e-02
7.904294133186340332e-02
8.273158967494964600e-02
1.066873669624328613e-01
5.711330473423004150e-02
-7.546818256378173828e-02
-3.175094723701477051e-02
1.037221699953079224e-01
-1.078356206417083740e-01
-5.587318539619445801e-02
1.075791269540786743e-01
-4.416953027248382568e-02
-2.859361469745635986e-02
-1.102577447891235352e-01
-4.778067767620086670e-02
-1.239500194787979126e-01
-3.021734952926635742e-02
-3.493745625019073486e-02
8.104000985622406006e-02
4.515878856182098389e-02
-5.768308043479919434e-02
-5.642886459827423096e-02
-7.515522837638854980e-02
1.182207614183425903e-01
-9.748713672161102295e-02
-5.012774467468261719e-02
7.661789655685424805e-02
-6.121665239334106445e-02
1.134810596704483032e-01
4.899814724922180176e-02
-2.785061299800872803e-02
7.129277288913726807e-02
-1.603968441486358643e-02
3.427667915821075439e-02
3.218549489974975586e-02
4.630607366561889648e-02
2.425387501716613770e-02
-1.884780824184417725e-02
9.906117618083953857e-02
1.902110874652862549e-02
-2.879539132118225098e-02
-3.862899541854858398e-02
-1.032055169343948364e-01
8.912897109985351562e-02
-3.406499326229095459e-02
1.244770884513854980e-01
2.265532314777374268e-02
9.514325857162475586e-02
9.831114113330841064e-02
7.227560877799987793e-02
1.036423444747924805e-02
2.777682244777679443e-02
-2.754372358322143555e-02
-1.810090243816375732e-02
2.305833995342254639e-02
6.296320259571075439e-02
1.122360676527023315e-01
9.526108205318450928e-02
-1.053659170866012573e-01
8.360704779624938965e-02
-8.295132219791412354e-02
-6.716646254062652588e-02
-3.821343183517456055e-03
-1.012747734785079956e-01
3.965944051742553711e-03
6.603260338306427002e-02
-8.168989419937133789e-02
1.115785539150238037e-01
-2.713954448699951172e-02
-5.235360562801361084e-02
1.390987634658813477e-02
-1.174451857805252075e-01
-4.023253917694091797e-03
2.216175198554992676e-03
1.899941265583038330e-02
-6.121334433555603027e-02
-9.143303334712982178e-02
7.393345236778259277e-02
-2.752256393432617188e-02
-4.377895593643188477e-02
-5.413012206554412842e-02
1.126574724912643433e-01
-1.205912530422210693e-01
1.185417175292968750e-01
3.424814343452453613e-02
1.074998378753662109e-01
-1.112796217203140259e-01
8.285932242870330811e-02
2.800318598747253418e-02
5.423557758331298828e-02
-2.949951589107513428e-02
2.849836647510528564e-02
7.362759113311767578e-02
-5.181924998760223389e-02
-8.884821832180023193e-02
2.424506843090057373e-02
-8.347187936305999756e-02
8.441656827926635742e-03
2.630829811096191406e-02
-5.922611057758331299e-02
8.439272642135620117e-04
1.148384362459182739e-01
-2.940516173839569092e-02
-9.243419766426086426e-02
1.406864821910858154e-02
7.319673895835876465e-03
4.501329362392425537e-02
-5.759407579898834229e-02
-1.198721230030059814e-01
-4.715280234813690186e-02
-3.028254210948944092e-02
-2.288380265235900879e-02
8.255088329315185547e-02
-2.121780812740325928e-02
1.187707483768463135e-02
7.036834955215454102e-02
1.097553521394729614e-01
-1.103185266256332397e-01
-9.875355660915374756e-02
1.154536455869674683e-01
9.041334688663482666e-02
6.182919442653656006e-02
-7.079006731510162354e-02
-8.874024450778961182e-02
-1.205477863550186157e-01
4.689066112041473389e-02
-5.330051481723785400e-02
9.352037310600280762e-02
-9.749299287796020508e-02
5.932722985744476318e-02
-7.233706116676330566e-02
3.484489023685455322e-02
1.074535101652145386e-01
5.168142914772033691e-02
2.874216437339782715e-02
-3.168752789497375488e-02
-2.070131897926330566e-02
-3.562575578689575195e-02
-1.229638308286666870e-01
6.854750216007232666e-02
8.751900494098663330e-02
1.074604839086532593e-01
9.925389289855957031e-02
1.688574254512786865e-02
5.141030251979827881e-02
8.481305837631225586e-02
6.545396149158477783e-02
-1.210692524909973145e-02
1.105643808841705322e-01
-1.085898429155349731e-01
9.578080475330352783e-02
-8.594170212745666504e-02
5.428980290889739990e-02
-1.010949164628982544e-01
-8.971564471721649170e-02
-9.238041937351226807e-02
5.031988024711608887e-02
-9.600923955440521240e-02
1.645655930042266846e-02
-1.089890450239181519e-01
-2.464494109153747559e-02
1.129674315452575684e-01
-3.347238898277282715e-02
-1.088231503963470459e-01
8.338293433189392090e-02
-1.039226949214935303e-01
-1.129396110773086548e-01
-6.859898567199707031e-03
-8.817444741725921631e-02
-9.119383990764617920e-02
1.170049160718917847e-01
-5.417494475841522217e-02
1.212539523839950562e-01
-7.823863625526428223e-02
-1.161404103040695190e-01
1.228765100240707397e-01
1.175329834222793579e-01
1.042924821376800537e-02
-3.206305205821990967e-02
2.127869427204132080e-02
1.707509160041809082e-03
3.063447773456573486e-02
4.840105772018432617e-02
-9.806811809539794922e-03
1.971681416034698486e-02
-1.123167127370834351e-01
2.146290242671966553e-02
4.443827271461486816e-02
-7.131750881671905518e-02
3.041894733905792236e-02
-2.882973849773406982e-02
8.824193477630615234e-02
7.292851805686950684e-03
1.923581957817077637e-02
-4.026721417903900146e-02
6.505389511585235596e-02
4.265232384204864502e-02
5.260691046714782715e-03
1.228906661272048950e-01
-9.411402046680450439e-02
-1.145651638507843018e-01
-6.652557849884033203e-02
7.802838087081909180e-02
2.040551602840423584e-02
3.584495186805725098e-02
1.051611751317977905e-01
-1.711687445640563965e-02
-8.228646218776702881e-02
8.853796124458312988e-02
-2.617338299751281738e-02
-2.333529293537139893e-02
3.028972446918487549e-02
-1.072082817554473877e-01
8.712613582611083984e-02
-3.877335786819458008e-02
4.696068167686462402e-02
-3.682902455329895020e-02
1.156572401523590088e-01
-3.907781839370727539e-02
1.163858324289321899e-01
-7.100105285644531250e-04
-6.666332483291625977e-03
-1.252780854701995850e-02
-1.030461192131042480e-01
9.188744425773620605e-02
8.691103756427764893e-02
-9.904384613037109375e-02
-3.079712390899658203e-03
-9.008455276489257812e-02
1.077916622161865234e-01
3.297342360019683838e-02
-4.710376262664794922e-02
1.347318291664123535e-03
-1.043005287647247314e-02
-1.003813296556472778e-01
-6.076827645301818848e-02
-4.889403283596038818e-02
-4.810518026351928711e-02
-5.126148462295532227e-04
-8.877539634704589844e-02
1.014461368322372437e-01
-1.090933382511138916e-02
-1.695810258388519287e-02
-4.957777261734008789e-02
9.223863482475280762e-03
-1.187589615583419800e-01
3.298665583133697510e-02
-3.345854580402374268e-02
2.566276490688323975e-02
8.164912462234497070e-02
2.829606831073760986e-02
-8.299091458320617676e-02
1.213871836662292480e-01
1.164019107818603516e-03
3.004562854766845703e-02
-2.427734434604644775e-02
4.536341130733489990e-02
-1.144486069679260254e-01
4.837563633918762207e-02
-9.481102228164672852e-03
-4.203008115291595459e-02
-5.039423704147338867e-03
4.396161437034606934e-02
4.225586354732513428e-02
1.043836325407028198e-01
1.353050768375396729e-02
-1.073147505521774292e-01
3.847707808017730713e-02
2.745330333709716797e-02
3.652243316173553467e-02
-1.102460473775863647e-01
7.513532042503356934e-02
-1.027443557977676392e-01
-1.213470697402954102e-01
7.681719958782196045e-02
-1.071106791496276855e-01
2.888426184654235840e-03
3.927150368690490723e-02
2.186256647109985352e-02
-8.867001533508300781e-02
4.022023081779479980e-02
-5.387757718563079834e-02
-4.970254004001617432e-02
1.481142640113830566e-02
1.695175468921661377e-02
5.727559328079223633e-03
-4.966317117214202881e-02
8.631694316864013672e-02
-7.279306650161743164e-02
-9.891122579574584961e-03
8.845184743404388428e-02
-6.749814748764038086e-02
7.980513572692871094e-02
2.028681337833404541e-02
-9.219390153884887695e-02
-1.165713816881179810e-01
-5.611279606819152832e-02
4.796653985977172852e-03
5.099490284919738770e-03
1.271559298038482666e-02
-4.681408405303955078e-03
8.686228096485137939e-02
5.139902234077453613e-02
-6.071072816848754883e-02
-6.579302251338958740e-02
5.996565520763397217e-02
1.032163202762603760e-01
-1.329661905765533447e-02
1.055677533149719238e-01
1.238446086645126343e-01
-1.231503486633300781e-02
-3.924918174743652344e-02
-7.578030228614807129e-03
1.051062345504760742e-02
-1.139794886112213135e-01
-1.183355450630187988e-01
-6.718456745147705078e-02
3.013972938060760498e-02
6.605367362499237061e-02
9.269513189792633057e-02
-1.153736710548400879e-01
-1.086385846138000488e-01
-1.231817752122879028e-01
-1.092172116041183472e-01
1.125220358371734619e-01
3.412583470344543457e-02
9.556846320629119873e-02
-1.171409934759140015e-01
1.580357551574707031e-02
-1.147876679897308350e-01
1.002597510814666748e-01
-9.921972453594207764e-02
-1.080512553453445435e-01
5.819667875766754150e-02
8.335800468921661377e-02
-4.600042104721069336e-02
-8.868838846683502197e-02
-6.803692877292633057e-02
-9.809568524360656738e-02
-4.761263728141784668e-02
-2.583643794059753418e-02
-2.008232474327087402e-02
1.038013249635696411e-01
-6.196500360965728760e-02
-7.984223961830139160e-02
9.005282819271087646e-02
-6.432999670505523682e-02
8.141955733299255371e-02
5.744826793670654297e-02
-7.471366226673126221e-02
1.225576251745223999e-01
1.135235428810119629e-01
2.437479794025421143e-02
8.937597274780273438e-03
6.804102659225463867e-02
-4.602234065532684326e-02
-5.909383296966552734e-02
-4.124468564987182617e-02
-1.027355939149856567e-01
3.249861299991607666e-02
7.945585250854492188e-02
1.106802225112915039e-01
3.629802167415618896e-02
-9.480860829353332520e-02
-1.001097410917282104e-01
3.029131889343261719e-02
-9.929476678371429443e-02
7.226218283176422119e-02
6.206713616847991943e-02
-1.064575910568237305e-01
8.235667645931243896e-02
-1.180789768695831299e-01
-1.174532622098922729e-01
-7.375818490982055664e-02
-3.336369991302490234e-05
-4.384170472621917725e-02
-6.569258868694305420e-02
1.125212907791137695e-01
-1.201506108045578003e-01
3.685337305068969727e-02
-2.009762823581695557e-02
5.144818127155303955e-02
9.959946572780609131e-02
1.034251004457473755e-01
-1.793344318866729736e-02
2.347418665885925293e-02
-9.869472682476043701e-02
-1.181139051914215088e-02
5.311310291290283203e-02
-8.092984557151794434e-02
-4.343611001968383789e-02
2.385717630386352539e-02
-1.221321523189544678e-01
-7.280994951725006104e-02
1.757711172103881836e-02
4.596355557441711426e-02
4.339979588985443115e-02
-1.441417634487152100e-02
4.836477339267730713e-02
-5.181431770324707031e-02
2.542908489704132080e-02
-1.733027398586273193e-02
5.118680000305175781e-02
4.457861185073852539e-02
4.541261494159698486e-02
6.132341921329498291e-02
8.868078887462615967e-02
-9.522490203380584717e-02
-1.145686954259872437e-01
-1.005792915821075439e-01
2.707183361053466797e-02
-3.183770179748535156e-02
1.121836751699447632e-01
-1.172605603933334351e-01
1.100312620401382446e-01
-1.205656528472900391e-01
7.330121099948883057e-02
3.529721498489379883e-02
-1.223326772451400757e-01
-6.638155877590179443e-02
-2.926984429359436035e-02
-4.684697091579437256e-02
-8.015006780624389648e-02
-1.207139045000076294e-01
1.106161326169967651e-01
-3.060673177242279053e-02
-8.097127079963684082e-03
-4.093690216541290283e-02
-3.649702668190002441e-02
9.201914072036743164e-04
-8.087426424026489258e-03
7.445433735847473145e-02
4.764564335346221924e-02
-5.092917382717132568e-02
4.375781118869781494e-02
-5.244739353656768799e-02
-2.741387486457824707e-02
7.060471177101135254e-02
-9.729878604412078857e-02
-3.770595788955688477e-02
-4.888871312141418457e-02
-6.195338070392608643e-02
-9.384147822856903076e-02
6.604234874248504639e-02
-9.348067641258239746e-02
5.258440971374511719e-02
-3.468009829521179199e-02
2.094808220863342285e-02
-8.647780120372772217e-02
-5.320753157138824463e-02
4.310797154903411865e-02
5.224603414535522461e-02
7.929529249668121338e-02
-3.261353075504302979e-02
-6.312900781631469727e-02
-1.163050234317779541e-01
1.055750697851181030e-01
1.159539073705673218e-01
-1.242000013589859009e-01
6.847277283668518066e-02
-2.973085641860961914e-02
1.067319810390472412e-01
1.171111315488815308e-01
-4.875174164772033691e-02
4.691617190837860107e-02
-7.956165075302124023e-02
-7.100676000118255615e-02
1.196764558553695679e-01
4.361648857593536377e-02
-1.297679543495178223e-02
-5.078850686550140381e-02
7.162311673164367676e-02
-2.015128731727600098e-02
4.857508838176727295e-02
9.608764946460723877e-02
5.184113979339599609e-02
-2.125267684459686279e-02
-1.015733182430267334e-01
4.025489091873168945e-03
-1.117079406976699829e-01
-6.066203117370605469e-03
5.851224064826965332e-02
-2.771183848381042480e-03
-2.169065177440643311e-02
-1.878234744071960449e-02
9.836204349994659424e-02
2.667525410652160645e-02
1.038608103990554810e-01
-5.468273162841796875e-02
8.157640695571899414e-04
7.523667812347412109e-02
6.504982709884643555e-03
-7.536539435386657715e-02
-4.085041582584381104e-02
-1.177961528301239014e-01
9.615029394626617432e-02
5.290716886520385742e-03
-2.631594240665435791e-02
-7.136271893978118896e-02
4.470510780811309814e-02
3.761135041713714600e-02
-1.019489020109176636e-01
2.114215493202209473e-02
-5.486325919628143311e-02
1.022340357303619385e-01
9.550531208515167236e-02
5.410049855709075928e-02
8.425420522689819336e-02
-1.050222665071487427e-01
1.202950924634933472e-01
-4.192890226840972900e-02
7.115714251995086670e-02
-9.117737412452697754e-02
-5.259616672992706299e-02
-7.663100957870483398e-02
1.230780780315399170e-02
-9.936338663101196289e-02
-1.016093492507934570e-01
-1.239641010761260986e-01
1.247493326663970947e-01
1.089560687541961670e-01
-9.992086887359619141e-02
7.972858846187591553e-02
-4.274636507034301758e-02
5.512697994709014893e-02
-4.055643081665039062e-02
1.061234921216964722e-01
1.245238780975341797e-01
4.770171642303466797e-02
-1.319247484207153320e-02
1.241208761930465698e-01
5.323292315006256104e-02
4.455734789371490479e-02
4.847779870033264160e-03
6.677161157131195068e-02
5.324569344520568848e-02
-6.686456501483917236e-02
2.174690365791320801e-02
-7.013556361198425293e-02
1.250098645687103271e-02
-7.090282440185546875e-02
3.006066381931304932e-02
-6.089776754379272461e-02
3.700706362724304199e-02
-6.268742680549621582e-02
-3.179924190044403076e-02
1.119210571050643921e-01
-1.164092570543289185e-01
-1.237309277057647705e-01
1.680533587932586670e-02
-1.223721057176589966e-01
-5.463165044784545898e-02
8.538763225078582764e-02
7.201100885868072510e-02
-8.789205551147460938e-02
-2.175153791904449463e-02
-6.307853758335113525e-02
1.597380638122558594e-02
-4.643772542476654053e-02
1.728972792625427246e-02
-6.778182089328765869e-02
3.799147903919219971e-02
3.198793530464172363e-02
3.643296658992767334e-02
6.914401054382324219e-02
-8.094991743564605713e-02
-5.085976421833038330e-02
-1.027970165014266968e-01
-1.229966133832931519e-01
-7.714346051216125488e-03
-3.572259843349456787e-02
1.233905553817749023e-03
-3.567346930503845215e-02
3.462618589401245117e-02
-2.799698710441589355e-02
9.632048010826110840e-02
-7.375060021877288818e-02
9.374529123306274414e-02
1.019975543022155762e-02
3.520339727401733398e-02
-4.683434963226318359e-03
-4.778322577476501465e-02
2.855560183525085449e-02
1.245158463716506958e-01
1.038387417793273926e-01
-4.702742397785186768e-02
-2.302676439285278320e-02
-5.695085227489471436e-02
-3.991980850696563721e-02
-6.065052747726440430e-02
1.053725481033325195e-01
-4.161375761032104492e-02
8.121161162853240967e-02
1.713237166404724121e-02
-2.781926095485687256e-02
4.874999821186065674e-02
-8.763171732425689697e-02
-1.067129671573638916e-01
9.017811715602874756e-02
-7.876704633235931396e-02
6.851337850093841553e-02
4.841893911361694336e-03
-1.119937598705291748e-01
5.998231470584869385e-02
-8.247031271457672119e-02
3.320769965648651123e-02
7.607926428318023682e-02
2.932648360729217529e-02
-2.603214979171752930e-02
-1.150366514921188354e-01
-7.840374112129211426e-02
-6.111302971839904785e-02
3.685066103935241699e-02
-1.329925656318664551e-02
4.119749367237091064e-02
8.633317053318023682e-02
1.082550436258316040e-01
1.211763471364974976e-01
1.215234249830245972e-01
6.168177723884582520e-02
6.687872111797332764e-02
-4.725939035415649414e-02
-6.376300752162933350e-02
7.031536102294921875e-02
-1.076152622699737549e-01
-1.670123636722564697e-02
-2.531781792640686035e-02
8.003556728363037109e-02
-1.018166095018386841e-01
7.801929116249084473e-02
-1.037019193172454834e-01
1.295575499534606934e-02
1.077756434679031372e-01
1.137503385543823242e-01
9.005354344844818115e-02
4.215605556964874268e-02
-8.515869081020355225e-02
2.428521215915679932e-02
-1.168933808803558350e-01
8.569470047950744629e-02
-1.047243177890777588e-02
2.536858618259429932e-02
5.734248459339141846e-02
-9.445182979106903076e-02
-7.368679344654083252e-02
-1.110485196113586426e-02
1.791760325431823730e-03
1.111116856336593628e-01
2.866658568382263184e-02
-3.626906871795654297e-02
-4.791040718555450439e-02
9.915079176425933838e-02
1.201660335063934326e-01
9.767651557922363281e-03
2.117197215557098389e-02
3.493857383728027344e-02
-1.148572713136672974e-01
2.751626074314117432e-02
8.368898928165435791e-02
9.182821214199066162e-02
1.170334666967391968e-01
8.585005998611450195e-02
-4.768149554729461670e-02
1.157585829496383667e-01
-9.749692678451538086e-02
-9.814116358757019043e-02
-5.589780211448669434e-02
-1.059462875127792358e-01
-3.101067245006561279e-02
-4.780150949954986572e-02
-6.624676287174224854e-02
-5.485281348228454590e-03
1.162030398845672607e-01
-1.075470447540283203e-01
8.847281336784362793e-03
-5.016662180423736572e-02
9.834669530391693115e-02
-4.848791658878326416e-02
-4.748889803886413574e-02
-5.378776788711547852e-02
6.868554651737213135e-02
-9.343607723712921143e-02
-8.582280576229095459e-02
-3.893300890922546387e-03
1.114368438720703125e-01
9.400947391986846924e-02
2.915969491004943848e-02
5.425959825515747070e-04
4.245166480541229248e-02
-8.087940514087677002e-02
-3.113846480846405029e-02
-6.830498576164245605e-03
1.142528951168060303e-01
5.018489062786102295e-02
9.397344291210174561e-02
-1.154395192861557007e-01
-1.248374581336975098e-03
5.694650113582611084e-02
-2.625925838947296143e-02
-4.798129200935363770e-02
-7.139798998832702637e-02
-1.216285228729248047e-01
6.419539451599121094e-02
-1.003929972648620605e-01
1.107888370752334595e-01
5.371698737144470215e-02
-2.000750601291656494e-02
-1.136840432882308960e-01
5.929121375083923340e-02
2.884353697299957275e-02
-3.496628999710083008e-02
-3.058941662311553955e-02
-6.693111360073089600e-02
-9.298954904079437256e-02
7.150705158710479736e-02
-8.058452606201171875e-02
4.920658469200134277e-02
4.075601696968078613e-02
7.754822075366973877e-02
1.115190982818603516e-01
1.173523664474487305e-01
1.057693958282470703e-01
8.445309102535247803e-02
-3.543576598167419434e-02
-4.934385418891906738e-02
-1.019954085350036621e-01
-9.339894354343414307e-02
5.440951883792877197e-02
3.974111378192901611e-02
-8.949254453182220459e-02
9.234189987182617188e-03
7.728409767150878906e-02
-7.574257254600524902e-02
7.475435733795166016e-02
6.518957018852233887e-02
-8.221490681171417236e-02
9.736999869346618652e-02
-1.043821573257446289e-01
-8.898648619651794434e-02
-9.541104733943939209e-02
7.537885010242462158e-02
2.954213321208953857e-02
-1.726375520229339600e-02
7.369662821292877197e-02
2.099262177944183350e-02
6.743669509887695312e-04
5.774214863777160645e-02
8.985885977745056152e-02
4.440337419509887695e-03
-7.723838090896606445e-02
5.858859419822692871e-02
-7.230132818222045898e-03
-4.572987556457519531e-02
6.120827794075012207e-02
-3.544068336486816406e-02
3.386674821376800537e-02
1.196861118078231812e-01
1.060079038143157959e-01
-1.172328591346740723e-01
2.186194062232971191e-02
8.058561384677886963e-02
1.188491284847259521e-02
6.068125367164611816e-02
-6.367067992687225342e-02
6.753534078598022461e-03
7.570223510265350342e-02
-3.196474909782409668e-02
-1.759022474288940430e-03
2.988478541374206543e-02
-1.173415035009384155e-01
-9.068265557289123535e-03
9.319707751274108887e-02
5.759084224700927734e-02
-7.178218662738800049e-02
-2.534455060958862305e-02
4.636496305465698242e-02
1.198692768812179565e-01
-2.013383805751800537e-02
1.076758801937103271e-01
1.017130464315414429e-01
9.394760429859161377e-02
7.547810673713684082e-02
6.985840201377868652e-02
4.393804073333740234e-02
1.177470088005065918e-01
7.907825708389282227e-02
2.954672276973724365e-02
-5.640067160129547119e-02
2.467694878578186035e-02
9.157431125640869141e-02
-3.155077993869781494e-02
-1.021382361650466919e-01
-2.243937551975250244e-02
-1.180812418460845947e-01
-3.726533055305480957e-02
9.669265151023864746e-02
-9.387716650962829590e-02
-2.286925911903381348e-02
-2.837450802326202393e-02
-1.122633665800094604e-01
1.976773142814636230e-03
-3.482018411159515381e-02
7.233755290508270264e-02
1.023164838552474976e-01
-1.205611974000930786e-01
7.680243253707885742e-02
-7.733060419559478760e-02
-9.976516664028167725e-02
-4.307396709918975830e-02
9.731815755367279053e-02
-5.382587015628814697e-02
8.521404862403869629e-02
1.105180531740188599e-01
-4.603520035743713379e-02
-2.631309628486633301e-02
-3.722772002220153809e-02
-4.437135159969329834e-02
-1.114928424358367920e-01
3.292937576770782471e-02
-6.351500749588012695e-03
-3.284560143947601318e-02
1.074303686618804932e-01
-1.041418164968490601e-01
-9.075854718685150146e-02
5.693243443965911865e-02
8.095988631248474121e-02
6.128448247909545898e-02
-2.398663759231567383e-02
7.200381159782409668e-02
6.266519427299499512e-03
-1.739346981048583984e-02
1.061531156301498413e-01
1.190007925033569336e-01
9.997245669364929199e-02
-6.106735765933990479e-02
-8.682452142238616943e-02
-2.291916310787200928e-02
1.127605885267257690e-01
9.408813714981079102e-02
7.480823993682861328e-02
2.945736050605773926e-02
7.484316825866699219e-03
3.039330244064331055e-02
-2.262398600578308105e-03
5.611778795719146729e-02
3.223641216754913330e-02
-9.889619052410125732e-02
-2.267843484878540039e-02
-9.498880803585052490e-02
8.532236516475677490e-02
-6.402914226055145264e-02
3.649753332138061523e-02
-6.769797205924987793e-02
-8.308440446853637695e-03
3.718419373035430908e-02
6.297834217548370361e-02
9.604234993457794189e-02
-6.964583694934844971e-02
6.428906321525573730e-02
1.197295039892196655e-01
8.237099647521972656e-02
-8.034035563468933105e-03
9.051018953323364258e-02
-7.504811882972717285e-02
-8.627970516681671143e-02
6.315618753433227539e-02
5.757422745227813721e-02
2.710865437984466553e-02
6.492966413497924805e-02
-5.177345871925354004e-02
2.529945969581604004e-02
1.218964010477066040e-01
-6.386719644069671631e-02
-7.513855397701263428e-02
3.009214997291564941e-02
3.072749078273773193e-02
3.674495220184326172e-02
7.361054420471191406e-03
1.451462507247924805e-03
-5.380600690841674805e-03
-1.943475008010864258e-02
2.209536731243133545e-02
3.089785575866699219e-03
5.585393309593200684e-02
-6.652066111564636230e-02
-2.315008640289306641e-02
-2.197718620300292969e-02
-6.245864927768707275e-02
7.314907014369964600e-02
8.303552865982055664e-03
-1.544469594955444336e-02
-7.347892224788665771e-02
1.150126457214355469e-01
-2.822753787040710449e-02
9.032504260540008545e-02
-9.484578669071197510e-02
-1.154651641845703125e-01
8.033694326877593994e-02
-1.228427439928054810e-01
-6.438529491424560547e-02
6.187807023525238037e-02
2.547819912433624268e-02
-8.362880349159240723e-02
-7.938244938850402832e-02
4.620280861854553223e-02
1.400254666805267334e-02
1.017057746648788452e-01
6.357938051223754883e-03
3.014183044433593750e-02
8.927328884601593018e-02
1.140158474445343018e-01
8.410662412643432617e-03
6.913059949874877930e-02
-1.207957863807678223e-01
2.496692538261413574e-02
-1.209091097116470337e-01
1.002991050481796265e-01
-1.121066808700561523e-01
-3.679467737674713135e-02
8.759893476963043213e-02
6.090310215950012207e-02
-7.839453220367431641e-02
8.288092911243438721e-02
8.840507268905639648e-02
3.873299062252044678e-02
8.528412878513336182e-02
-5.836068093776702881e-02
1.217336952686309814e-01
-6.754413247108459473e-02
-2.912111580371856689e-02
-4.729586839675903320e-02
1.169696450233459473e-01
-1.137335449457168579e-01
-4.628561437129974365e-02
-2.540607750415802002e-02
-1.160563528537750244e-01
4.069958627223968506e-02
-9.245653450489044189e-02
7.004824280738830566e-02
-4.747800529003143311e-02
1.271970570087432861e-02
-2.791970968246459961e-02
1.081255227327346802e-01
5.466502904891967773e-02
-6.506364047527313232e-02
1.186913549900054932e-01
-1.222505271434783936e-01
4.840201139450073242e-02
-7.683271169662475586e-02
9.224207699298858643e-02
6.912736594676971436e-02
-8.644248545169830322e-02
7.601802051067352295e-02
1.144741475582122803e-02
-1.096145659685134888e-01
-5.520276725292205811e-02
-1.180277764797210693e-02
-7.473380863666534424e-02
2.071639895439147949e-02
-8.014620840549468994e-02
9.363205730915069580e-02
1.104183942079544067e-01
-3.932438790798187256e-02
7.631219923496246338e-02
-7.085445523262023926e-02
8.568514883518218994e-02
-9.044986963272094727e-02
-1.190709620714187622e-01
9.437252581119537354e-02
1.866206526756286621e-02
2.937227487564086914e-02
-1.237720102071762085e-01
8.250482380390167236e-02
-5.079017579555511475e-02
-7.354906201362609863e-02
9.429341554641723633e-02
1.172229945659637451e-01
-2.615839242935180664e-03
-2.461759746074676514e-02
-4.839746654033660889e-02
-5.127209424972534180e-02
-6.554469466209411621e-03
7.272526621818542480e-03
9.442977607250213623e-02
-1.120131164789199829e-01
-6.087021529674530029e-02
-6.806433200836181641e-02
8.839555084705352783e-02
-2.183967828750610352e-02
-1.168007552623748779e-01
-1.209997981786727905e-01
-5.579780042171478271e-02
1.223836988210678101e-01
-5.699627101421356201e-02
-1.099658757448196411e-01
4.970102012157440186e-02
9.111058712005615234e-02
-9.692281484603881836e-03
-7.303400337696075439e-02
-7.908412814140319824e-02
6.891787052154541016e-04
3.302089869976043701e-02
-1.758666336536407471e-02
-1.527857780456542969e-02
3.535968065261840820e-02
-2.490106225013732910e-02
8.598895370960235596e-02
7.662931084632873535e-02
-5.590029060840606689e-02
2.397291362285614014e-02
1.190093159675598145e-02
-8.804486691951751709e-02
1.244372725486755371e-01
-1.249863356351852417e-01
-1.126948893070220947e-01
-6.377008557319641113e-02
2.657787501811981201e-02
-6.392706930637359619e-02
-9.809523820877075195e-03
6.902052462100982666e-02
-5.942219495773315430e-02
-2.066449820995330811e-02
-8.252015709877014160e-02
2.107754349708557129e-03
-5.136722326278686523e-02
-8.750051259994506836e-03
4.467533528804779053e-02
-1.019133776426315308e-01
-1.034916490316390991e-01
-1.114517152309417725e-01
9.494435787200927734e-02
-5.504642426967620850e-02
5.968204140663146973e-02
-1.178502887487411499e-01
-2.229851484298706055e-02
5.406296253204345703e-02
-1.053927093744277954e-01
1.136064529418945312e-03
5.621950328350067139e-02
-5.257560312747955322e-02
-5.532933771610260010e-02
1.034127473831176758e-01
1.029543429613113403e-01
-5.323408544063568115e-02
-6.106363236904144287e-02
1.222203075885772705e-01
-1.184518486261367798e-01
5.063587427139282227e-02
9.639640152454376221e-02
-5.417042970657348633e-02
-1.272714138031005859e-02
5.033510923385620117e-02
8.501940965652465820e-02
-7.287825644016265869e-02
-1.143887639045715332e-02
3.986108303070068359e-02
-8.090046048164367676e-02
-1.147852092981338501e-01
-9.786635637283325195e-02
-6.148363649845123291e-02
9.473724663257598877e-02
2.908745408058166504e-02
3.815944492816925049e-02
-7.064108550548553467e-02
7.578247785568237305e-02
-8.550548553466796875e-02
-6.745757162570953369e-02
7.291406393051147461e-02
-7.383877038955688477e-02
-5.898936092853546143e-02
-2.261890470981597900e-02
1.120418459177017212e-01
-5.205971002578735352e-02
8.061024546623229980e-02
2.768033742904663086e-02
-2.696886658668518066e-03
1.229908764362335205e-01
-1.616191864013671875e-02
7.850523293018341064e-02
3.740052878856658936e-02
-9.903970360755920410e-02
7.755821943283081055e-02
4.434630274772644043e-02
3.657785058021545410e-02
6.922017037868499756e-02
-8.255495131015777588e-02
-4.180262982845306396e-02
-4.481239616870880127e-02
-1.110477447509765625e-01
6.297841668128967285e-03
7.234479486942291260e-02
-2.627004683017730713e-02
-2.411685883998870850e-02
1.035854518413543701e-01
5.476090312004089355e-02
-1.094794571399688721e-01
2.012923359870910645e-02
-6.278344988822937012e-02
5.257776379585266113e-02
2.972991764545440674e-02
-1.135157942771911621e-01
8.591398596763610840e-02
6.823073327541351318e-02
8.443252742290496826e-02
-9.520539641380310059e-02
1.112093180418014526e-01
-1.062450408935546875e-01
6.155887246131896973e-02
5.582463741302490234e-02
7.518099248409271240e-02
5.390639603137969971e-02
-9.808537364006042480e-02
-1.095712184906005859e-01
1.746869087219238281e-02
9.028239548206329346e-02
7.467585802078247070e-02
9.026178717613220215e-02
-3.591927886009216309e-02
-5.897779762744903564e-02
6.690955162048339844e-02
5.791950225830078125e-02
2.865816652774810791e-02
2.559325098991394043e-02
-1.117573678493499756e-01
9.170413017272949219e-03
4.882514476776123047e-04
-1.621766388416290283e-02
7.806967198848724365e-02
-1.179197579622268677e-01
-4.370696842670440674e-02
1.065284758806228638e-01
5.700078606605529785e-02
-3.756737709045410156e-02
-6.701733171939849854e-02
-5.213111639022827148e-03
4.506133496761322021e-02
1.166035085916519165e-01
-1.166705340147018433e-01
-3.663687407970428467e-02
-1.113286018371582031e-01
6.201271712779998779e-02
-1.845064759254455566e-02
6.869092583656311035e-02
-6.555503606796264648e-02
-1.032247543334960938e-01
-3.219628334045410156e-02
-9.026020765304565430e-02
-4.982618987560272217e-02
-2.426828444004058838e-02
-4.809930920600891113e-03
1.027242392301559448e-01
-8.002175390720367432e-02
-5.034267902374267578e-02
-1.199740916490554810e-01
1.659423112869262695e-03
-7.305243611335754395e-02
6.096620857715606689e-02
-3.201188147068023682e-02
-3.119085729122161865e-02
1.222558319568634033e-01
8.862593770027160645e-02
-2.271027863025665283e-02
-6.354179978370666504e-02
7.824456691741943359e-02
6.388798356056213379e-03
1.977446675300598145e-02
1.522058248519897461e-02
1.364171504974365234e-02
-7.062202692031860352e-02
1.235794425010681152e-01
1.237589716911315918e-01
3.395350277423858643e-02
2.846616506576538086e-02
-1.966471970081329346e-02
-1.061629354953765869e-01
-3.027920424938201904e-02
3.837952017784118652e-02
1.064639687538146973e-01
6.559361517429351807e-02
-4.030388593673706055e-02
-8.635894954204559326e-02
8.210563659667968750e-02
6.221708655357360840e-02
2.426895499229431152e-02
9.343239665031433105e-02
1.050837039947509766e-01
-6.663911044597625732e-02
3.291037678718566895e-02
3.365029394626617432e-02
-3.429323434829711914e-03
1.615746319293975830e-02
1.046513319015502930e-01
-8.004032075405120850e-02
5.242000520229339600e-02
-8.541920781135559082e-02
-2.416554093360900879e-02
-5.299623310565948486e-02
-9.597162902355194092e-02
-8.190715312957763672e-02
-7.074277102947235107e-02
-5.623909831047058105e-02
3.044785559177398682e-02
-1.626636087894439697e-02
1.126231551170349121e-01
-2.237659692764282227e-02
1.099576950073242188e-01
-2.415539324283599854e-02
3.966093063354492188e-04
1.160082519054412842e-01
2.449615299701690674e-02
2.999238669872283936e-02
3.396008908748626709e-02
4.169209301471710205e-02
7.034172117710113525e-02
9.630247950553894043e-03
-1.229828298091888428e-01
-4.419742524623870850e-02
2.351748943328857422e-02
-4.253949224948883057e-02
-1.017592996358871460e-01
-8.013014495372772217e-02
7.078072428703308105e-02
-8.880282938480377197e-02
7.827502489089965820e-02
5.790367722511291504e-02
-9.866349399089813232e-02
9.307403862476348877e-02
8.162474632263183594e-02
-1.149594187736511230e-01
-1.552116870880126953e-02
-1.539352536201477051e-02
-7.460553944110870361e-02
-3.787490725517272949e-02
1.623392105102539062e-03
9.430162608623504639e-02
-7.062150537967681885e-02
5.573078989982604980e-02
1.037847697734832764e-01
1.067969202995300293e-01
6.173382699489593506e-02
-1.133778691291809082e-02
-4.045173525810241699e-02
1.038127839565277100e-01
-8.866038918495178223e-02
1.095721870660781860e-01
1.017487198114395142e-01
-3.680291771888732910e-02
-1.122351288795471191e-01
1.143596917390823364e-01
1.192094832658767700e-01
3.034625947475433350e-02
3.325858712196350098e-02
4.071602225303649902e-02
1.072060763835906982e-01
-1.243779808282852173e-01
5.549901723861694336e-02
-9.352326393127441406e-02
6.464996933937072754e-02
1.679523289203643799e-02
-2.625539898872375488e-03
-8.129523694515228271e-02
-2.693369984626770020e-02
1.223645210266113281e-01
6.266832351684570312e-04
1.052246391773223877e-01
-9.821487963199615479e-02
1.434165239334106445e-02
2.986963093280792236e-02
3.723171353340148926e-02
-5.834044516086578369e-02
1.009663641452789307e-01
-5.138291418552398682e-02
-4.969058930873870850e-02
-5.652248859405517578e-03
6.671711802482604980e-02
7.428407669067382812e-03
-1.982729136943817139e-02
9.354852139949798584e-02
1.856550574302673340e-03
4.425333440303802490e-02
8.058799803256988525e-02
-5.381087958812713623e-02
1.201746165752410889e-01
-2.856582403182983398e-03
-1.073208153247833252e-01
-3.128257393836975098e-02
8.787752687931060791e-02
-4.927971959114074707e-02
3.641016781330108643e-02
-8.664892613887786865e-02
-5.892355740070343018e-02
-4.426915943622589111e-02
5.319890379905700684e-02
-5.000750720500946045e-02
7.743735611438751221e-02
-9.297765791416168213e-02
5.831415951251983643e-02
-6.721940636634826660e-02
8.202160894870758057e-02
-5.025221407413482666e-02
-6.819662451744079590e-02
3.905460238456726074e-03
8.497974276542663574e-02
1.839123666286468506e-02
7.397532463073730469e-03
-4.887402057647705078e-02
-2.716986835002899170e-02
5.216847360134124756e-02
1.009507775306701660e-01
3.759442269802093506e-02
1.025722920894622803e-01
6.008917093276977539e-02
8.234244585037231445e-02
5.829036235809326172e-03
-5.987295508384704590e-02
-1.029372215270996094e-02
-6.308114528656005859e-02
6.658811867237091064e-02
2.547323703765869141e-03
-1.008708178997039795e-01
-2.339266240596771240e-02
1.097664535045623779e-01
8.094619214534759521e-02
-4.854059219360351562e-02
-8.805245161056518555e-03
6.534492969512939453e-02
-1.010212898254394531e-01
4.385076463222503662e-02
4.602356255054473877e-02
1.213526427745819092e-01
-5.371694266796112061e-02
3.073158860206604004e-02
-1.029748767614364624e-01
8.490593731403350830e-02
1.160420030355453491e-01
-6.780655682086944580e-02
-1.030665934085845947e-01
-4.958827793598175049e-02
-1.772494614124298096e-02
-1.135642230510711670e-01
8.826416730880737305e-02
-8.149147033691406250e-04
-2.334047853946685791e-02
-5.581866204738616943e-02
6.648752093315124512e-02
-4.011717438697814941e-02
-8.505013585090637207e-02
-3.651286661624908447e-02
-2.195703983306884766e-02
6.964966654777526855e-02
7.581980526447296143e-02
-7.382825016975402832e-02
-1.119415760040283203e-01
-7.134163379669189453e-02
-1.018474102020263672e-01
-7.285039126873016357e-02
-2.095633745193481445e-02
-1.116138100624084473e-01
-7.079809904098510742e-03
-1.134672164916992188e-01
-3.287030756473541260e-02
9.293940663337707520e-02
1.227990984916687012e-01
5.412702262401580811e-02
-1.015919297933578491e-01
6.007507443428039551e-03
-3.917051851749420166e-02
-5.941690504550933838e-02
2.163852751255035400e-02
-3.903447091579437256e-02
-8.318310976028442383e-02
-6.735041737556457520e-03
4.394815862178802490e-02
-3.991156816482543945e-03
9.523391723632812500e-03
4.387253522872924805e-02
-1.004455089569091797e-01
1.056880801916122437e-01
-5.544745922088623047e-02
-6.717868149280548096e-02
-2.500419318675994873e-02
1.116787046194076538e-01
9.405283629894256592e-02
5.659753084182739258e-02
5.707763135433197021e-02
-9.562568366527557373e-02
-6.141692399978637695e-02
-9.627479314804077148e-02
2.023765444755554199e-02
1.311084628105163574e-02
7.962325215339660645e-02
-1.114640831947326660e-01
6.317196786403656006e-02
9.743911027908325195e-02
2.638092637062072754e-02
-7.700140774250030518e-02
-1.512819528579711914e-02
-2.252601087093353271e-02
-9.676894545555114746e-02
8.157190680503845215e-02
-8.218115568161010742e-02
2.978916466236114502e-02
2.758091688156127930e-02
7.082194089889526367e-03
-3.380605578422546387e-02
-9.487231075763702393e-02
3.871519863605499268e-02
-3.268927335739135742e-02
1.715119183063507080e-02
-6.987698376178741455e-02
-8.979073166847229004e-02
-1.168680489063262939e-01
9.099343419075012207e-02
8.955185115337371826e-02
5.467267334461212158e-02
2.734802663326263428e-02
-2.908514440059661865e-02
8.958722651004791260e-02
-4.016748070716857910e-02
2.863514423370361328e-02
-2.640409767627716064e-02
-1.169341802597045898e-02
-5.349241197109222412e-02
-5.614483356475830078e-02
2.267542481422424316e-02
-1.050473749637603760e-02
-2.559132874011993408e-02
2.991166710853576660e-02
3.575006127357482910e-02
1.116778552532196045e-01
7.026940584182739258e-02
-3.423537313938140869e-02
-8.413423597812652588e-02
-1.113038361072540283e-01
9.781834483146667480e-02
-9.623420238494873047e-02
-4.191891849040985107e-02
1.191626489162445068e-02
7.402932643890380859e-02
6.982883810997009277e-02
-7.457487285137176514e-02
7.194313406944274902e-02
-1.645594835281372070e-02
-8.506102859973907471e-02
-6.823559105396270752e-02
-1.032408028841018677e-01
-4.272395372390747070e-02
1.595784723758697510e-02
-5.201251804828643799e-02
1.016735434532165527e-01
-3.980442881584167480e-03
1.155064254999160767e-01
-6.812164187431335449e-02
-6.500878930091857910e-02
-1.565684378147125244e-02
7.192356884479522705e-02
9.959301352500915527e-02
-6.962834298610687256e-02
9.611329436302185059e-02
1.235494017601013184e-01
-7.922899723052978516e-02
1.113083362579345703e-01
7.969984412193298340e-02
-1.095293462276458740e-01
-9.118317067623138428e-02
-9.734646975994110107e-02
4.301322996616363525e-02
9.813193976879119873e-02
-2.188576757907867432e-02
-2.922882139682769775e-02
7.656194269657135010e-02
1.364952325820922852e-02
-3.841254115104675293e-02
-8.777788281440734863e-02
-8.909700810909271240e-02
9.440350532531738281e-02
1.048896163702011108e-01
-1.032693982124328613e-01
-2.292224764823913574e-02
-7.586392760276794434e-02
-3.883855044841766357e-02
-4.235056042671203613e-02
2.664655447006225586e-02
1.776967942714691162e-02
-5.736109614372253418e-02
9.720820188522338867e-02
6.235000491142272949e-02
9.787486493587493896e-02
2.774901688098907471e-02
2.918677031993865967e-02
6.164200603961944580e-02
8.770436048507690430e-03
2.302961051464080811e-02
-3.350692987442016602e-02
-3.774894773960113525e-02
5.250647664070129395e-03
-3.538882732391357422e-02
8.391003310680389404e-02
1.010682731866836548e-01
5.656376481056213379e-03
-9.380698204040527344e-03
-3.442837297916412354e-02
-5.852274596691131592e-02
-2.761758863925933838e-02
7.742279767990112305e-02
9.393337368965148926e-02
9.063349664211273193e-02
-9.265303611755371094e-03
5.822326242923736572e-02
-1.037331074476242065e-01
-6.523758172988891602e-03
-5.880947411060333252e-02
8.499188721179962158e-02
1.095964163541793823e-01
5.977925658226013184e-02
1.689425110816955566e-02
-5.095000565052032471e-02
7.847069203853607178e-02
1.050564199686050415e-01
-1.050657033920288086e-01
9.174542129039764404e-02
-5.956302583217620850e-02
-8.402143418788909912e-02
-8.872851729393005371e-02
7.200692594051361084e-02
9.464140236377716064e-02
-1.166917383670806885e-02
-1.781941950321197510e-02
8.146317303180694580e-02
-2.993781864643096924e-02
4.992556571960449219e-02
-1.176245957612991333e-01
-2.572751045227050781e-02
1.050775200128555298e-01
4.913142323493957520e-02
2.374926209449768066e-02
-6.351925432682037354e-02
-1.163854897022247314e-01
8.872327208518981934e-02
1.217186748981475830e-01
4.067625105381011963e-02
7.854524254798889160e-02
7.477298378944396973e-03
-5.271707475185394287e-02
7.344941794872283936e-02
1.407772302627563477e-02
-4.364709556102752686e-02
-4.689282178878784180e-02
-1.170033812522888184e-01
3.777380287647247314e-02
1.134099960327148438e-01
-7.894155383110046387e-02
8.626547455787658691e-02
-8.136790990829467773e-02
-8.987814188003540039e-03
1.563534140586853027e-03
7.351997494697570801e-02
-1.238040626049041748e-02
-6.019622087478637695e-03
3.553591668605804443e-02
2.538889646530151367e-02
-4.615217447280883789e-03
2.405194938182830811e-02
-4.335835576057434082e-02
-1.217617690563201904e-01
5.735592544078826904e-02
1.988781988620758057e-02
-1.186335682868957520e-01
7.882700860500335693e-02
-6.214174628257751465e-02
-7.953657209873199463e-02
6.589949131011962891e-03
8.902123570442199707e-02
-6.347632408142089844e-02
4.862010478973388672e-03
-1.586721837520599365e-02
3.405244648456573486e-02
4.539720714092254639e-02
-1.211883127689361572e-02
-4.927442967891693115e-02
-1.152782440185546875e-01
2.431675791740417480e-03
-9.030300378799438477e-02
2.773062884807586670e-02
2.184383571147918701e-02
4.037076234817504883e-02
8.959084749221801758e-02
2.756589651107788086e-02
-4.670968651771545410e-02
3.714337944984436035e-03
-1.108845472335815430e-01
-6.376510858535766602e-02
8.699166774749755859e-02
4.365645349025726318e-02
-2.706165611743927002e-02
2.265244722366333008e-02
-8.573362231254577637e-02
7.842881977558135986e-02
1.800757646560668945e-02
7.002027332782745361e-02
6.449654698371887207e-03
-5.641582608222961426e-02
1.102425307035446167e-01
-1.473380625247955322e-02
-8.536610007286071777e-02
6.904694437980651855e-02
-9.772619605064392090e-02
-2.358721196651458740e-02
5.230371654033660889e-02
-7.334426045417785645e-03
-6.519296765327453613e-02
-3.917795419692993164e-02
-4.736037552356719971e-02
6.928226351737976074e-02
-1.177837699651718140e-01
-2.278253436088562012e-02
-1.197835952043533325e-01
9.804470837116241455e-02
3.114244341850280762e-02
3.848947584629058838e-02
2.865444123744964600e-02
1.002715080976486206e-01
-5.177447199821472168e-02
5.383923649787902832e-03
-1.205952316522598267e-01
-5.591166019439697266e-02
-1.079910397529602051e-01
9.055265784263610840e-02
-3.964027762413024902e-02
8.074156939983367920e-02
-1.077123880386352539e-01
1.155371069908142090e-01
-5.927017331123352051e-02
-2.122528851032257080e-02
2.591493725776672363e-02
7.496197521686553955e-02
-1.077040135860443115e-01
-1.861196756362915039e-02
-6.871323287487030029e-02
1.321880519390106201e-02
6.420552730560302734e-02
-3.414732217788696289e-02
-8.219082653522491455e-02
4.326714575290679932e-02
4.690758883953094482e-02
-5.490709841251373291e-02
8.833838999271392822e-02
-1.024381369352340698e-01
2.543368935585021973e-02
-9.589295089244842529e-02
-3.953245282173156738e-02
-9.011238813400268555e-03
-1.108301579952239990e-01
-9.698137640953063965e-03
-3.960916399955749512e-02
-6.166757643222808838e-02
-1.017987579107284546e-01
8.756750822067260742e-02
-2.343249320983886719e-02
-4.036904871463775635e-02
9.605155885219573975e-02
-7.237395644187927246e-02
1.156743019819259644e-01
1.066160798072814941e-01
-6.070303916931152344e-02
-1.550167798995971680e-03
-7.952728867530822754e-02
-1.176835447549819946e-01
4.662811756134033203e-03
-5.150675773620605469e-02
9.109289944171905518e-02
-4.162658751010894775e-02
5.171345174312591553e-02
-4.521408677101135254e-02
2.727341651916503906e-02
2.155080437660217285e-02
1.222447603940963745e-01
-1.017166674137115479e-01
-9.681910276412963867e-03
3.472483158111572266e-02
-9.431277215480804443e-02
-1.104901880025863647e-01
-8.138461410999298096e-02
-2.678900957107543945e-02
8.992929756641387939e-02
-1.243425905704498291e-02
4.666452109813690186e-02
-7.554538547992706299e-02
7.658937573432922363e-02
-2.829505503177642822e-02
1.061085015535354614e-01
1.093395203351974487e-01
5.164790153503417969e-02
3.607380390167236328e-02
5.574679374694824219e-02
-7.201278209686279297e-02
-1.215131282806396484e-01
4.039502143859863281e-02
4.151882231235504150e-02
-7.747738063335418701e-02
6.162101030349731445e-02
9.406076371669769287e-02
4.001080989837646484e-03
-1.416373252868652344e-02
1.064357161521911621e-01
-1.071735769510269165e-01
9.217321872711181641e-02
-4.592713713645935059e-02
-3.383249044418334961e-03
1.199499964714050293e-01
1.128560900688171387e-01
-1.040467321872711182e-01
2.147623896598815918e-02
1.688878238201141357e-02
-8.753253519535064697e-02
-6.215152144432067871e-02
-9.989975392818450928e-02
-2.716207504272460938e-02
-3.647178411483764648e-02
2.857412397861480713e-02
9.846417605876922607e-02
7.616907358169555664e-03
1.086869686841964722e-01
-5.287317931652069092e-02
-1.138436198234558105e-01
-1.568058133125305176e-02
1.465778052806854248e-02
-5.033025145530700684e-02
4.287703335285186768e-02
1.120972931385040283e-01
-1.134472489356994629e-01
7.170537114143371582e-02
6.309826672077178955e-02
-2.414269745349884033e-02
-5.667348206043243408e-02
-7.950069010257720947e-02
7.526792585849761963e-02
9.123069047927856445e-02
1.078689843416213989e-01
