9.753033518791198730e-02
8.455911278724670410e-02
6.943897902965545654e-02
6.897415965795516968e-03
1.445930153131484985e-01
1.863008737564086914e-02
4.765303805470466614e-02
-9.104334563016891479e-02
-1.359840184450149536e-01
-1.451173126697540283e-01
1.937667652964591980e-02
8.380940556526184082e-02
1.678875684738159180e-01
-8.914182335138320923e-02
1.327738165855407715e-01
-1.118475571274757385e-01
4.567618295550346375e-02
-1.298002302646636963e-01
2.298699691891670227e-02
1.761208474636077881e-01
-1.484081149101257324e-02
1.239972710609436035e-01
2.733383327722549438e-02
-7.160005718469619751e-02
6.663522217422723770e-03
1.414152085781097412e-01
-1.029742322862148285e-02
-6.007622182369232178e-02
-2.529590576887130737e-02
-4.446505010128021240e-02
7.507645338773727417e-02
7.353451102972030640e-02
1.697078049182891846e-01
4.826730862259864807e-02
-3.250398486852645874e-02
-4.934750869870185852e-02
8.780808746814727783e-02
-1.403148621320724487e-01
-2.050155401229858398e-02
1.536496430635452271e-01
-1.043904274702072144e-01
1.211384311318397522e-01
-7.356002926826477051e-02
6.465918570756912231e-02
1.545883119106292725e-01
1.235643401741981506e-01
4.195893555879592896e-02
1.604494452476501465e-01
-1.140615269541740417e-01
4.907155409455299377e-02
1.565056592226028442e-01
1.015087664127349854e-01
7.342484593391418457e-02
-9.215699136257171631e-02
1.250348836183547974e-01
-9.992604702711105347e-02
-1.126014813780784607e-01
1.095348130911588669e-02
-2.972339093685150146e-02
-1.266023069620132446e-01
-1.009225193411111832e-02
1.590938121080398560e-02
1.360625773668289185e-01
-6.214921548962593079e-02
2.677302621304988861e-02
-6.789768487215042114e-02
6.075805053114891052e-03
5.189575254917144775e-02
9.104340523481369019e-02
-1.357510983943939209e-01
-6.447477266192436218e-03
1.522021144628524780e-01
-7.274331152439117432e-02
-1.033006384968757629e-01
1.662851423025131226e-01
1.281561255455017090e-01
1.640593446791172028e-02
1.170378103852272034e-01
9.523535519838333130e-02
-9.608551859855651855e-02
1.347186043858528137e-02
1.507175266742706299e-01
1.518583595752716064e-01
1.036770120263099670e-01
-1.548102349042892456e-01
-7.868415862321853638e-02
-1.518913656473159790e-01
-1.631359457969665527e-01
-1.105117350816726685e-01
-1.416951697319746017e-02
1.292476952075958252e-01
-1.419053822755813599e-01
-1.005424037575721741e-01
-4.731578007340431213e-02
-5.060949176549911499e-02
5.392571166157722473e-02
-1.602270603179931641e-01
1.076708436012268066e-01
4.233554005622863770e-02
-1.196626350283622742e-01
-1.682897508144378662e-01
-1.437098979949951172e-01
1.030431408435106277e-02
-6.756582297384738922e-03
1.061701849102973938e-01
1.392090767621994019e-01
-9.212188422679901123e-02
-7.965017110109329224e-03
-1.071629747748374939e-01
2.836921252310276031e-02
3.422136604785919189e-02
5.696949362754821777e-02
-3.953755646944046021e-02
1.639755964279174805e-01
-8.313107490539550781e-02
-6.002844870090484619e-02
1.368463486433029175e-01
1.357304900884628296e-01
3.809253126382827759e-02
-1.441275924444198608e-01
9.052468836307525635e-02
1.374831199645996094e-01
7.081007957458496094e-02
1.116139367222785950e-01
6.042467057704925537e-02
-1.730843931436538696e-01
1.576405763626098633e-01
1.056145224720239639e-02
1.261946856975555420e-01
-5.680410936474800110e-02
-2.193572744727134705e-02
7.236198335886001587e-02
-1.661118716001510620e-01
-4.790179058909416199e-02
1.531915962696075439e-01
-1.418649554252624512e-01
5.785131081938743591e-02
1.940013095736503601e-02
1.155084967613220215e-01
1.462107300758361816e-01
-7.653888780623674393e-03
-8.129534870386123657e-02
1.506647318601608276e-01
1.037613451480865479e-01
-1.155872046947479248e-01
2.098582126200199127e-02
-7.267212495207786560e-03
1.639578193426132202e-01
-8.032293617725372314e-02
6.906644254922866821e-02
-8.321385085582733154e-02
-1.109654232859611511e-01
-1.015269905328750610e-01
7.795441150665283203e-02
1.100602522492408752e-01
8.529932238161563873e-03
-1.713288575410842896e-01
-1.830840110778808594e-02
-3.944928199052810669e-02
-1.160477846860885620e-01
1.618333533406257629e-02
-5.872994661331176758e-03
1.426472216844558716e-01
-1.526907533407211304e-01
-1.356832385063171387e-01
1.561394482851028442e-01
2.368640154600143433e-02
-5.704518780112266541e-02
-6.812481582164764404e-02
4.306012764573097229e-02
-1.695094108581542969e-01
-7.180444896221160889e-02
-8.501489460468292236e-02
3.748117014765739441e-02
1.061762571334838867e-01
-1.373974233865737915e-01
-5.640923604369163513e-02
-8.850241452455520630e-02
-8.906773477792739868e-02
4.633226245641708374e-02
-4.810382053256034851e-02
-1.004458442330360413e-01
-1.795124821364879608e-02
1.689791083335876465e-01
1.287258714437484741e-01
1.671443432569503784e-01
6.924151629209518433e-02
1.745961457490921021e-01
1.085167080163955688e-01
8.625280857086181641e-02
-1.066222339868545532e-01
-1.188459321856498718e-01
3.508134977892041206e-03
-6.733654439449310303e-02
-1.382217407226562500e-01
-9.329744428396224976e-02
5.529320985078811646e-02
6.910542398691177368e-02
-1.118425577878952026e-01
-4.727491736412048340e-02
1.216986253857612610e-01
1.606683731079101562e-01
-5.559854209423065186e-02
-8.141506463289260864e-02
1.288138478994369507e-01
4.726979823317378759e-04
1.264958828687667847e-01
9.047078341245651245e-02
-1.358864754438400269e-01
1.717995554208755493e-01
6.343284249305725098e-02
1.044459789991378784e-01
-1.081367358565330505e-01
5.353652685880661011e-02
5.791788175702095032e-02
3.537568449974060059e-02
6.175859645009040833e-02
1.428023874759674072e-01
1.854697242379188538e-02
3.615143895149230957e-02
1.639539599418640137e-01
-2.056740969419479370e-02
-7.655199617147445679e-02
-1.726621836423873901e-01
-1.683955788612365723e-01
-1.676853448152542114e-01
8.616200089454650879e-02
-9.293182194232940674e-02
-1.529077142477035522e-01
-2.096023783087730408e-02
-6.358896940946578979e-02
2.919996855780482292e-03
-1.098195537924766541e-01
-9.832147508859634399e-02
-1.541235893964767456e-01
-6.528317183256149292e-02
8.188921958208084106e-03
1.615037024021148682e-01
-2.381006069481372833e-02
-2.366971224546432495e-02
-9.357371181249618530e-02
1.319291163235902786e-02
-1.712951511144638062e-01
-3.997059538960456848e-02
-6.587366759777069092e-02
8.911973983049392700e-02
7.829383760690689087e-02
-1.599158197641372681e-01
6.037074327468872070e-02
-1.159230098128318787e-01
9.594717621803283691e-02
-1.647415161132812500e-01
2.859943918883800507e-02
-8.704710751771926880e-02
1.100028492510318756e-02
-9.888561069965362549e-02
-3.973166644573211670e-02
2.850315533578395844e-02
-1.126852259039878845e-01
8.554071187973022461e-02
-1.349415481090545654e-01
3.638263419270515442e-02
8.636023849248886108e-02
-1.602748036384582520e-01
-1.440178453922271729e-01
-2.790559642016887665e-02
-7.929781824350357056e-02
-1.658533066511154175e-01
3.721528872847557068e-02
2.619702741503715515e-02
-1.463526338338851929e-01
9.159909188747406006e-02
-5.510342307388782501e-03
1.196030378341674805e-01
6.255565583705902100e-02
1.280253678560256958e-01
-6.816325336694717407e-02
-1.570131778717041016e-01
4.055371880531311035e-02
-9.036275744438171387e-02
1.164208054542541504e-01
1.090923324227333069e-01
-1.127746179699897766e-01
4.373591020703315735e-02
-4.130534455180168152e-02
5.601273849606513977e-03
-3.141910582780838013e-02
4.938333481550216675e-02
-8.580171316862106323e-02
5.108303204178810120e-02
-1.548707783222198486e-01
-4.628229420632123947e-03
-8.568416535854339600e-02
7.039408385753631592e-02
5.516396462917327881e-02
3.276123106479644775e-02
3.858153894543647766e-02
3.131942823529243469e-02
7.506275922060012817e-02
-1.160432919859886169e-01
1.072088703513145447e-01
1.363467425107955933e-02
-8.385654538869857788e-02
1.710729449987411499e-01
-1.511290669441223145e-01
-9.182088822126388550e-02
-4.851607978343963623e-02
1.568189859390258789e-01
-1.573094874620437622e-01
3.302317112684249878e-02
-1.368168443441390991e-01
4.129139333963394165e-02
8.651734143495559692e-02
8.915375173091888428e-02
9.007365256547927856e-02
1.617584675550460815e-01
-1.619099229574203491e-01
3.225949406623840332e-02
8.556061238050460815e-02
1.077026873826980591e-02
1.731370389461517334e-01
-8.900377154350280762e-02
-3.629165887832641602e-02
-1.698874533176422119e-01
-1.629324853420257568e-01
1.029942533932626247e-03
3.435768885537981987e-03
-7.351995259523391724e-02
-9.747482836246490479e-02
6.039430573582649231e-02
-1.266654580831527710e-01
-1.599607765674591064e-01
5.855577439069747925e-02
1.208436489105224609e-02
6.022221967577934265e-02
-7.533612102270126343e-02
-1.550390571355819702e-01
-8.204088360071182251e-02
6.410843133926391602e-02
-1.354553699493408203e-01
6.040593609213829041e-02
4.038816690444946289e-02
-1.106326058506965637e-01
-5.291037261486053467e-02
7.624069601297378540e-02
-1.255136281251907349e-01
8.420116454362869263e-02
1.096421405673027039e-01
8.301477134227752686e-02
-4.932346567511558533e-02
-9.783208370208740234e-02
1.329541057348251343e-01
1.258701086044311523e-01
1.084431037306785583e-01
8.614414930343627930e-02
-1.009607091546058655e-01
2.381929080002009869e-04
-1.425835490226745605e-01
-2.333045005798339844e-02
-4.526210948824882507e-02
5.028915405273437500e-02
-1.720415949821472168e-01
-1.528771966695785522e-01
-1.044708676636219025e-02
-1.103557497262954712e-01
9.404681622982025146e-02
1.240170970559120178e-01
-7.656268030405044556e-02
1.324164420366287231e-01
-1.467482149600982666e-01
5.517311021685600281e-02
1.449222713708877563e-01
-5.663061165250837803e-04
-6.884940434247255325e-03
3.086624434217810631e-03
-5.003846436738967896e-02
9.171912819147109985e-02
8.490086346864700317e-02
-7.502522319555282593e-02
5.304884538054466248e-02
1.448473334312438965e-01
-1.370875090360641479e-01
-5.028776451945304871e-02
-1.554422974586486816e-01
1.318733394145965576e-01
-1.585785001516342163e-01
1.249036788940429688e-01
-8.180817216634750366e-02
2.550324797630310059e-02
-1.089143455028533936e-01
-6.877971440553665161e-02
-9.130378812551498413e-02
1.497715413570404053e-01
6.282971799373626709e-02
1.264015734195709229e-01
1.666549593210220337e-03
1.468526870012283325e-01
-2.184218261390924454e-03
-6.906743347644805908e-02
1.404577791690826416e-01
1.663434877991676331e-02
1.626568287611007690e-01
-8.796740323305130005e-02
-1.168298795819282532e-01
1.729283928871154785e-01
1.694936752319335938e-01
-3.061618655920028687e-02
-6.638227403163909912e-02
-7.501816749572753906e-02
-9.181994199752807617e-02
-6.067080888897180557e-03
-1.328130364418029785e-01
1.511308997869491577e-01
-9.477762132883071899e-02
-1.751880049705505371e-01
-5.165728274732828140e-03
1.210631504654884338e-01
-1.704085916280746460e-01
4.436077922582626343e-02
-1.640186458826065063e-01
-1.034497991204261780e-01
-1.200937330722808838e-01
-6.274285167455673218e-02
-3.732356429100036621e-02
-8.359865099191665649e-02
-1.042498052120208740e-01
9.436702728271484375e-02
-4.588099569082260132e-02
1.086018085479736328e-01
1.515231430530548096e-01
1.462683975696563721e-01
1.965764723718166351e-02
-7.818017154932022095e-02
2.932447008788585663e-02
9.171362966299057007e-02
-1.217060387134552002e-01
1.192670464515686035e-01
-1.168451383709907532e-01
-1.479646265506744385e-01
-4.317590594291687012e-02
-9.374139457941055298e-02
-1.053221523761749268e-01
-1.337274163961410522e-01
-1.060014069080352783e-01
1.576319523155689240e-02
-2.882043644785881042e-02
1.442927867174148560e-01
-1.585067957639694214e-01
-1.095792576670646667e-01
-1.091859415173530579e-01
-1.527863275259733200e-02
2.263570204377174377e-02
1.157472580671310425e-01
-4.488765727728605270e-03
-9.324722737073898315e-02
-1.641769558191299438e-01
-1.233568936586380005e-01
2.321962639689445496e-02
-1.933086197823286057e-03
-1.208062916994094849e-01
-1.091306656599044800e-01
9.209886938333511353e-02
2.540744654834270477e-02
-1.763042621314525604e-02
-5.877588875591754913e-03
-1.269591450691223145e-01
7.506823539733886719e-02
-1.477297395467758179e-01
1.537840664386749268e-01
9.583356231451034546e-02
1.741544455289840698e-01
2.033412642776966095e-02
-3.238574415445327759e-02
3.297948744148015976e-03
-1.546881049871444702e-01
1.200339049100875854e-01
5.877146124839782715e-02
6.366486102342605591e-02
-3.326281905174255371e-02
1.034789369441568851e-03
-7.592020928859710693e-02
-6.109489127993583679e-02
-9.909988380968570709e-03
6.299223750829696655e-02
-6.711236387491226196e-02
-1.618216782808303833e-01
2.896693907678127289e-02
-9.372133761644363403e-02
6.653876602649688721e-02
1.195982098579406738e-01
-1.246206387877464294e-01
1.603874713182449341e-01
1.336613744497299194e-01
-1.335772424936294556e-01
7.021664641797542572e-04
1.341148763895034790e-01
1.310914307832717896e-01
1.518314890563488007e-02
-1.502673923969268799e-01
5.108134821057319641e-02
5.201241374015808105e-02
-9.390669316053390503e-02
2.223553881049156189e-02
1.046839170157909393e-02
9.814081341028213501e-02
-2.172257006168365479e-02
-1.952874154085293412e-04
-1.182031333446502686e-01
1.693891137838363647e-01
1.572028249502182007e-01
-1.393551975488662720e-01
6.440622359514236450e-02
-6.918160617351531982e-02
-1.963248662650585175e-02
-7.166197150945663452e-02
-3.243457153439521790e-02
-4.976741969585418701e-02
-3.214173391461372375e-02
4.964633285999298096e-02
1.628554239869117737e-02
-1.596553623676300049e-01
-1.760964840650558472e-02
-4.683458805084228516e-02
-5.857322365045547485e-02
5.015215650200843811e-02
-2.023048637056490406e-06
6.891536526381969452e-03
-8.540860563516616821e-02
-1.474787145853042603e-01
-7.582043111324310303e-02
1.763792932033538818e-01
-1.327287703752517700e-01
9.288893640041351318e-02
-1.513396352529525757e-01
-1.256087124347686768e-01
1.135758310556411743e-01
1.237131580710411072e-01
-4.753199219703674316e-02
3.165280818939208984e-02
4.032867401838302612e-02
2.638556994497776031e-02
3.280773758888244629e-03
-8.530206046998500824e-03
-1.585763543844223022e-01
-7.086663693189620972e-02
-3.416170552372932434e-02
-1.586348377168178558e-02
-7.034736871719360352e-02
1.346817761659622192e-01
-6.464228779077529907e-02
1.353658735752105713e-01
1.158375144004821777e-01
1.577162295579910278e-01
-5.592296831309795380e-03
-5.723685398697853088e-02
8.424343913793563843e-02
-3.479829058051109314e-02
-1.500492691993713379e-01
-3.123159334063529968e-02
-8.728548884391784668e-03
-9.372409433126449585e-02
8.831134065985679626e-03
1.521611064672470093e-01
-6.654473394155502319e-02
1.655310094356536865e-01
1.204765960574150085e-01
7.753178477287292480e-02
1.131270676851272583e-01
1.301804631948471069e-01
-1.159314811229705811e-01
-3.813175112009048462e-02
-2.264916896820068359e-02
-8.534241467714309692e-02
6.329350173473358154e-02
-3.226762637495994568e-04
1.561207771301269531e-01
1.376086622476577759e-01
8.067884296178817749e-02
-1.221419870853424072e-02
-1.072068349458277225e-03
1.517719179391860962e-01
1.734833568334579468e-01
-3.993622586131095886e-02
1.606454253196716309e-01
-8.348388969898223877e-02
-1.320793665945529938e-02
1.091755926609039307e-01
1.231090873479843140e-01
-1.264242082834243774e-01
-1.357306540012359619e-01
1.654963195323944092e-01
1.214236319065093994e-01
-1.278343796730041504e-01
5.867625027894973755e-02
1.099873185157775879e-01
-8.886312693357467651e-02
1.451406627893447876e-01
-8.480371534824371338e-02
7.680932432413101196e-02
1.454857140779495239e-01
-5.576185882091522217e-02
9.670355916023254395e-02
5.461516976356506348e-02
5.923444405198097229e-02
-1.678368002176284790e-01
1.017122045159339905e-01
4.909587278962135315e-02
-5.490524694323539734e-02
6.006286293268203735e-02
-1.551437079906463623e-01
1.504303663969039917e-01
-1.404104977846145630e-01
-2.027990482747554779e-02
1.436883658170700073e-01
1.265522278845310211e-02
-1.337237060070037842e-01
8.546443283557891846e-02
1.475170701742172241e-01
-5.782128125429153442e-02
-1.162053719162940979e-01
-2.933129854500293732e-02
3.434649854898452759e-02
7.678291760385036469e-03
6.908626854419708252e-02
-1.285183802247047424e-02
-8.772274106740951538e-02
-1.794281974434852600e-02
4.724628105759620667e-02
-1.358350068330764771e-01
8.308703079819679260e-03
-8.672057092189788818e-02
-5.623464006930589676e-03
-2.243025787174701691e-02
1.762587279081344604e-01
-1.364720016717910767e-01
1.156686525791883469e-02
7.728870213031768799e-02
-7.708378136157989502e-02
-1.940318569540977478e-02
1.566305458545684814e-01
1.416607201099395752e-01
2.602993510663509369e-02
1.034575328230857849e-01
-1.076395958662033081e-01
-1.269041150808334351e-01
1.026813983917236328e-01
1.142489165067672729e-01
7.423227280378341675e-02
-1.405678242444992065e-01
1.004673987627029419e-01
-5.091444402933120728e-02
-2.210117504000663757e-02
-1.733195334672927856e-01
3.972502797842025757e-02
1.082772985100746155e-01
-1.143417879939079285e-01
-6.083391606807708740e-03
3.084742464125156403e-02
6.262981891632080078e-02
-1.735524833202362061e-01
-3.963843733072280884e-02
9.296728670597076416e-02
8.864364773035049438e-02
-7.893428206443786621e-02
-1.214137747883796692e-01
-3.917049989104270935e-02
-9.717103093862533569e-02
-1.346455663442611694e-01
6.886219978332519531e-02
-5.865749716758728027e-02
1.112037003040313721e-01
-2.967216074466705322e-02
-8.269422687590122223e-03
3.061357419937849045e-03
-1.414609402418136597e-01
-4.031619988381862640e-03
-8.868339657783508301e-02
9.914034046232700348e-03
7.689620554447174072e-02
-9.964827448129653931e-02
-1.196545213460922241e-01
2.972840517759323120e-02
-1.253097802400588989e-01
1.021711453795433044e-01
1.008972376585006714e-01
-1.547012664377689362e-02
-1.492019742727279663e-01
4.594718664884567261e-02
-1.377630978822708130e-01
-1.116135567426681519e-01
-9.563893079757690430e-02
-8.104175329208374023e-02
-1.704949140548706055e-01
-1.475482732057571411e-01
-1.096622645854949951e-01
6.032267701812088490e-04
1.089998409152030945e-01
-1.191075369715690613e-01
1.220104917883872986e-01
-7.046459615230560303e-02
1.570986807346343994e-01
1.172570213675498962e-01
-6.099215894937515259e-02
1.002880483865737915e-01
-1.575835496187210083e-01
4.669206961989402771e-02
7.312688976526260376e-04
1.570443958044052124e-01
2.251061052083969116e-02
-5.723548308014869690e-02
2.271363139152526855e-02
-1.366761326789855957e-01
1.947277039289474487e-02
-1.063869073987007141e-01
-8.325964212417602539e-02
1.713600903749465942e-01
1.280311495065689087e-01
1.680196076631546021e-01
-9.107906371355056763e-02
-1.347810477018356323e-01
1.226978600025177002e-01
3.406411409378051758e-02
-6.006857380270957947e-02
1.293212757445871830e-03
6.687609013170003891e-03
-1.513189077377319336e-01
6.124980002641677856e-02
-1.170640513300895691e-01
-1.172253862023353577e-01
-9.115351364016532898e-03
-1.720341444015502930e-01
1.541830748319625854e-01
-8.999795466661453247e-02
1.265700161457061768e-01
-5.291113257408142090e-02
1.607035547494888306e-01
-5.128702521324157715e-02
1.757301837205886841e-01
-1.087300181388854980e-01
-5.436030775308609009e-02
1.036251708865165710e-01
4.509051144123077393e-02
5.431970208883285522e-02
-7.784417364746332169e-03
6.282729655504226685e-02
-9.599627554416656494e-02
9.571551531553268433e-02
-2.230234257876873016e-02
-5.089366808533668518e-02
-9.496652334928512573e-02
1.987618021667003632e-02
-9.600272029638290405e-02
-1.357503235340118408e-01
-1.706843227148056030e-01
8.343128859996795654e-02
1.587492600083351135e-02
-6.243570894002914429e-02
6.018557399511337280e-02
1.679210662841796875e-01
7.232316583395004272e-02
-7.274158298969268799e-02
-1.535853892564773560e-01
2.775772474706172943e-02
2.080939523875713348e-02
7.592967152595520020e-02
4.188880324363708496e-02
-4.197912290692329407e-02
-6.435970962047576904e-02
1.242377161979675293e-01
1.087969467043876648e-01
-2.806168794631958008e-02
8.762104064226150513e-02
8.800733834505081177e-02
-1.221402585506439209e-01
9.175853803753852844e-03
-1.014073565602302551e-01
1.370717883110046387e-01
1.408123224973678589e-01
1.138946712017059326e-01
1.280964910984039307e-01
1.638807654380798340e-01
-7.408458739519119263e-02
1.411561369895935059e-01
1.136694997549057007e-01
1.650450378656387329e-01
2.816962450742721558e-02
7.869532704353332520e-02
-7.983666658401489258e-02
1.534274220466613770e-01
1.541361659765243530e-01
1.166957691311836243e-01
-2.132818102836608887e-02
1.459760963916778564e-01
-1.435525417327880859e-01
1.360955238342285156e-01
8.963551372289657593e-02
-5.848732963204383850e-02
-1.366099268198013306e-01
3.155994042754173279e-02
-4.297206178307533264e-02
1.076226308941841125e-01
-9.788206964731216431e-02
-1.404964774847030640e-01
-6.957053393125534058e-02
-7.806148380041122437e-02
-7.539597153663635254e-02
-1.516375988721847534e-01
-1.522482782602310181e-01
1.478446871042251587e-01
1.271768063306808472e-01
2.568340487778186798e-02
-1.387460529804229736e-01
-6.545887887477874756e-02
-2.831001579761505127e-02
8.416114002466201782e-02
-4.711315780878067017e-02
-1.216875985264778137e-01
1.756310313940048218e-01
7.000096142292022705e-02
6.333267688751220703e-02
2.794932387769222260e-02
-1.870578341186046600e-02
8.727269619703292847e-02
-5.661742016673088074e-02
4.295901581645011902e-02
-5.888824909925460815e-02
1.325272470712661743e-01
-8.918432891368865967e-02
-4.393520206212997437e-02
1.003360524773597717e-01
1.416370719671249390e-01
9.272458404302597046e-02
5.472502484917640686e-02
-1.448601037263870239e-01
4.595506936311721802e-02
-4.705756530165672302e-02
-1.671187877655029297e-01
-3.551185876131057739e-02
6.814934778958559036e-03
-1.652042567729949951e-01
-1.016670465469360352e-02
1.023554727435112000e-01
-6.632628291845321655e-02
-1.148587763309478760e-01
3.027273155748844147e-02
1.071815378963947296e-03
3.366879746317863464e-02
-9.004246443510055542e-02
-2.422645129263401031e-02
1.628312468528747559e-01
-1.685986071825027466e-01
-1.166291385889053345e-01
1.945582800544798374e-03
1.244899854063987732e-01
-3.596544265747070312e-02
-1.498733758926391602e-01
-7.400429993867874146e-02
1.110696494579315186e-01
6.030179187655448914e-02
1.399436146020889282e-01
1.031468212604522705e-01
-1.461050659418106079e-01
-8.134109899401664734e-03
-1.513440012931823730e-01
-5.185350030660629272e-02
-4.279780760407447815e-02
-1.274697929620742798e-01
-1.682815998792648315e-01
-1.547055840492248535e-01
-4.153451696038246155e-02
-3.863966092467308044e-02
-1.183251887559890747e-01
-2.272768691182136536e-02
-1.378358453512191772e-01
1.697923690080642700e-01
1.453696787357330322e-01
-1.231946274638175964e-01
-1.497340481728315353e-02
-1.746538877487182617e-01
1.253034174442291260e-02
3.305492922663688660e-02
6.448480486869812012e-02
1.464911401271820068e-01
-1.497103720903396606e-01
-1.278718560934066772e-01
6.211943924427032471e-02
3.318712487816810608e-02
8.519159257411956787e-02
-1.190364360809326172e-01
-1.354311257600784302e-01
-1.610260158777236938e-01
-3.784150630235671997e-02
-1.620472967624664307e-01
8.835694938898086548e-02
1.360171139240264893e-01
1.046390756964683533e-01
-1.649982482194900513e-01
-8.867595344781875610e-02
1.745176613330841064e-01
1.464568376541137695e-01
-5.624260753393173218e-02
-1.674609482288360596e-01
1.595253795385360718e-01
1.452637314796447754e-01
2.922150492668151855e-02
1.376724094152450562e-01
3.489217534661293030e-02
-1.673714630305767059e-02
-7.473837118595838547e-03
1.591677665710449219e-01
3.323320997878909111e-03
4.319898039102554321e-02
-7.857324928045272827e-02
1.300774961709976196e-01
-7.383729517459869385e-02
-2.513144910335540771e-02
-1.387221366167068481e-01
5.043487623333930969e-02
6.168901175260543823e-02
9.867241233587265015e-02
-1.215647459030151367e-01
-2.821061387658119202e-02
2.275769598782062531e-02
-5.958501994609832764e-02
1.303086727857589722e-01
2.095056511461734772e-02
1.388663053512573242e-01
-1.110357865691184998e-01
-9.498683363199234009e-02
6.174901127815246582e-02
1.335022002458572388e-01
1.721323430538177490e-01
2.217514207586646080e-03
7.027421891689300537e-02
1.595635414123535156e-01
9.858977794647216797e-02
-4.106363281607627869e-02
-1.689841970801353455e-02
-6.823518127202987671e-02
1.746416836977005005e-01
7.145842164754867554e-02
-7.466099411249160767e-02
-1.166905835270881653e-01
-1.098873689770698547e-01
1.625712662935256958e-01
1.718725264072418213e-01
1.529854089021682739e-01
-9.557402878999710083e-02
2.782886847853660583e-02
-1.127078533172607422e-01
4.317715018987655640e-02
1.612604558467864990e-01
1.426633298397064209e-01
-9.179486334323883057e-02
-6.216499954462051392e-02
3.585994988679885864e-02
8.221857249736785889e-02
5.710147693753242493e-02
-9.203876554965972900e-02
1.641837209463119507e-01
9.216790646314620972e-02
1.620504190213978291e-03
-1.216858103871345520e-01
-3.712884383276104927e-03
-7.940377295017242432e-02
1.455724239349365234e-01
3.507083281874656677e-02
-6.997653841972351074e-02
6.017621606588363647e-03
1.302414685487747192e-01
-6.127030402421951294e-02
1.285470463335514069e-02
7.614382356405258179e-02
-9.246746450662612915e-02
-1.509446501731872559e-01
-1.192117258906364441e-01
-1.218759119510650635e-01
5.009308829903602600e-02
1.456553488969802856e-01
1.114282160997390747e-01
-8.783716708421707153e-02
1.682416349649429321e-01
-3.581356629729270935e-02
-6.262669712305068970e-02
-1.615746617317199707e-01
-1.627740710973739624e-01
-4.969364032149314880e-02
-6.334144622087478638e-02
-1.050618067383766174e-01
-1.723127067089080811e-01
-1.518869120627641678e-02
-1.158533170819282532e-01
-7.130424678325653076e-02
1.421856582164764404e-01
-1.664288789033889771e-01
1.123185679316520691e-01
-1.397782564163208008e-01
-9.750532358884811401e-02
1.580035537481307983e-01
-1.183203011751174927e-01
-1.674160659313201904e-01
1.535392999649047852e-01
-2.474005147814750671e-02
-7.331090420484542847e-02
-5.927764344960451126e-03
1.519395969808101654e-02
2.417305111885070801e-02
-1.712027788162231445e-01
-9.798446670174598694e-03
5.895823612809181213e-02
6.552241742610931396e-02
-1.208301857113838196e-01
-8.118513226509094238e-02
8.097089827060699463e-02
2.466515637934207916e-02
5.326468124985694885e-02
1.527579128742218018e-01
-3.979433700442314148e-02
1.354449689388275146e-01
-7.103762775659561157e-02
9.020835161209106445e-02
-6.215031072497367859e-02
-8.344902843236923218e-02
-7.274562865495681763e-02
