-1.379669010639190674e-01
7.145290076732635498e-02
-1.149405837059020996e-01
1.730648428201675415e-01
-1.682093590497970581e-01
-7.730890810489654541e-02
1.660650968551635742e-01
-2.692509256303310394e-02
9.428300708532333374e-02
-2.011728100478649139e-02
-1.483865082263946533e-01
5.132807418704032898e-02
-1.341681648045778275e-02
-1.696652173995971680e-01
1.138055473566055298e-01
9.778572618961334229e-02
2.144214510917663574e-02
-5.182833597064018250e-02
4.348983615636825562e-02
1.885652169585227966e-02
1.473423242568969727e-01
-5.897119641304016113e-02
1.674021333456039429e-01
-3.393008932471275330e-02
-1.291244570165872574e-02
-7.040483411401510239e-03
-4.938782379031181335e-02
8.365262299776077271e-02
3.417662531137466431e-02
8.359646052122116089e-02
4.919552803039550781e-02
1.366918087005615234e-01
8.351252228021621704e-02
1.055708378553390503e-01
-9.816502034664154053e-02
-1.015878766775131226e-01
-1.446474939584732056e-01
-3.628478944301605225e-02
1.355118304491043091e-01
-1.533997710794210434e-02
-5.857143178582191467e-02
3.464272618293762207e-02
6.063768267631530762e-02
8.134233951568603516e-02
-1.198299154639244080e-01
1.727234721183776855e-01
-7.119550835341215134e-03
1.214564666152000427e-01
1.453982740640640259e-01
9.829690307378768921e-02
1.478933244943618774e-01
1.130542233586311340e-01
-8.622241765260696411e-02
-5.292978137731552124e-02
-5.453934893012046814e-02
9.702686965465545654e-02
1.744070351123809814e-01
1.569043844938278198e-01
3.496270626783370972e-02
1.544177234172821045e-01
-4.952267184853553772e-02
5.137361586093902588e-02
-9.950952976942062378e-02
2.511720359325408936e-02
9.832628071308135986e-03
3.533263131976127625e-02
-1.713891029357910156e-01
-9.399592131376266479e-02
-9.845869988203048706e-02
1.116034016013145447e-01
8.902187645435333252e-02
-1.254083812236785889e-01
-1.261560171842575073e-01
-1.404281109571456909e-01
-4.375325515866279602e-02
9.383287280797958374e-02
-1.433217525482177734e-01
-1.150571629405021667e-01
-7.742843776941299438e-02
1.194045469164848328e-01
1.012261956930160522e-02
-8.809618651866912842e-03
1.548845618963241577e-01
1.509652435779571533e-01
6.367937475442886353e-02
-1.418457478284835815e-01
9.568038582801818848e-02
-9.034195542335510254e-02
-9.905426204204559326e-02
-1.087282449007034302e-01
4.942246899008750916e-02
5.043639615178108215e-02
6.589265912771224976e-02
3.141291067004203796e-02
9.576501697301864624e-02
-1.671791523694992065e-01
-1.503999084234237671e-01
-9.797327965497970581e-02
-4.154610633850097656e-02
-1.421513110399246216e-01
1.055592000484466553e-01
-5.337223876267671585e-03
1.401481777429580688e-01
-9.538769721984863281e-02
1.378896236419677734e-01
-1.262712776660919189e-01
1.198177114129066467e-01
-1.663193851709365845e-01
-7.377805653959512711e-03
4.043905530124902725e-03
6.961565464735031128e-02
2.906025154516100883e-03
-1.754487752914428711e-01
-3.728093206882476807e-02
3.569838032126426697e-02
1.097820252180099487e-01
-1.546713858842849731e-01
-6.668134778738021851e-02
-1.517621576786041260e-01
-1.427734643220901489e-01
-1.403136998414993286e-01
8.888200856745243073e-03
1.015589609742164612e-01
7.300937920808792114e-02
1.544835418462753296e-01
1.255578249692916870e-01
4.247824847698211670e-02
8.067138493061065674e-03
-1.589189618825912476e-01
6.674218922853469849e-02
1.418636739253997803e-01
1.541883349418640137e-01
1.103755384683609009e-01
1.722048595547676086e-02
-1.001920104026794434e-01
1.526894718408584595e-01
-6.543689966201782227e-02
1.676147282123565674e-01
9.512463212013244629e-02
7.816895842552185059e-02
-1.387917995452880859e-01
-1.474720239639282227e-01
1.443752646446228027e-01
-1.196601707488298416e-02
6.095553189516067505e-02
3.567176312208175659e-02
-1.284411549568176270e-01
1.589115336537361145e-02
-1.255549937486648560e-01
1.899558468721807003e-03
-1.532987952232360840e-01
5.360467825084924698e-03
6.644372642040252686e-02
1.361851543188095093e-01
-7.781600207090377808e-02
1.188326776027679443e-01
5.044863745570182800e-02
-1.355735585093498230e-02
2.886997908353805542e-02
-4.242841154336929321e-02
-1.104745790362358093e-01
-1.657142490148544312e-02
1.481273472309112549e-01
-7.967530936002731323e-02
-8.115699887275695801e-02
9.893272817134857178e-02
1.451148688793182373e-01
-1.459560096263885498e-01
-8.095741271972656250e-02
2.837856858968734741e-02
1.501128226518630981e-01
-7.221217453479766846e-02
-6.935325264930725098e-02
-1.035362631082534790e-01
-4.200582578778266907e-02
1.424528658390045166e-01
1.757182627916336060e-01
-1.206293329596519470e-02
6.497206538915634155e-02
-5.902352184057235718e-02
1.180189475417137146e-01
-1.555280685424804688e-01
4.829917103052139282e-02
1.744632571935653687e-01
-7.443495839834213257e-02
-7.581046223640441895e-02
1.248081773519515991e-01
-9.157805889844894409e-02
3.555135056376457214e-02
-1.431383192539215088e-01
2.282945066690444946e-02
-5.003673955798149109e-03
-1.143941283226013184e-02
-4.028400033712387085e-02
-4.233082011342048645e-02
5.415551736950874329e-02
-3.546176850795745850e-02
-1.080474443733692169e-02
5.951088666915893555e-02
-2.058091759681701660e-02
-1.131192520260810852e-01
1.124098822474479675e-01
-8.061514049768447876e-02
-1.448387801647186279e-01
1.382431387901306152e-01
-1.304295361042022705e-01
-1.533580422401428223e-01
7.170995324850082397e-02
-8.387222886085510254e-02
1.500493139028549194e-01
-6.275876658037304878e-04
3.456098586320877075e-02
-1.428038179874420166e-01
-2.937249653041362762e-02
-1.587977111339569092e-01
1.252495944499969482e-01
3.833759576082229614e-02
-2.593995258212089539e-02
-1.441958248615264893e-01
2.706423960626125336e-02
-5.222234502434730530e-02
-5.568921938538551331e-02
1.541853882372379303e-02
-7.982655428349971771e-03
9.694931656122207642e-02
1.264815479516983032e-01
-1.289957165718078613e-01
-7.891027629375457764e-02
-7.078175246715545654e-02
-1.950296945869922638e-02
-1.433828026056289673e-01
-1.449686735868453979e-01
-6.598556786775588989e-02
-1.072707846760749817e-01
2.973055467009544373e-02
-1.242336928844451904e-01
-1.718568503856658936e-01
1.016261875629425049e-01
-2.806609123945236206e-02
-9.716450236737728119e-03
-1.076924875378608704e-01
-9.461377561092376709e-02
-1.213752329349517822e-01
1.033804640173912048e-01
-1.266090422868728638e-01
-1.084852889180183411e-01
-7.176596671342849731e-03
-1.507429629564285278e-01
-1.340646743774414062e-01
8.000135421752929688e-02
8.279084414243698120e-02
-8.791440725326538086e-02
8.816241472959518433e-02
-1.388451457023620605e-01
-1.071727946400642395e-01
1.256416738033294678e-01
5.964862182736396790e-02
3.049971349537372589e-02
-1.344638317823410034e-01
1.152356564998626709e-01
3.733163326978683472e-02
8.811704814434051514e-02
3.619965538382530212e-02
-4.311072453856468201e-02
7.188209891319274902e-02
5.955912172794342041e-02
1.502134352922439575e-01
-2.991056535392999649e-03
-1.579034179449081421e-01
4.313137754797935486e-02
4.742822796106338501e-02
4.930738825350999832e-03
-1.195508018136024475e-01
1.211257651448249817e-01
1.193749830126762390e-01
4.371723905205726624e-02
-7.394266128540039062e-02
-1.350427418947219849e-01
1.753955893218517303e-02
-1.670606248080730438e-02
2.411509864032268524e-02
-5.784054100513458252e-02
-4.212404787540435791e-02
-1.178738176822662354e-01
1.184828355908393860e-01
-7.747793942689895630e-02
-1.115647703409194946e-01
1.486442238092422485e-01
-7.035467773675918579e-02
1.295370310544967651e-01
-1.138500124216079712e-01
-1.691838055849075317e-01
3.256602678447961807e-03
8.171704597771167755e-03
-2.038084529340267181e-02
-1.559888571500778198e-02
8.158028125762939453e-02
-4.095725249499082565e-03
1.012217625975608826e-01
-1.603585779666900635e-01
8.047879487276077271e-02
-6.659854948520660400e-02
-6.698425859212875366e-02
1.487663984298706055e-01
-4.731860384345054626e-02
-1.327409893274307251e-01
1.697929650545120239e-01
3.001852333545684814e-02
-1.094314903020858765e-01
-3.419024124741554260e-02
-1.630476117134094238e-02
1.167711466550827026e-01
6.651130970567464828e-03
2.449111267924308777e-02
9.104041755199432373e-02
-1.763204485177993774e-01
-3.494371846318244934e-02
-1.352847814559936523e-01
1.200945377349853516e-01
1.005145236849784851e-01
-4.449628293514251709e-02
4.057611897587776184e-02
-1.255444735288619995e-01
-9.432335942983627319e-02
-8.345046639442443848e-02
5.860603414475917816e-03
4.987634718418121338e-02
-2.947609312832355499e-02
-8.125320076942443848e-02
5.126458033919334412e-02
-9.720972180366516113e-02
-1.077033579349517822e-01
-1.168512925505638123e-02
-1.554474793374538422e-02
1.519320458173751831e-01
5.265646055340766907e-02
-1.609296202659606934e-01
-5.955298990011215210e-02
1.757532805204391479e-01
-2.444028295576572418e-02
1.552280634641647339e-01
-2.259595692157745361e-02
-1.471693366765975952e-01
1.075991317629814148e-01
-1.050965562462806702e-01
-1.733535714447498322e-02
9.731184691190719604e-02
-8.791421353816986084e-02
-1.363832354545593262e-01
1.006750613451004028e-01
3.006225079298019409e-02
-1.247268095612525940e-01
1.111343055963516235e-01
4.566170647740364075e-02
1.647378206253051758e-01
6.726318597793579102e-02
-9.387272596359252930e-02
-9.058040380477905273e-02
-1.598942428827285767e-01
3.879353776574134827e-02
-1.576758474111557007e-01
1.663377135992050171e-01
4.562101326882839203e-03
1.536332219839096069e-01
-4.192985594272613525e-02
1.125427857041358948e-01
-1.387591212987899780e-01
-1.679071336984634399e-01
9.377245604991912842e-02
-1.130539029836654663e-01
-3.756672888994216919e-02
5.584870278835296631e-02
-1.193669140338897705e-01
6.206294149160385132e-02
1.320966519415378571e-02
-1.496723145246505737e-01
-1.430440396070480347e-01
-9.265542030334472656e-02
-1.739963442087173462e-01
-6.678240001201629639e-02
7.116874307394027710e-02
1.693950146436691284e-01
1.546019315719604492e-01
-1.592853665351867676e-02
1.182705909013748169e-01
-1.264841854572296143e-01
-7.563664764165878296e-02
1.270689368247985840e-01
1.291610002517700195e-01
8.995992131531238556e-03
1.529026497155427933e-02
-6.412432342767715454e-02
7.896132022142410278e-02
2.303356863558292389e-02
-1.952558057382702827e-03
1.273068692535161972e-02
3.947482258081436157e-02
-8.413353562355041504e-02
1.175180524587631226e-01
1.191314607858657837e-01
5.475686863064765930e-02
9.776273369789123535e-02
9.141587652266025543e-03
-1.218735352158546448e-01
-4.712986759841442108e-03
-3.425948554649949074e-03
1.386381834745407104e-01
1.171557381749153137e-01
1.436063647270202637e-01
8.181769400835037231e-02
-5.320055410265922546e-02
-3.410622105002403259e-02
-1.135821714997291565e-01
1.623010039329528809e-01
1.643773466348648071e-01
6.849765032529830933e-02
7.494967430830001831e-02
-1.593219488859176636e-01
1.131535992026329041e-01
-1.086929664015769958e-01
-4.440760612487792969e-02
2.872587926685810089e-02
2.429325319826602936e-02
1.582730710506439209e-01
-1.617784053087234497e-01
7.983168959617614746e-02
-1.431750804185867310e-01
-4.539636895060539246e-02
3.443869575858116150e-02
1.595569252967834473e-01
-1.089287400245666504e-01
-9.713929891586303711e-02
-6.820578128099441528e-02
4.211622849106788635e-02
-1.408058255910873413e-01
3.167464211583137512e-02
5.098700150847434998e-02
1.085846498608589172e-01
5.057139322161674500e-02
1.346011459827423096e-01
4.991065710783004761e-02
8.067410439252853394e-02
1.175687983632087708e-01
-1.591595560312271118e-01
9.941619820892810822e-03
-8.686906099319458008e-02
1.742062121629714966e-01
-8.256255835294723511e-02
1.158616021275520325e-01
8.241999149322509766e-02
1.140833646059036255e-01
-1.184611096978187561e-01
-6.054984778165817261e-02
8.288668841123580933e-02
-1.636105924844741821e-01
3.048049472272396088e-02
-1.117452681064605713e-01
-4.644713178277015686e-02
-4.947036877274513245e-02
4.172002524137496948e-02
-5.940929055213928223e-02
-5.102061480283737183e-02
1.081205718219280243e-02
1.564619392156600952e-01
-1.613357365131378174e-01
-3.140357509255409241e-02
1.080507785081863403e-01
8.842077851295471191e-02
1.549244374036788940e-01
7.549203932285308838e-02
-6.920826435089111328e-02
7.240227609872817993e-02
-1.193017959594726562e-01
-7.823519408702850342e-02
1.929545891471207142e-03
-5.939582362771034241e-02
-4.351497814059257507e-02
-1.153836324810981750e-01
1.327032744884490967e-01
7.797919213771820068e-02
-1.454130560159683228e-01
-1.701902411878108978e-02
-1.223297715187072754e-01
-8.892637491226196289e-02
6.918000429868698120e-02
-6.993187963962554932e-02
-7.473377883434295654e-02
8.523420244455337524e-02
1.391021758317947388e-01
-9.231133013963699341e-02
7.518534082919359207e-03
-6.970911473035812378e-02
-1.250220984220504761e-01
-1.200113147497177124e-01
1.759327501058578491e-01
9.547808021306991577e-02
-1.646830588579177856e-01
-6.004619412124156952e-03
-3.735660389065742493e-02
7.636246085166931152e-02
1.136789396405220032e-01
6.003329530358314514e-02
-1.727667301893234253e-01
5.150068923830986023e-02
4.929472133517265320e-02
1.190652027726173401e-01
1.741148233413696289e-01
-5.070394277572631836e-02
-1.342604756355285645e-01
8.555021882057189941e-02
1.687153056263923645e-02
1.272265613079071045e-01
1.529508233070373535e-01
1.468347907066345215e-01
8.693375438451766968e-02
-1.564451605081558228e-01
1.288696974515914917e-01
2.734660357236862183e-02
3.775084763765335083e-02
-7.071398198604583740e-03
-1.395042687654495239e-01
7.493648678064346313e-02
7.215527445077896118e-02
1.286515891551971436e-01
-1.651772856712341309e-01
1.442589014768600464e-01
5.727529153227806091e-02
7.272440940141677856e-02
2.836063504219055176e-02
-1.094112992286682129e-01
1.576182432472705841e-02
1.563744992017745972e-01
1.705645471811294556e-01
8.644866757094860077e-03
-1.658503264188766479e-01
-1.414084881544113159e-01
1.837402395904064178e-02
1.323851048946380615e-01
1.753323227167129517e-01
4.266548529267311096e-02
-1.247259676456451416e-01
-7.579533010721206665e-02
1.242455765604972839e-01
-1.270153671503067017e-01
-1.291651278734207153e-02
-4.980381205677986145e-02
8.019956946372985840e-02
1.583100259304046631e-01
-1.388801820576190948e-02
1.023539975285530090e-01
2.146231196820735931e-02
9.393756836652755737e-02
8.645895123481750488e-02
1.845884369686245918e-03
-1.047813817858695984e-01
-1.171862334012985229e-01
5.305548384785652161e-02
5.393203347921371460e-02
4.346414934843778610e-03
-1.783582940697669983e-02
-6.361411511898040771e-02
1.264244616031646729e-01
-1.556606739759445190e-01
-1.737483590841293335e-01
1.354751139879226685e-01
-4.216054454445838928e-02
-1.715034693479537964e-01
1.568613946437835693e-01
-3.215488418936729431e-02
5.443762615323066711e-02
-1.523664444684982300e-01
-1.107685565948486328e-01
-3.025385085493326187e-03
1.191364973783493042e-01
4.196057841181755066e-02
8.442833274602890015e-02
-1.357971876859664917e-01
-4.408439993858337402e-02
-1.327394247055053711e-01
-2.265900932252407074e-02
1.456704642623662949e-02
-1.579229719936847687e-02
1.198335811495780945e-01
-1.301806122064590454e-01
-3.781339153647422791e-02
-3.293609619140625000e-02
5.975628644227981567e-02
-1.395885497331619263e-01
4.370514303445816040e-02
-4.417518526315689087e-02
1.470381915569305420e-01
-3.691166266798973083e-02
4.150225222110748291e-02
2.236977592110633850e-02
-7.009077817201614380e-02
9.123641997575759888e-02
-1.435131728649139404e-01
5.333921685814857483e-02
3.247492760419845581e-02
1.194749996066093445e-01
1.348494440317153931e-01
8.140556514263153076e-02
1.742025464773178101e-01
-2.109302207827568054e-03
-5.257271230220794678e-02
1.194987222552299500e-01
1.767339706420898438e-01
1.735067516565322876e-01
-1.471963897347450256e-02
3.335293009877204895e-02
-1.513254940509796143e-01
1.142730861902236938e-01
-9.576354175806045532e-02
-2.169620618224143982e-02
1.249632537364959717e-01
1.442489326000213623e-01
-1.307284832000732422e-01
1.124215126037597656e-01
-9.267459623515605927e-03
1.244619581848382950e-02
9.639985114336013794e-02
2.732323296368122101e-02
-1.557898223400115967e-01
3.813807293772697449e-02
-1.653648167848587036e-01
-9.180083125829696655e-02
2.530595846474170685e-02
-6.225005257874727249e-03
2.760650217533111572e-02
-1.701895892620086670e-01
-7.551830261945724487e-02
1.410066038370132446e-01
1.749449074268341064e-01
1.246724203228950500e-01
-5.913923308253288269e-02
1.334818005561828613e-01
-7.238318771123886108e-02
-4.460189957171678543e-03
-1.592513024806976318e-01
-1.284635905176401138e-02
1.749702095985412598e-01
-4.039939865469932556e-02
5.395310744643211365e-02
2.988873235881328583e-02
1.385704032145440578e-03
-1.391797214746475220e-01
9.749640524387359619e-02
-7.698298990726470947e-02
-6.482475996017456055e-02
6.735587120056152344e-02
5.679603666067123413e-03
5.635908246040344238e-02
1.023009568452835083e-01
2.179211191833019257e-02
1.280391365289688110e-01
-6.605207920074462891e-02
-3.332905471324920654e-02
4.862903431057929993e-02
1.233588680624961853e-01
3.643135726451873779e-02
-2.168347872793674469e-02
-1.577584892511367798e-01
1.352708935737609863e-01
1.530164629220962524e-01
4.638294130563735962e-02
1.174148172140121460e-01
1.330259442329406738e-01
-1.409590393304824829e-01
-1.386916637420654297e-01
-8.765237778425216675e-02
7.633934170007705688e-02
-3.491744026541709900e-02
1.726545840501785278e-01
8.307213336229324341e-02
-1.057148948311805725e-01
7.450819015502929688e-02
3.875508159399032593e-02
3.414271771907806396e-02
-8.513827621936798096e-02
-1.219362244009971619e-01
5.164463818073272705e-02
4.986612871289253235e-02
-9.550492465496063232e-02
8.584347367286682129e-02
-1.563296169042587280e-01
-1.642085425555706024e-02
-8.604159206151962280e-02
-1.527001336216926575e-02
-1.741171777248382568e-01
3.790253400802612305e-02
3.563499078154563904e-02
-1.108503639698028564e-01
-1.458574086427688599e-01
-4.991446807980537415e-02
-4.800026491284370422e-02
1.022280007600784302e-01
2.658134326338768005e-02
1.050218716263771057e-01
1.587774157524108887e-01
1.073997989296913147e-01
1.039384678006172180e-01
-3.471022471785545349e-02
1.395075619220733643e-01
-1.205002814531326294e-01
-5.071960017085075378e-02
-2.222129376605153084e-03
-1.444960683584213257e-01
-9.510840475559234619e-02
6.541928276419639587e-03
9.510977566242218018e-02
-4.284621030092239380e-02
1.045071147382259369e-02
-6.608206033706665039e-02
1.247638389468193054e-01
5.425287783145904541e-02
4.582959786057472229e-02
-1.004609763622283936e-01
9.192649275064468384e-02
-6.866122037172317505e-02
-1.189367622137069702e-01
-2.669636160135269165e-02
-1.694972962141036987e-01
3.524211794137954712e-02
1.196302473545074463e-01
-1.706231087446212769e-01
1.754971593618392944e-01
4.519821703433990479e-02
1.205791160464286804e-01
-1.561471819877624512e-01
1.652941256761550903e-01
-2.179386094212532043e-02
8.002141863107681274e-02
-6.810614466667175293e-02
-3.415523469448089600e-02
-7.059908658266067505e-02
3.339652903378009796e-03
-1.746294349431991577e-01
-1.438215523958206177e-01
6.915954500436782837e-02
-9.504234045743942261e-02
-1.158915683627128601e-01
-6.159961968660354614e-02
6.889949738979339600e-02
5.034708604216575623e-02
1.249930709600448608e-01
9.669749438762664795e-02
-1.086980476975440979e-01
8.577096462249755859e-02
1.745745539665222168e-02
-7.134997844696044922e-02
-1.366713494062423706e-01
1.487399786710739136e-01
2.880871854722499847e-02
-1.717273294925689697e-01
1.471612006425857544e-01
-6.577184051275253296e-02
-1.224350333213806152e-01
5.174067243933677673e-02
1.374825090169906616e-01
1.429468095302581787e-01
1.313214898109436035e-01
8.467919379472732544e-02
-1.686790585517883301e-02
-1.470994800329208374e-01
-1.026209965348243713e-01
-6.568786501884460449e-02
1.019094958901405334e-01
8.369773626327514648e-03
1.088243424892425537e-01
2.498085843399167061e-03
1.448359191417694092e-01
-3.150329459458589554e-03
-1.195238679647445679e-01
-1.706776581704616547e-02
-6.776627153158187866e-02
-1.376255303621292114e-01
-1.740042269229888916e-01
-1.179283782839775085e-01
5.259905382990837097e-02
1.640992313623428345e-01
9.992754459381103516e-02
9.031142108142375946e-03
2.171513065695762634e-02
1.213549971580505371e-01
1.229693070054054260e-01
1.232098639011383057e-01
-1.313940584659576416e-01
-1.343121826648712158e-01
2.562640048563480377e-02
5.048522353172302246e-02
5.338319763541221619e-02
-9.188020974397659302e-02
-7.129933685064315796e-02
-1.072050184011459351e-01
1.108343005180358887e-01
-1.700765639543533325e-01
-1.469123214483261108e-01
-9.367492794990539551e-02
1.456883400678634644e-01
-1.454079896211624146e-01
-1.752345822751522064e-02
-8.166796714067459106e-02
-1.239800751209259033e-01
2.217566967010498047e-02
-4.496480524539947510e-02
1.434554755687713623e-01
7.473253458738327026e-02
-9.960377216339111328e-02
1.237512975931167603e-01
-1.318878084421157837e-01
1.169221401214599609e-01
1.292721778154373169e-01
-1.696657203137874603e-02
3.247454762458801270e-02
-5.633838847279548645e-02
1.153176501393318176e-01
-9.132779203355312347e-03
-4.635847732424736023e-02
7.328902930021286011e-02
-1.146494150161743164e-01
-1.171944513916969299e-01
1.657265722751617432e-01
-9.470716863870620728e-02
-1.380873173475265503e-01
1.416743546724319458e-01
-7.886518142186105251e-04
-5.342774838209152222e-02
-1.719000041484832764e-01
2.985457144677639008e-02
4.088208451867103577e-02
-5.235468968749046326e-02
-1.104399338364601135e-01
8.565524965524673462e-02
8.436353504657745361e-02
7.357048336416482925e-03
-9.933082759380340576e-02
-1.679049283266067505e-01
-1.450632959604263306e-01
-1.140348091721534729e-01
-1.626156419515609741e-01
2.506051678210496902e-03
-1.354483794420957565e-02
-2.256940491497516632e-02
1.136864647269248962e-01
3.381424769759178162e-02
1.125463917851448059e-01
4.867134988307952881e-02
-1.060856208205223083e-01
1.295326463878154755e-02
8.103161305189132690e-02
-1.204524487257003784e-01
3.994716331362724304e-02
1.414231359958648682e-01
1.420370638370513916e-01
9.380025416612625122e-02
1.279919296503067017e-01
1.758817285299301147e-01
-3.065428696572780609e-02
-3.211429715156555176e-02
3.213612735271453857e-02
-1.046978309750556946e-02
8.481882512569427490e-02
-3.712471202015876770e-02
-1.050962656736373901e-01
