-9.036146849393844604e-02
5.331953614950180054e-02
2.167306840419769287e-02
1.325194090604782104e-01
-8.017829060554504395e-02
-1.279063969850540161e-01
5.184214189648628235e-02
1.408560294657945633e-02
1.733087450265884399e-01
-9.758331626653671265e-02
-1.007071956992149353e-01
-1.203933171927928925e-02
6.832791864871978760e-02
2.578375488519668579e-02
-3.884042846038937569e-03
-1.580066978931427002e-01
-4.719555377960205078e-02
-1.557763963937759399e-01
2.189309522509574890e-02
3.370907157659530640e-02
-1.219232678413391113e-01
-1.605768352746963501e-01
9.974447637796401978e-02
-1.165226325392723083e-01
1.215681582689285278e-01
-1.073176339268684387e-01
-5.658665299415588379e-02
5.980597808957099915e-02
1.467281877994537354e-01
8.210252225399017334e-02
-1.379668563604354858e-01
-3.528338298201560974e-02
-1.444495171308517456e-01
3.280324861407279968e-02
-6.916392594575881958e-02
1.935910084284842014e-03
1.717760041356086731e-02
-4.417179152369499207e-02
-4.016754776239395142e-02
-9.946112334728240967e-02
-5.116627289680764079e-05
8.494297042489051819e-03
-6.907341536134481430e-03
1.214129477739334106e-01
-1.695007532835006714e-01
-5.426918715238571167e-02
8.183843456208705902e-03
8.839099854230880737e-02
4.276754334568977356e-02
1.625294052064418793e-02
6.949184834957122803e-02
-9.367059171199798584e-02
-1.043146699666976929e-01
1.560779958963394165e-01
-4.624883085489273071e-02
-1.581047922372817993e-01
-7.631234824657440186e-02
-1.321363598108291626e-01
-2.418514713644981384e-02
-5.480900406837463379e-02
-8.445113152265548706e-02
3.801097720861434937e-02
1.169484630227088928e-01
5.908347293734550476e-02
6.655535195022821426e-03
-1.037920266389846802e-01
-3.243810962885618210e-03
8.523331582546234131e-02
-2.054427005350589752e-02
-1.687644049525260925e-02
1.587689667940139771e-01
-7.957893610000610352e-02
1.354809850454330444e-01
-2.481245994567871094e-02
-3.688803687691688538e-02
-1.592913419008255005e-01
8.338077366352081299e-02
-9.126299619674682617e-02
2.239533886313438416e-02
-1.591011285781860352e-01
-1.256201118230819702e-01
-1.219515874981880188e-01
-2.879202924668788910e-02
-8.205138146877288818e-02
-1.751705110073089600e-01
-1.344554033130407333e-02
1.093829795718193054e-01
-1.699717044830322266e-01
1.113454177975654602e-01
-3.290212526917457581e-02
-1.184378266334533691e-01
-1.417570263147354126e-01
-7.325948029756546021e-02
-3.576579317450523376e-02
-2.647032774984836578e-02
1.394115686416625977e-01
-1.037074178457260132e-01
2.665872499346733093e-02
-4.056296870112419128e-02
-6.180493906140327454e-02
-1.753508448600769043e-01
-9.837377816438674927e-02
-6.726934015750885010e-02
6.013103574514389038e-02
1.083577126264572144e-01
5.055735632777214050e-02
-1.476022601127624512e-01
7.030109316110610962e-02
3.242358937859535217e-02
-5.684202164411544800e-02
6.583487242460250854e-02
-2.151478640735149384e-02
-1.406224966049194336e-01
1.321514397859573364e-01
-5.520564690232276917e-02
1.524553000926971436e-01
-3.181315585970878601e-02
-8.739669620990753174e-02
-1.408419758081436157e-01
1.109859719872474670e-01
1.218864321708679199e-01
-4.511428251862525940e-02
6.378436833620071411e-02
-3.818413615226745605e-02
1.634106971323490143e-02
8.362402766942977905e-02
-4.110925644636154175e-02
4.411453753709793091e-02
1.453446894884109497e-01
1.703314483165740967e-01
2.751754969358444214e-02
-1.541817635297775269e-01
-3.221319243311882019e-02
-1.305708140134811401e-01
-5.133096128702163696e-02
-1.550024747848510742e-01
1.279454529285430908e-01
7.984551601111888885e-03
-1.686298400163650513e-01
-2.880201861262321472e-02
5.432423204183578491e-02
-6.302947551012039185e-02
-5.363428592681884766e-02
1.054335013031959534e-02
-1.700667440891265869e-01
2.904436178505420685e-02
-1.161146536469459534e-01
8.538474887609481812e-02
-1.605492234230041504e-01
-6.063738465309143066e-02
-6.219734624028205872e-02
6.192663684487342834e-02
-1.616721898317337036e-01
1.093800291419029236e-01
-1.521130949258804321e-01
-3.206089511513710022e-02
4.582639411091804504e-02
6.467208266258239746e-02
3.558188676834106445e-02
1.230928227305412292e-01
-1.698781102895736694e-01
1.212483868002891541e-01
1.150136664509773254e-01
4.468562453985214233e-02
-1.693154871463775635e-02
1.189031079411506653e-01
1.206948701292276382e-02
-2.753023616969585419e-02
-1.754211932420730591e-01
-8.827693015336990356e-02
-1.163010224699974060e-01
8.071911334991455078e-02
6.472649425268173218e-02
1.691116541624069214e-01
-1.054115220904350281e-01
1.256724148988723755e-01
9.868178516626358032e-03
-4.546357318758964539e-02
7.546167820692062378e-02
-4.834540560841560364e-02
-5.920639634132385254e-02
-1.380135416984558105e-01
1.294078528881072998e-01
-1.294476985931396484e-01
1.079507172107696533e-03
-9.925835765898227692e-03
1.431766338646411896e-02
1.298198755830526352e-02
-1.666869968175888062e-02
-1.591171026229858398e-01
1.382661908864974976e-01
1.145580634474754333e-01
7.899589836597442627e-02
-1.376861035823822021e-01
-5.862655863165855408e-02
5.270159989595413208e-02
-5.212764441967010498e-02
1.199686601758003235e-01
-1.346170157194137573e-01
-3.915884532034397125e-03
1.455681771039962769e-01
-6.086137518286705017e-02
8.021605014801025391e-02
-7.873663562349975109e-04
-8.115902543067932129e-02
6.780658662319183350e-02
4.170596972107887268e-02
-6.397434324026107788e-02
1.097761839628219604e-01
-9.018605947494506836e-02
1.731990575790405273e-01
2.602180093526840210e-02
5.366855114698410034e-02
1.379504650831222534e-01
5.246374383568763733e-02
8.560956269502639771e-02
-3.366774320602416992e-02
5.645427107810974121e-02
1.031561791896820068e-01
-1.944193989038467407e-02
1.212728545069694519e-01
-1.044235751032829285e-01
-9.609849750995635986e-02
4.999206215143203735e-02
1.762311607599258423e-01
1.613655090332031250e-01
1.415734887123107910e-01
-1.155339926481246948e-01
1.624189615249633789e-01
-1.605465114116668701e-01
1.923636905848979950e-02
-7.162353396415710449e-02
-1.506938040256500244e-01
-2.037483965978026390e-03
8.086393028497695923e-02
-6.545441597700119019e-02
1.516932100057601929e-01
1.739682853221893311e-01
-2.093134634196758270e-02
5.088119208812713623e-02
4.540684446692466736e-02
6.118752807378768921e-02
-8.557390421628952026e-02
3.425171226263046265e-02
1.249595060944557190e-01
-3.833205252885818481e-02
-2.354179695248603821e-02
1.612932235002517700e-01
-9.772610664367675781e-02
-7.346073538064956665e-02
3.396517410874366760e-02
7.146878540515899658e-02
-1.030519083142280579e-01
5.933643784373998642e-03
-1.191353127360343933e-01
6.146323308348655701e-02
8.853478729724884033e-02
1.370191946625709534e-02
1.395761072635650635e-01
8.573663234710693359e-02
-3.857252001762390137e-02
5.625244975090026855e-02
-1.199386566877365112e-01
6.433223187923431396e-02
1.584822684526443481e-01
-1.103060543537139893e-01
-1.537539511919021606e-01
-1.908303983509540558e-02
8.436711877584457397e-02
4.847138375043869019e-02
-8.008478581905364990e-02
2.738375589251518250e-02
1.077718101441860199e-02
-1.058710515499114990e-01
8.337914943695068359e-02
4.140835255384445190e-02
9.847084432840347290e-02
-9.939056634902954102e-02
-4.128277301788330078e-02
-1.743165999650955200e-01
7.631759345531463623e-02
1.433999091386795044e-01
2.348829060792922974e-02
1.174769625067710876e-01
6.335337460041046143e-02
6.707656383514404297e-02
1.097088977694511414e-01
5.704303830862045288e-02
6.027709320187568665e-02
8.502342551946640015e-02
-1.356757879257202148e-01
-1.510066539049148560e-01
1.135643869638442993e-01
7.191314548254013062e-02
1.817629113793373108e-02
1.139391586184501648e-02
-7.325733080506324768e-03
1.383895985782146454e-02
-6.638712435960769653e-02
9.545814245939254761e-02
1.161236688494682312e-01
4.002776741981506348e-02
7.423967123031616211e-02
1.040127277374267578e-01
6.159357354044914246e-02
8.383850753307342529e-02
8.633678406476974487e-02
-6.050689890980720520e-02
9.812536090612411499e-02
-1.340697109699249268e-01
-1.079424172639846802e-01
1.282375305891036987e-01
-2.147748507559299469e-02
1.490260660648345947e-01
2.585607953369617462e-02
-7.166886329650878906e-02
-3.986881056334823370e-04
8.600237220525741577e-02
-8.302634209394454956e-02
1.833647117018699646e-02
-1.700851023197174072e-01
1.372982710599899292e-01
-1.365115940570831299e-01
1.521382778882980347e-01
4.379072412848472595e-02
1.679322570562362671e-01
1.693654246628284454e-02
1.241086646914482117e-01
-1.566625237464904785e-01
-1.248145196586847305e-02
2.887543756514787674e-03
-1.227766945958137512e-01
2.334840595722198486e-02
7.267176359891891479e-02
1.603202894330024719e-03
1.050965394824743271e-02
-1.110872030258178711e-01
9.646266698837280273e-02
1.420925706624984741e-01
-1.041012406349182129e-01
7.333825528621673584e-02
1.033242195844650269e-01
1.074964404106140137e-01
2.711275033652782440e-02
1.547694355249404907e-01
-1.583157181739807129e-01
-5.178682133555412292e-02
-1.677364408969879150e-01
-1.438027322292327881e-01
-1.052313819527626038e-01
5.691327154636383057e-02
1.503903567790985107e-01
1.700402945280075073e-01
1.507037431001663208e-01
-1.430255770683288574e-01
1.711888462305068970e-01
-1.492230594158172607e-01
1.022748053073883057e-01
2.446955442428588867e-02
-1.569980569183826447e-02
4.916031658649444580e-02
6.858556717634201050e-02
-1.528380364179611206e-01
-1.117403954267501831e-01
1.110133826732635498e-01
3.034063056111335754e-02
-2.571476064622402191e-02
6.619308143854141235e-02
1.863685064017772675e-02
1.085061356425285339e-01
-2.012670040130615234e-02
1.170374527573585510e-01
-1.096427887678146362e-01
-2.443608827888965607e-02
-5.621525458991527557e-03
1.644393056631088257e-02
-1.106452345848083496e-01
-4.543154314160346985e-02
-3.367564827203750610e-02
-9.069698303937911987e-02
-6.846471130847930908e-02
-1.753826886415481567e-01
-2.604382298886775970e-02
1.631897240877151489e-01
-3.023722395300865173e-02
-1.378035843372344971e-01
-9.687720239162445068e-02
4.812894016504287720e-02
4.154006019234657288e-02
1.625172942876815796e-01
-1.490750014781951904e-01
-1.115705668926239014e-01
-3.598232194781303406e-02
4.183698445558547974e-02
9.960562735795974731e-02
-3.959734365344047546e-02
1.189709007740020752e-01
-1.387293040752410889e-01
-8.557473123073577881e-02
-1.067891716957092285e-01
-4.391549900174140930e-02
4.618076607584953308e-02
5.568083375692367554e-03
2.375394292175769806e-02
-1.403597891330718994e-01
-1.857167109847068787e-02
-5.981038324534893036e-03
1.590624600648880005e-01
8.213600516319274902e-02
-1.499945670366287231e-01
-7.454555481672286987e-02
-8.458347618579864502e-02
4.498739913105964661e-02
-9.208580479025840759e-03
4.865830391645431519e-02
6.293049454689025879e-02
-1.651816368103027344e-01
1.547969579696655273e-01
-6.881497055292129517e-02
-1.109147816896438599e-01
1.465011388063430786e-01
-5.787486955523490906e-02
-1.678997278213500977e-01
1.249018907546997070e-01
-1.587796509265899658e-01
1.322967708110809326e-01
1.601123809814453125e-01
-6.412124633789062500e-02
8.012136816978454590e-02
-1.045375242829322815e-01
-2.325779013335704803e-02
-1.228440701961517334e-01
-8.752986043691635132e-02
-1.547448039054870605e-01
1.298776417970657349e-01
7.398982346057891846e-02
7.328051142394542694e-03
-4.607388004660606384e-02
4.180653393268585205e-02
1.600872427225112915e-01
-1.509306430816650391e-01
7.509949058294296265e-02
-1.194176971912384033e-01
1.002041324973106384e-01
3.377174213528633118e-02
-2.020863443613052368e-02
1.349009573459625244e-01
-8.827973157167434692e-03
1.745073795318603516e-01
-1.200622916221618652e-01
-1.330588664859533310e-02
8.603212982416152954e-02
-1.156297475099563599e-01
1.238119900226593018e-01
8.133801817893981934e-02
2.468665130436420441e-02
-6.408830732107162476e-02
-5.827518180012702942e-03
3.126503899693489075e-02
6.944481283426284790e-02
1.346629559993743896e-01
-4.282920435070991516e-02
-1.503176540136337280e-01
1.575217545032501221e-01
1.524474620819091797e-01
1.271584928035736084e-01
1.117430105805397034e-01
-6.695058196783065796e-02
1.678641140460968018e-01
-8.533415198326110840e-02
1.304520666599273682e-01
7.448507100343704224e-02
-8.860430866479873657e-02
-1.544468253850936890e-01
-9.359550476074218750e-02
-1.140286773443222046e-01
1.285405904054641724e-01
5.129705369472503662e-02
-8.959025144577026367e-02
1.584969311952590942e-01
-7.193586230278015137e-02
1.325225457549095154e-02
-4.299071058630943298e-02
3.012553416192531586e-02
-1.142640262842178345e-01
1.437903940677642822e-01
1.516029685735702515e-01
-5.062852054834365845e-02
1.822659373283386230e-02
-1.306212097406387329e-01
-1.313477009534835815e-01
1.189653798937797546e-01
-3.206338360905647278e-02
2.657527336850762367e-03
4.021498560905456543e-02
-1.288113445043563843e-01
-1.367637664079666138e-01
-5.484027788043022156e-02
1.746035963296890259e-01
8.562523871660232544e-02
9.953547269105911255e-03
3.144685924053192139e-02
-9.018852561712265015e-02
1.396774351596832275e-01
1.205846574157476425e-02
-8.358211070299148560e-02
1.747544705867767334e-01
-1.662709936499595642e-02
1.182623654603958130e-01
-4.861472547054290771e-02
-8.578329533338546753e-02
-1.375889331102371216e-01
-1.250652875751256943e-02
-1.235251203179359436e-01
-8.931616693735122681e-02
4.806889966130256653e-02
1.730376929044723511e-01
-1.669351905584335327e-01
-1.568667590618133545e-01
-1.165140122175216675e-01
1.376819312572479248e-01
7.902076840400695801e-02
4.122191295027732849e-02
-1.893253251910209656e-02
1.162370666861534119e-01
6.659433990716934204e-02
2.652827883139252663e-03
-3.009440936148166656e-02
2.590631879866123199e-02
-5.226152390241622925e-02
-5.065890774130821228e-02
1.286520063877105713e-01
-1.520453859120607376e-02
1.360067576169967651e-01
-6.088143587112426758e-02
7.354342192411422729e-02
1.396700590848922729e-01
1.766304075717926025e-01
-2.958472631871700287e-02
-3.746589273214340210e-02
-9.641803801059722900e-02
1.351498067378997803e-01
8.673030883073806763e-02
1.298926621675491333e-01
1.618000864982604980e-01
-3.875533491373062134e-02
-5.616082251071929932e-02
5.809824913740158081e-02
1.420418322086334229e-01
-1.418998390436172485e-01
6.547706574201583862e-02
4.143450409173965454e-02
-5.434640124440193176e-02
-1.194723844528198242e-01
6.417234987020492554e-02
1.671554148197174072e-01
4.072919487953186035e-02
6.806755810976028442e-02
1.072745397686958313e-01
-2.136878855526447296e-02
-1.553358882665634155e-01
-1.899269782006740570e-02
6.994817405939102173e-02
1.075108945369720459e-01
-1.199849545955657959e-01
-1.024562716484069824e-01
1.197893694043159485e-01
2.880427241325378418e-02
9.311167895793914795e-02
-1.688074618577957153e-01
6.192417070269584656e-02
-1.072914823889732361e-01
-7.548885792493820190e-02
1.179528050124645233e-02
9.678960777819156647e-03
9.366080909967422485e-02
-1.225417256355285645e-01
-8.033210411667823792e-03
-6.394799798727035522e-02
1.345899105072021484e-01
-9.862265735864639282e-02
3.578056767582893372e-02
-1.301291286945343018e-01
-1.686012148857116699e-01
1.049996837973594666e-01
-2.429837360978126526e-02
1.399793922901153564e-01
-7.386083155870437622e-02
1.063658297061920166e-01
1.402393132448196411e-01
1.141454651951789856e-02
1.728664189577102661e-01
-5.997454281896352768e-03
1.292476058006286621e-01
1.234389469027519226e-01
4.806483536958694458e-02
-8.765265345573425293e-02
8.469851687550544739e-03
9.983861446380615234e-02
-1.553886681795120239e-01
-1.451487690210342407e-01
1.304266452789306641e-01
1.222506389021873474e-01
8.013019710779190063e-02
-3.748397529125213623e-02
1.290906369686126709e-01
-1.945572160184383392e-02
1.135146915912628174e-01
-1.250677406787872314e-01
-2.114873938262462616e-02
1.734246909618377686e-01
-7.598496973514556885e-02
1.063744947314262390e-01
9.652675688266754150e-02
1.108236610889434814e-02
4.655905440449714661e-02
2.213748358190059662e-02
-5.724077299237251282e-02
-9.405755996704101562e-02
-9.919989854097366333e-02
1.721802353858947754e-01
3.598691895604133606e-02
1.413369271904230118e-02
-3.820384293794631958e-02
-7.855284959077835083e-02
1.359283030033111572e-01
-1.199988424777984619e-01
1.739275604486465454e-01
-1.362707316875457764e-01
-1.344410330057144165e-01
-8.696290105581283569e-02
3.301883116364479065e-02
1.958075165748596191e-02
1.493393443524837494e-02
-1.380941458046436310e-02
-7.363730669021606445e-02
-1.266464591026306152e-01
-1.230921447277069092e-01
-1.552785485982894897e-01
-1.358274929225444794e-02
2.874695323407649994e-02
-2.792645990848541260e-02
-6.551853567361831665e-02
-3.976504504680633545e-02
-2.261540852487087250e-02
-8.782497048377990723e-02
1.644655615091323853e-01
8.740630000829696655e-02
5.958763416856527328e-03
-6.707693636417388916e-02
-1.583759635686874390e-01
-7.914187759160995483e-02
4.002879932522773743e-02
-6.033268570899963379e-02
4.815627261996269226e-02
-1.345808655023574829e-01
5.818559974431991577e-02
2.729644812643527985e-02
3.511824831366539001e-02
-3.866130427923053503e-04
1.415394991636276245e-01
-8.289007842540740967e-02
-1.748781204223632812e-01
-1.257671266794204712e-01
-1.042080596089363098e-01
1.413567811250686646e-01
-9.510128200054168701e-02
-9.145043790340423584e-03
-4.772791266441345215e-02
7.071703672409057617e-02
1.497755199670791626e-01
-1.318927258253097534e-01
-2.366225235164165497e-02
1.394247263669967651e-02
-1.265722662210464478e-01
4.820805042982101440e-02
-1.742893308401107788e-01
1.946920901536941528e-02
1.341061890125274658e-01
-1.550686061382293701e-01
3.382533043622970581e-02
-6.540453433990478516e-02
7.766694575548171997e-02
-1.217942535877227783e-01
-6.561366468667984009e-02
-1.329407244920730591e-01
1.345160305500030518e-01
-4.481269791722297668e-02
-9.926682710647583008e-02
8.434932678937911987e-02
-3.955426812171936035e-02
3.763523697853088379e-02
-2.880216576159000397e-02
1.551692634820938110e-01
3.279408439993858337e-02
5.442357063293457031e-02
7.659683935344219208e-03
-8.971228450536727905e-02
-1.197731047868728638e-01
-1.242889910936355591e-01
-1.446586400270462036e-01
2.106402441859245300e-02
-6.694689393043518066e-03
1.261016875505447388e-01
4.071905836462974548e-02
1.743758320808410645e-01
7.348564267158508301e-02
1.926178298890590668e-02
1.328184176236391068e-02
-2.566321636550128460e-04
-1.292484700679779053e-01
-1.157308220863342285e-01
-1.160130128264427185e-01
1.624437272548675537e-01
1.100546959787607193e-02
-1.239087581634521484e-01
-1.758859679102897644e-02
-1.294731348752975464e-01
-8.353718370199203491e-02
9.118514508008956909e-02
1.131440773606300354e-01
-1.647553294897079468e-01
1.136363521218299866e-01
1.679608076810836792e-01
-1.561660617589950562e-01
1.853512949310243130e-03
9.296581149101257324e-02
3.118940442800521851e-02
-1.472679376602172852e-01
1.161119714379310608e-01
-6.512512266635894775e-02
-1.782965473830699921e-02
6.723562628030776978e-02
-8.841456472873687744e-02
-3.256004303693771362e-02
-7.729659974575042725e-02
-1.482635438442230225e-01
1.027093008160591125e-01
-1.021089591085910797e-02
1.425487697124481201e-01
5.711549147963523865e-02
4.474353790283203125e-02
1.093490868806838989e-01
-1.270893365144729614e-01
-1.469364762306213379e-01
1.011970266699790955e-01
-5.759851261973381042e-02
-1.575107723474502563e-01
4.976767301559448242e-02
-1.055953428149223328e-01
1.055365949869155884e-01
7.005486637353897095e-02
-1.434484422206878662e-01
4.175909562036395073e-04
-7.939521968364715576e-02
1.718087345361709595e-01
1.896365731954574585e-02
1.702923625707626343e-01
4.222437739372253418e-02
3.971413243561983109e-03
-5.186159163713455200e-02
2.132877148687839508e-02
6.309804320335388184e-02
2.511745691299438477e-02
1.250800043344497681e-01
8.763665705919265747e-02
-7.256504893302917480e-02
4.651216417551040649e-02
5.286795087158679962e-03
9.890124201774597168e-02
1.353338658809661865e-01
-9.284992516040802002e-02
-5.302608758211135864e-02
-9.499087929725646973e-02
9.233350306749343872e-02
1.485819667577743530e-01
-5.554528906941413879e-02
4.899143427610397339e-02
-7.407338172197341919e-02
-1.566735059022903442e-01
2.980618737637996674e-02
5.331647768616676331e-02
4.323278367519378662e-02
1.462459564208984375e-01
1.061783805489540100e-01
-1.563914418220520020e-01
1.239886507391929626e-02
-7.463867217302322388e-02
1.282836217433214188e-02
-3.097201138734817505e-02
1.253902465105056763e-01
-1.208669394254684448e-01
1.212452054023742676e-01
1.359632052481174469e-02
-1.488739997148513794e-01
-7.193539757281541824e-03
1.399654708802700043e-02
-1.739517003297805786e-01
-3.488479927182197571e-02
1.001519709825515747e-01
-7.862315326929092407e-02
7.075442373752593994e-02
1.104558482766151428e-01
-6.437615025788545609e-03
6.149768829345703125e-02
9.970894455909729004e-02
-2.711517445277422667e-04
1.502815186977386475e-01
-1.647300720214843750e-01
1.659856438636779785e-01
-9.114886075258255005e-02
4.613846912980079651e-02
-4.829010739922523499e-02
9.550751745700836182e-02
-1.179306954145431519e-01
-3.618917986750602722e-02
-1.327910125255584717e-01
6.016586720943450928e-02
1.057673916220664978e-01
1.592410355806350708e-01
-2.184051834046840668e-02
-9.635110944509506226e-02
-1.402677297592163086e-01
-1.071615442633628845e-01
-1.621990054845809937e-01
1.206557825207710266e-01
-2.158386446535587311e-02
-6.605220586061477661e-02
-1.265510171651840210e-01
1.429181247949600220e-01
8.591952919960021973e-02
-1.652023494243621826e-01
-8.690498769283294678e-02
1.368571817874908447e-01
1.624098420143127441e-01
3.303128480911254883e-02
-1.511619091033935547e-01
1.175581589341163635e-01
1.712483167648315430e-01
1.106637157499790192e-02
-8.243990689516067505e-02
-1.601989269256591797e-01
1.431002020835876465e-01
1.078079715371131897e-01
1.385077983140945435e-01
1.546641588211059570e-01
6.155132129788398743e-02
8.326986432075500488e-02
9.467901289463043213e-02
-1.259444504976272583e-01
-1.619481295347213745e-01
6.524121016263961792e-02
6.327968090772628784e-02
-1.056220009922981262e-01
8.914601802825927734e-02
1.306623071432113647e-01
-1.685429066419601440e-01
-1.680310517549514771e-01
6.724348664283752441e-02
5.251745879650115967e-02
-1.338744014501571655e-01
1.424609776586294174e-02
-4.062913823872804642e-03
1.173159573227167130e-02
-1.618632674217224121e-01
-8.158070035278797150e-03
-1.294640898704528809e-01
-4.694994539022445679e-02
1.225090622901916504e-01
-1.226579695940017700e-01
-7.021131366491317749e-02
1.659589856863021851e-01
8.132761344313621521e-03
2.852601930499076843e-02
-3.050089441239833832e-02
1.659663170576095581e-01
1.062087267637252808e-01
-5.591654032468795776e-02
-1.060189008712768555e-01
-1.663539409637451172e-01
-7.443472743034362793e-02
-6.300403922796249390e-02
-1.492635458707809448e-01
-1.978796534240245819e-02
9.506683051586151123e-02
1.566797643899917603e-01
-1.098984107375144958e-01
8.609361946582794189e-02
3.219886496663093567e-02
-1.423850059509277344e-01
1.442241668701171875e-01
-4.580241069197654724e-02
-6.881901621818542480e-02
1.706825196743011475e-02
1.511809527873992920e-01
-6.279575079679489136e-02
9.373024851083755493e-02
1.405591052025556564e-02
1.136432662606239319e-01
1.205116212368011475e-01
1.507081985473632812e-01
1.712510711513459682e-03
-4.113873839378356934e-02
-5.909715220332145691e-02
-1.164267659187316895e-01
1.131682693958282471e-01
1.274925917387008667e-01
1.505779176950454712e-01
-1.098055019974708557e-01
-1.394466403871774673e-02
-5.564591288566589355e-02
6.840193271636962891e-02
-4.118168435525149107e-04
1.235724315047264099e-01
-9.054219722747802734e-02
1.543518751859664917e-01
-1.662425994873046875e-01
-1.359389722347259521e-01
9.949111193418502808e-02
9.320370852947235107e-02
2.423332072794437408e-02
1.707244664430618286e-01
5.319749936461448669e-02
-9.800480306148529053e-02
5.141609907150268555e-02
8.174960315227508545e-02
-1.020615454763174057e-02
1.254681944847106934e-01
3.405364230275154114e-02
3.638012707233428955e-02
1.483578532934188843e-01
1.933610998094081879e-02
9.748645871877670288e-02
4.904839443042874336e-04
-8.934544026851654053e-02
-1.716187447309494019e-01
-7.332626730203628540e-02
1.174309775233268738e-01
1.577996462583541870e-01
-1.018122397363185883e-02
-1.440402213484048843e-02
-5.249621719121932983e-02
-8.426394313573837280e-02
8.122247457504272461e-02
-3.226235881447792053e-02
1.689447611570358276e-01
1.133875995874404907e-01
-9.157548844814300537e-02
-1.354271620512008667e-01
9.277141094207763672e-02
1.314713656902313232e-01
-5.267536267638206482e-02
-3.232989832758903503e-02
-1.061537936329841614e-01
3.496053814888000488e-02
-1.303609013557434082e-01
4.311938770115375519e-03
1.467464771121740341e-02
-2.535999007523059845e-02
-1.125539764761924744e-01
-1.494546681642532349e-01
-1.541723459959030151e-01
-8.729790151119232178e-02
-1.633823215961456299e-01
2.996210940182209015e-02
5.676577612757682800e-02
2.543760277330875397e-02
6.174719706177711487e-02
-3.176437318325042725e-02
-1.406883895397186279e-01
2.239337936043739319e-02
3.430292010307312012e-02
-1.696945913136005402e-02
-6.459425785578787327e-04
-1.202636882662773132e-01
1.140363439917564392e-01
1.147333905100822449e-01
-1.061332672834396362e-01
1.185336858034133911e-01
1.148604005575180054e-01
-8.492336608469486237e-03
4.394354671239852905e-02
5.598802119493484497e-02
-3.044028766453266144e-02
1.543635427951812744e-01
-1.274219900369644165e-01
1.210196763277053833e-01
-3.744652494788169861e-02
3.214188292622566223e-02
7.577560842037200928e-02
9.978188574314117432e-02
1.073334589600563049e-01
1.402814835309982300e-01
-1.424036771059036255e-01
1.624895781278610229e-01
-1.915125362575054169e-02
5.822121351957321167e-02
1.646824181079864502e-01
4.680811986327171326e-02
6.262642145156860352e-02
-2.036527171730995178e-02
6.291297823190689087e-02
3.765654191374778748e-02
-1.057689860463142395e-01
-1.107914000749588013e-01
5.674556642770767212e-02
1.392242759466171265e-01
-1.013712212443351746e-01
5.793459340929985046e-02
-9.811299294233322144e-02
-1.207331866025924683e-01
1.751758307218551636e-01
-1.638963371515274048e-01
5.216808244585990906e-02
1.430255174636840820e-01
-4.530392214655876160e-02
-1.064352914690971375e-01
-8.643433451652526855e-03
8.168636262416839600e-02
-1.669971346855163574e-01
1.666087210178375244e-01
1.124678328633308411e-01
-4.574197344481945038e-03
1.102326363325119019e-01
