1.319081932306289673e-01
-1.350452005863189697e-01
-1.141758111771196127e-04
-9.991409629583358765e-02
-1.063522398471832275e-01
1.741080582141876221e-01
3.589598461985588074e-02
3.812976926565170288e-02
1.325707584619522095e-01
-4.370290786027908325e-02
1.252404134720563889e-02
-6.342801451683044434e-02
-1.193302050232887268e-01
-1.312351673841476440e-01
2.545218542218208313e-02
1.200269758701324463e-01
-7.963478565216064453e-02
-7.398668676614761353e-02
-6.045122281648218632e-04
1.676541715860366821e-01
1.441965103149414062e-01
-1.491127014160156250e-01
-1.505762338638305664e-01
-1.252726912498474121e-01
4.769103229045867920e-02
-1.163643077015876770e-01
1.755944490432739258e-01
1.484541296958923340e-01
9.429872781038284302e-02
-1.252344697713851929e-01
-7.039806991815567017e-02
1.608174890279769897e-01
-7.696623355150222778e-02
7.216231524944305420e-02
1.378730237483978271e-01
-1.072996556758880615e-01
9.964162111282348633e-02
-1.614704132080078125e-01
-1.503810286521911621e-01
2.246264740824699402e-02
-1.427267342805862427e-01
2.024338394403457642e-02
-8.705993741750717163e-02
1.164821684360504150e-01
-1.505552679300308228e-01
-7.809853181242942810e-03
1.951420097611844540e-03
7.622223347425460815e-02
-8.691070228815078735e-02
3.260608762502670288e-02
2.583884075284004211e-02
5.352721363306045532e-02
1.145844012498855591e-01
5.776423588395118713e-02
1.310974955558776855e-01
-1.237682029604911804e-01
-6.530396640300750732e-02
2.817350253462791443e-02
2.979828417301177979e-02
-1.326889544725418091e-01
-1.672740578651428223e-01
1.422844082117080688e-01
-8.436951786279678345e-02
-1.998095586895942688e-02
1.515243649482727051e-01
1.000979021191596985e-01
-2.445459179580211639e-02
4.779694974422454834e-02
-2.169313095510005951e-02
1.643276065587997437e-01
9.058442711830139160e-02
3.626432642340660095e-02
7.386034727096557617e-02
-1.351944403722882271e-03
-9.754411876201629639e-02
-1.218296140432357788e-01
-1.674424558877944946e-01
-1.278761476278305054e-01
-1.098541542887687683e-01
9.098578989505767822e-02
3.948573768138885498e-02
1.407533586025238037e-01
-9.900347143411636353e-02
1.426047086715698242e-01
1.184484288096427917e-01
1.145076751708984375e-01
-1.015935614705085754e-01
-6.018987298011779785e-02
7.295813411474227905e-02
4.737177118659019470e-02
-9.667134284973144531e-02
-5.043869093060493469e-02
1.178619712591171265e-01
1.490893512964248657e-01
-7.522913068532943726e-02
6.801540404558181763e-02
1.216258108615875244e-01
1.558307260274887085e-01
1.462766379117965698e-01
2.508584596216678619e-02
-1.216527447104454041e-01
-1.389648318290710449e-01
7.021768391132354736e-02
1.171914208680391312e-02
-1.027528345584869385e-01
9.006507694721221924e-03
-1.213959902524948120e-01
-1.410901397466659546e-01
2.217360399663448334e-02
-9.026558697223663330e-02
7.131390273571014404e-02
-2.356198430061340332e-02
1.143874898552894592e-01
-1.071143150329589844e-02
5.310728400945663452e-02
-1.262408792972564697e-01
1.356385052204132080e-01
-2.040967345237731934e-02
-1.426616031676530838e-02
-8.956883847713470459e-02
-8.326105773448944092e-02
9.176812320947647095e-02
2.006708271801471710e-02
4.128937050700187683e-02
-2.078437991440296173e-02
1.391745656728744507e-01
-7.158793509006500244e-02
-1.403997689485549927e-01
1.615759283304214478e-01
-1.682773232460021973e-01
1.034334227442741394e-01
-5.037359520792961121e-02
-8.589297533035278320e-02
-4.288911819458007812e-02
-1.453628093004226685e-01
2.031821571290493011e-02
1.378613412380218506e-01
-3.502734005451202393e-02
1.460962593555450439e-01
-1.381892710924148560e-01
-1.075932309031486511e-01
5.949002131819725037e-02
-1.635197103023529053e-01
8.468070626258850098e-02
-4.356403369456529617e-03
1.825344190001487732e-02
3.436375781893730164e-02
-3.903457522392272949e-02
-8.244527876377105713e-02
4.061280936002731323e-02
1.889898441731929779e-02
2.721021510660648346e-02
-1.085085794329643250e-01
-5.216283723711967468e-02
-1.763620674610137939e-01
3.068461269140243530e-02
1.000491753220558167e-01
-6.188495457172393799e-02
1.736987568438053131e-02
9.419848024845123291e-02
-1.713464707136154175e-01
1.596226990222930908e-01
1.212703511118888855e-01
1.508714854717254639e-01
-1.350040435791015625e-01
-7.241951674222946167e-02
9.866562485694885254e-02
-1.020333077758550644e-02
-1.562684327363967896e-01
-6.835965905338525772e-03
-6.135559082031250000e-02
-1.043437123298645020e-01
6.411041133105754852e-03
8.258774131536483765e-02
4.130233079195022583e-02
-6.062136963009834290e-02
-1.726482412777841091e-03
1.312648784369230270e-02
1.183029338717460632e-01
5.380706861615180969e-02
-9.858611226081848145e-02
7.869753986597061157e-02
1.561321169137954712e-01
1.080643460154533386e-01
1.652499735355377197e-01
-3.471471369266510010e-02
1.559370197355747223e-03
2.431009197607636452e-03
5.062230676412582397e-02
1.100235208868980408e-01
1.707783341407775879e-01
1.689192205667495728e-01
1.981281209737062454e-03
1.340156793594360352e-01
-1.603259146213531494e-01
-1.526030302047729492e-01
3.565892949700355530e-02
-9.461971372365951538e-02
1.945414207875728607e-02
6.348451226949691772e-02
6.568185985088348389e-02
7.683916389942169189e-02
4.306691233068704605e-03
1.731465160846710205e-01
-8.374863117933273315e-02
7.309932261705398560e-02
6.342862546443939209e-02
1.531336754560470581e-01
1.458528786897659302e-01
-2.258249092847108841e-03
1.105645447969436646e-01
9.989475458860397339e-02
-1.086001172661781311e-01
-1.745809465646743774e-01
8.022831380367279053e-02
1.332945227622985840e-01
1.465280055999755859e-01
-1.435234844684600830e-01
1.357032209634780884e-01
1.520845144987106323e-01
-9.322376921772956848e-03
-1.476973891258239746e-01
-1.036150306463241577e-01
9.205560386180877686e-02
-5.814425274729728699e-02
1.739061176776885986e-01
-8.265995979309082031e-02
6.230496987700462341e-02
-1.048393175005912781e-01
6.285039335489273071e-02
-9.128128737211227417e-02
1.206494644284248352e-01
-1.453428715467453003e-01
1.291386783123016357e-01
-1.661889851093292236e-01
2.232360467314720154e-02
-1.196299269795417786e-01
-1.665031909942626953e-01
3.199129179120063782e-02
-4.536834079772233963e-03
1.425005346536636353e-01
1.061314344406127930e-01
-1.430611461400985718e-01
-9.439142793416976929e-02
5.832894146442413330e-02
-2.908480167388916016e-02
-1.258885413408279419e-01
5.569834634661674500e-02
-1.277571022510528564e-01
1.074407845735549927e-01
2.038982324302196503e-02
-4.593782871961593628e-02
1.244349405169487000e-01
8.111230283975601196e-02
-8.246983587741851807e-02
-6.989407539367675781e-02
4.210885241627693176e-02
9.634438902139663696e-02
-1.440242677927017212e-01
-9.727165848016738892e-02
-5.062238872051239014e-02
1.024588420987129211e-01
1.507257223129272461e-01
-8.822045475244522095e-02
1.031754016876220703e-01
1.494168788194656372e-01
4.744472727179527283e-02
-3.095123358070850372e-02
1.191992312669754028e-01
-4.285537824034690857e-02
1.244107335805892944e-01
-1.031173206865787506e-02
-2.566260471940040588e-02
9.565256536006927490e-02
-1.311651170253753662e-01
1.124891117215156555e-01
6.876363605260848999e-02
-6.557796895503997803e-02
1.729009747505187988e-01
-1.169743598438799381e-03
1.435874849557876587e-01
1.180084794759750366e-01
4.211883991956710815e-02
4.559991881251335144e-02
-1.030532568693161011e-01
-2.182018198072910309e-02
-1.185017004609107971e-01
1.441294103860855103e-01
-1.334754377603530884e-01
-8.593346178531646729e-02
-3.754536062479019165e-02
-4.025356844067573547e-02
-1.107593905180692673e-02
-1.161249130964279175e-01
7.592088729143142700e-02
-9.157939255237579346e-02
3.232355415821075439e-02
-1.442264020442962646e-01
-6.026076152920722961e-02
-5.195119604468345642e-02
1.000410839915275574e-01
7.534103095531463623e-02
4.242756590247154236e-02
-1.556364446878433228e-01
-1.447534561157226562e-01
-9.467551857233047485e-02
-6.488119810819625854e-02
-5.818083509802818298e-02
3.668223321437835693e-02
-9.035382419824600220e-02
-1.674405187368392944e-01
-3.150223940610885620e-02
3.665639832615852356e-02
8.292390406131744385e-02
-1.665181666612625122e-01
9.368517249822616577e-02
4.985129088163375854e-02
-1.464902162551879883e-01
-6.707902532070875168e-03
-1.674212515354156494e-01
7.248798757791519165e-02
1.341048628091812134e-01
-3.661433607339859009e-02
-1.702360212802886963e-01
-1.078621894121170044e-01
-8.233367651700973511e-02
6.212219968438148499e-02
7.758996635675430298e-02
1.516812592744827271e-01
-1.494310200214385986e-01
-1.413910239934921265e-01
-1.353975236415863037e-01
1.241220235824584961e-01
-1.640869490802288055e-02
-4.882212728261947632e-02
1.634976267814636230e-01
4.148389771580696106e-02
1.687973439693450928e-01
-1.271730810403823853e-01
-9.435545653104782104e-02
-1.359977275133132935e-01
1.080473884940147400e-01
2.298410981893539429e-02
1.200318634510040283e-01
4.531258344650268555e-02
8.984072506427764893e-02
-3.324970975518226624e-02
-3.427554294466972351e-02
7.749458402395248413e-02
-1.418723315000534058e-01
1.239450275897979736e-02
-2.121261321008205414e-02
-8.374578319489955902e-03
1.615592092275619507e-01
3.592169657349586487e-02
-1.319650411605834961e-01
4.539215471595525742e-03
9.023159742355346680e-02
-6.565939635038375854e-02
-1.278331875801086426e-01
-1.333280503749847412e-01
-2.641998417675495148e-02
2.187840826809406281e-02
-5.997700989246368408e-02
1.695741117000579834e-01
-5.465093255043029785e-02
-1.237003654241561890e-01
-2.473324537277221680e-02
5.278174206614494324e-02
1.017181947827339172e-01
5.542618036270141602e-02
3.457980230450630188e-02
1.570353657007217407e-02
1.752718836069107056e-01
1.615217924118041992e-01
-1.012453883886337280e-01
1.703891307115554810e-01
1.058803647756576538e-01
1.043130680918693542e-01
1.155116781592369080e-01
-6.291167438030242920e-02
-1.654255986213684082e-01
-1.213383525609970093e-01
-4.380098357796669006e-02
-8.356034010648727417e-02
-6.759408116340637207e-02
1.583867371082305908e-01
-1.499860435724258423e-01
-2.243518829345703125e-02
-2.136807329952716827e-02
-9.693026542663574219e-02
1.148797497153282166e-01
1.137750819325447083e-01
-1.348568499088287354e-02
-1.628492176532745361e-01
9.313026815652847290e-02
-1.279048025608062744e-01
-9.131453931331634521e-02
-1.640672534704208374e-01
1.316648721694946289e-01
-1.398826092481613159e-01
-2.766025997698307037e-02
-1.158222779631614685e-01
-1.408039927482604980e-01
-9.380493313074111938e-02
2.820648252964019775e-02
1.533099412918090820e-01
1.277758181095123291e-01
-9.282168932259082794e-03
1.666305363178253174e-01
-1.296131610870361328e-01
1.154528185725212097e-01
6.404034048318862915e-02
3.312639147043228149e-02
8.074621856212615967e-02
-1.763288229703903198e-01
-1.590289473533630371e-01
-2.889598347246646881e-02
7.935596257448196411e-02
7.712306082248687744e-02
5.599261447787284851e-02
4.305378347635269165e-02
-9.511907398700714111e-02
8.166705816984176636e-02
-1.179742962121963501e-01
9.756969660520553589e-02
-1.741701550781726837e-02
1.194748729467391968e-01
-9.410087019205093384e-02
1.676156967878341675e-01
8.921609073877334595e-02
-1.156482324004173279e-01
-1.585818380117416382e-01
1.539081335067749023e-01
-1.349645555019378662e-01
-1.622453927993774414e-01
-3.476261347532272339e-02
1.100229546427726746e-01
-4.097227752208709717e-02
-1.702027320861816406e-01
-5.622351542115211487e-02
5.789240449666976929e-02
-8.269768208265304565e-02
7.871859520673751831e-02
-1.748588830232620239e-01
-6.393794715404510498e-02
-1.585452556610107422e-01
-1.008468270301818848e-01
9.246626496315002441e-02
1.383334547281265259e-01
-1.230114102363586426e-01
-6.638079881668090820e-02
1.277048289775848389e-01
9.242818504571914673e-02
6.641561537981033325e-02
2.556756325066089630e-02
-9.542143344879150391e-02
1.664103120565414429e-01
-1.443634033203125000e-01
1.275054961442947388e-01
-1.330853700637817383e-01
-1.415023356676101685e-01
9.622620791196823120e-02
-1.478958874940872192e-01
1.854256913065910339e-02
9.507422335445880890e-03
5.148831754922866821e-02
5.877898260951042175e-02
-2.736664377152919769e-02
-1.311474442481994629e-01
-1.179739758372306824e-01
-1.319409012794494629e-01
1.109761074185371399e-01
6.381347030401229858e-02
1.194666698575019836e-01
-4.312783852219581604e-02
-8.928436785936355591e-02
-8.141689747571945190e-02
1.636178791522979736e-01
-1.287969946861267090e-01
-6.397640705108642578e-02
1.423021554946899414e-01
-1.108643338084220886e-01
9.247201681137084961e-02
-1.067146360874176025e-01
-6.534226238727569580e-02
4.762121662497520447e-02
-7.674597203731536865e-02
6.723821163177490234e-02
4.539582133293151855e-02
1.117588579654693604e-01
1.258542761206626892e-02
1.187014952301979065e-01
-1.392501443624496460e-01
-1.348412483930587769e-01
-2.829545550048351288e-02
1.726210564374923706e-01
1.117077991366386414e-01
1.066879630088806152e-01
6.021227315068244934e-02
8.787154220044612885e-03
3.114340081810951233e-02
7.762277871370315552e-02
4.689254239201545715e-02
-4.566387459635734558e-02
5.560242012143135071e-02
5.076649039983749390e-02
1.535499244928359985e-01
8.594972640275955200e-02
1.682922095060348511e-01
3.326730802655220032e-02
4.751243814826011658e-02
1.304393261671066284e-01
1.167763099074363708e-01
1.334850490093231201e-01
-9.580393880605697632e-02
9.665199369192123413e-02
-9.810645878314971924e-02
-1.058004498481750488e-01
5.300745833665132523e-03
-2.975563146173954010e-02
-1.255572140216827393e-01
-1.403897106647491455e-01
-9.637854248285293579e-02
1.041580289602279663e-01
1.288197338581085205e-01
4.732783511281013489e-02
-1.413506716489791870e-01
-1.581178456544876099e-01
-1.500998884439468384e-01
-5.139293894171714783e-02
6.797928363084793091e-02
-1.550011932849884033e-01
-2.286287397146224976e-02
1.362704932689666748e-01
-7.280897349119186401e-02
-4.243730381131172180e-02
-9.982946515083312988e-02
8.263839781284332275e-02
-1.021455228328704834e-01
9.111419320106506348e-02
-5.385960265994071960e-02
-1.781650446355342865e-02
-1.470436062663793564e-02
3.146879747509956360e-02
1.354343295097351074e-01
1.759706810116767883e-02
-4.379900544881820679e-02
-3.745337482541799545e-03
6.507096439599990845e-02
1.608583182096481323e-01
-1.397691518068313599e-01
-1.395710557699203491e-01
-2.000932209193706512e-02
2.887212857604026794e-02
-1.043630987405776978e-01
1.433021277189254761e-01
-1.073749288916587830e-01
-6.500445306301116943e-02
3.396898880600929260e-02
-8.661649376153945923e-02
1.586790084838867188e-01
-1.761502921581268311e-01
-2.318224124610424042e-02
1.508963555097579956e-01
-1.090287938714027405e-01
-9.423961490392684937e-02
3.298138454556465149e-02
-7.128612697124481201e-02
4.435287788510322571e-02
-1.648472845554351807e-01
5.463561043143272400e-02
-1.622629016637802124e-01
5.962630361318588257e-02
-6.329767405986785889e-02
8.118886500597000122e-02
5.376492068171501160e-02
-9.084525704383850098e-02
4.994026198983192444e-02
2.139829099178314209e-02
-1.010375842452049255e-01
-6.473475694656372070e-02
1.029931753873825073e-01
-1.590427458286285400e-01
-1.504215896129608154e-01
1.143264397978782654e-01
8.753025531768798828e-02
1.718010604381561279e-01
-1.236933693289756775e-01
1.068227887153625488e-01
1.488909721374511719e-01
2.381086116656661034e-03
-6.096408888697624207e-02
1.666457056999206543e-01
2.498410269618034363e-02
-1.292830556631088257e-01
-7.522228360176086426e-02
3.624677285552024841e-02
-2.797338925302028656e-02
1.540255993604660034e-01
1.739993244409561157e-01
5.326137319207191467e-02
1.125094071030616760e-01
3.549504280090332031e-02
6.117678061127662659e-02
-3.112024255096912384e-02
7.937271147966384888e-02
-3.976671025156974792e-02
-2.681072615087032318e-02
-3.049663640558719635e-02
-9.246044605970382690e-02
1.481255441904067993e-01
-8.017068356275558472e-02
-1.176699101924896240e-01
-6.749469786882400513e-02
1.664712429046630859e-01
-4.589566215872764587e-02
6.522245705127716064e-02
-1.412469893693923950e-01
-1.595586091279983521e-01
-9.480366855859756470e-02
-9.744673967361450195e-02
-6.093205511569976807e-02
-6.482625752687454224e-02
-1.561492681503295898e-01
-1.320896744728088379e-01
9.059167653322219849e-02
-1.420112550258636475e-01
5.523424595594406128e-02
5.627253279089927673e-02
-1.075071245431900024e-01
8.073949068784713745e-02
8.435086905956268311e-02
-1.407058984041213989e-01
-3.855722025036811829e-02
1.247738227248191833e-01
1.662204228341579437e-02
1.066103279590606689e-01
1.290883421897888184e-01
1.458195447921752930e-01
-2.448780275881290436e-02
-7.062385231256484985e-02
-2.155777625739574432e-02
-4.764372482895851135e-02
4.499637335538864136e-02
-8.916892856359481812e-02
9.146060049533843994e-02
-1.585556566715240479e-01
4.894557595252990723e-02
-1.250188946723937988e-01
1.144388914108276367e-01
4.185091331601142883e-02
1.723355799913406372e-01
-2.391393110156059265e-02
1.463262736797332764e-01
1.106856912374496460e-01
-1.088460460305213928e-01
-1.582233905792236328e-01
1.380929201841354370e-01
1.691573858261108398e-01
1.217361986637115479e-01
-8.538298308849334717e-03
6.750877946615219116e-02
1.730235368013381958e-01
-2.865745499730110168e-02
-5.231810361146926880e-02
3.715242445468902588e-02
-1.448976546525955200e-01
1.725596487522125244e-01
5.275293439626693726e-02
-1.156275793910026550e-01
2.002316713333129883e-02
-6.005274504423141479e-02
9.187757968902587891e-02
5.032919347286224365e-02
1.024813055992126465e-01
3.680728375911712646e-02
-8.219499140977859497e-02
-7.493534684181213379e-02
-1.466811597347259521e-01
1.552726328372955322e-01
1.031809579581022263e-02
1.439693272113800049e-01
-1.669063605368137360e-02
-1.403742879629135132e-01
-8.541247993707656860e-02
1.250367164611816406e-01
1.145267859101295471e-01
1.387567222118377686e-01
-5.144992098212242126e-02
1.677292771637439728e-02
-1.532530337572097778e-01
7.123565673828125000e-02
7.506709545850753784e-02
3.762693703174591064e-02
-7.487718015909194946e-02
-3.526763990521430969e-03
-1.090702489018440247e-01
1.428888142108917236e-01
3.081853315234184265e-02
-1.724252998828887939e-01
1.119455248117446899e-01
-4.431043565273284912e-02
1.465375870466232300e-01
-1.530710905790328979e-01
4.405494034290313721e-02
-1.160053387284278870e-01
4.876771569252014160e-02
-5.709928460419178009e-03
1.760198026895523071e-01
5.547743290662765503e-02
-6.866842508316040039e-02
1.300116032361984253e-01
-1.706894487142562866e-01
-1.083635687828063965e-01
1.641317158937454224e-01
-1.177343949675559998e-01
1.460556238889694214e-01
9.777396172285079956e-02
-1.560850590467453003e-01
1.352050453424453735e-01
-1.086845621466636658e-01
1.227235049009323120e-01
5.327926203608512878e-02
1.238001883029937744e-01
8.487207442522048950e-02
8.762706816196441650e-02
-8.441621810197830200e-02
1.237220689654350281e-02
-1.129530668258666992e-01
-1.629103124141693115e-01
-1.018040031194686890e-01
-4.213209822773933411e-02
4.615966975688934326e-02
1.301351934671401978e-01
1.435512006282806396e-01
1.111388579010963440e-01
-1.365516930818557739e-01
1.153753325343132019e-01
1.075160428881645203e-01
-8.800748735666275024e-02
3.399828076362609863e-02
1.471370458602905273e-01
9.927310980856418610e-03
2.897132188081741333e-03
-7.123380154371261597e-02
1.480273157358169556e-02
1.035485863685607910e-01
6.508046388626098633e-02
1.225529834628105164e-01
1.208100169897079468e-01
-1.416194587945938110e-01
-1.300531029701232910e-01
4.723146557807922363e-02
-1.580627262592315674e-01
1.435745805501937866e-01
9.982280433177947998e-02
1.603438705205917358e-01
-6.065173819661140442e-02
-2.244559861719608307e-02
-1.047925949096679688e-01
1.228494644165039062e-01
5.057792365550994873e-02
9.369724988937377930e-02
-1.001153662800788879e-01
-3.874384984374046326e-02
-3.312917053699493408e-02
-1.499157845973968506e-01
-1.113235205411911011e-01
-2.220521494746208191e-02
8.809561282396316528e-02
1.116712987422943115e-01
8.914772421121597290e-02
7.613288611173629761e-02
-1.563646346330642700e-01
4.048788547515869141e-02
-1.084337458014488220e-01
1.236382201313972473e-01
5.360632389783859253e-02
-4.466056823730468750e-02
-1.545300036668777466e-01
8.494317531585693359e-03
5.513315647840499878e-02
1.034184619784355164e-01
3.789633745327591896e-03
7.868909090757369995e-02
1.691184043884277344e-01
1.350530683994293213e-01
1.294432282447814941e-01
1.024747919291257858e-02
-1.706443727016448975e-01
-3.560278937220573425e-02
5.019124969840049744e-02
1.390677988529205322e-01
-1.598102003335952759e-01
6.070395559072494507e-02
-1.075648069381713867e-01
1.562405377626419067e-01
-1.301677972078323364e-01
-1.187180802226066589e-01
1.030320972204208374e-01
-1.441534459590911865e-01
-1.030912548303604126e-01
7.173880189657211304e-02
2.622850984334945679e-02
2.374549210071563721e-02
-8.789461851119995117e-02
-8.711245656013488770e-02
-1.576059609651565552e-01
-7.668285816907882690e-02
1.464073359966278076e-01
-1.466821581125259399e-01
-4.998097568750381470e-02
4.238687455654144287e-03
5.992409214377403259e-02
-1.073670536279678345e-01
-1.439755260944366455e-01
-2.252420224249362946e-02
-1.141510456800460815e-01
-1.114584580063819885e-01
3.731017932295799255e-02
6.298235151916742325e-03
-7.444582879543304443e-02
-7.775872200727462769e-02
-1.372014135122299194e-01
-2.436922304332256317e-02
1.308746039867401123e-01
-1.375119239091873169e-01
-2.887238189578056335e-02
-1.260262355208396912e-02
-5.680998787283897400e-02
1.064773276448249817e-01
-5.962369218468666077e-02
-1.663675159215927124e-01
-7.249274849891662598e-02
-5.330653116106987000e-02
-1.718501001596450806e-01
-1.191733330488204956e-01
-9.990657679736614227e-03
-1.715420931577682495e-02
1.579325646162033081e-01
1.079331040382385254e-01
1.381102204322814941e-01
2.322139590978622437e-02
7.511358708143234253e-02
-6.671445816755294800e-02
-1.502872258424758911e-01
3.411159291863441467e-02
7.342284172773361206e-02
1.240468993782997131e-01
-1.206632032990455627e-01
-5.699962750077247620e-02
1.129070669412612915e-01
-2.530222758650779724e-03
-1.382540166378021240e-01
-1.097539719194173813e-02
-8.242237381637096405e-03
5.418324843049049377e-02
5.190721526741981506e-02
-1.106738299131393433e-02
-1.624711900949478149e-01
-1.058262065052986145e-01
6.106404121965169907e-03
1.670136451721191406e-01
1.107451170682907104e-01
1.611545681953430176e-01
-4.156037420034408569e-02
-4.961529001593589783e-02
-3.124116174876689911e-02
1.275687664747238159e-01
2.636192552745342255e-02
-3.947595879435539246e-02
-9.856090694665908813e-02
-1.441922038793563843e-01
-1.482823938131332397e-01
-1.236447095870971680e-01
1.448215395212173462e-01
-9.449083358049392700e-02
-4.035773500800132751e-02
-4.708005115389823914e-02
-1.207407116889953613e-01
6.698714569211006165e-03
1.268679350614547729e-01
-1.413387656211853027e-01
-7.684025913476943970e-02
2.439575456082820892e-02
-4.258719831705093384e-02
1.597035974264144897e-01
-3.316948562860488892e-02
-4.140188172459602356e-02
1.966984942555427551e-02
4.945051670074462891e-02
1.384961009025573730e-01
5.501151829957962036e-02
-3.300184756517410278e-02
-1.508815288543701172e-01
1.515015363693237305e-01
-8.892238885164260864e-02
2.751108072698116302e-02
6.881939619779586792e-02
-4.796172305941581726e-02
-2.747972309589385986e-02
-1.453765332698822021e-01
1.479135602712631226e-01
-3.109014965593814850e-02
1.562890410423278809e-01
-1.440848559141159058e-01
-1.864407956600189209e-02
-2.005882374942302704e-02
-6.686568260192871094e-02
-2.003903500735759735e-02
3.161163255572319031e-02
-9.008821099996566772e-02
-5.195673555135726929e-02
-3.928189352154731750e-02
1.108865216374397278e-01
-9.525516629219055176e-02
-1.146252453327178955e-01
6.424429267644882202e-02
-9.690150618553161621e-02
-7.218083739280700684e-02
3.747990727424621582e-02
-7.081878185272216797e-02
7.530514150857925415e-02
-6.254372745752334595e-02
-2.145116589963436127e-02
-1.211443468928337097e-01
2.587289549410343170e-03
-1.081177070736885071e-01
7.890068739652633667e-02
-6.484521925449371338e-02
9.635081142187118530e-02
-7.543230056762695312e-02
-4.577295109629631042e-02
-1.163016781210899353e-01
1.534340381622314453e-01
-1.426437497138977051e-01
8.432345092296600342e-02
-1.563091725111007690e-01
4.426141828298568726e-02
-1.564368754625320435e-01
5.788587033748626709e-02
8.577328175306320190e-02
-9.755104780197143555e-02
-8.193789422512054443e-02
-1.508914232254028320e-01
1.090950742363929749e-01
-1.658941805362701416e-01
8.441181480884552002e-02
-2.175930142402648926e-02
-1.470662355422973633e-01
9.927476942539215088e-02
1.634987294673919678e-01
-2.959364093840122223e-02
6.665104627609252930e-02
1.572671681642532349e-01
6.194115802645683289e-02
-1.311031281948089600e-01
-1.107492074370384216e-01
-6.796374917030334473e-02
1.459690332412719727e-01
-3.936437517404556274e-02
1.691083312034606934e-01
-9.435183368623256683e-03
-9.805763512849807739e-02
1.440653651952743530e-01
-1.693142205476760864e-02
7.265682518482208252e-02
-1.221899911761283875e-01
1.145530492067337036e-01
-7.861982285976409912e-02
8.632500469684600830e-02
1.000714302062988281e-01
-3.179636225104331970e-02
-6.850150227546691895e-02
5.648941732943058014e-04
2.605722472071647644e-02
5.618339031934738159e-02
-1.238186731934547424e-01
-1.627383083105087280e-01
4.638353362679481506e-02
-1.494881063699722290e-01
-8.251614868640899658e-03
8.212085813283920288e-02
4.950813204050064087e-02
-9.196178615093231201e-02
-9.175672382116317749e-02
7.938896119594573975e-02
-1.040206775069236755e-01
2.312498539686203003e-02
4.779842495918273926e-02
1.664287000894546509e-01
4.308482632040977478e-03
-3.579715266823768616e-02
-1.702729463577270508e-01
8.861380815505981445e-02
-1.434122771024703979e-01
-9.005192667245864868e-02
-2.548729442059993744e-02
-1.089664641767740250e-03
3.430093824863433838e-02
4.827647283673286438e-02
-3.568366914987564087e-02
-4.781053960323333740e-02
1.762354224920272827e-01
1.199921146035194397e-01
8.099966496229171753e-02
-6.258081644773483276e-02
1.181275844573974609e-01
-1.665599942207336426e-01
1.337446570396423340e-01
-1.180163398385047913e-01
-6.629087962210178375e-03
-1.239963248372077942e-01
-1.729548126459121704e-01
1.023745462298393250e-01
8.515895158052444458e-02
-7.437627017498016357e-02
3.379220515489578247e-02
3.371309489011764526e-02
9.531931136734783649e-04
-4.107391461730003357e-02
1.212935671210289001e-01
1.468525975942611694e-01
